{"learner":{"attributes":{"scikit_learn":"{\"_estimator_type\": \"regressor\"}"},"feature_names":[],"feature_types":[],"gradient_booster":{"model":{"gbtree_model_param":{"num_parallel_tree":"1","num_trees":"1200"},"iteration_indptr":[0,1,2,3,4,5,6,7,8,9,10,11,12,13,14,15,16,17,18,19,20,21,22,23,24,25,26,27,28,29,30,31,32,33,34,35,36,37,38,39,40,41,42,43,44,45,46,47,48,49,50,51,52,53,54,55,56,57,58,59,60,61,62,63,64,65,66,67,68,69,70,71,72,73,74,75,76,77,78,79,80,81,82,83,84,85,86,87,88,89,90,91,92,93,94,95,96,97,98,99,100,101,102,103,104,105,106,107,108,109,110,111,112,113,114,115,116,117,118,119,120,121,122,123,124,125,126,127,128,129,130,131,132,133,134,135,136,137,138,139,140,141,142,143,144,145,146,147,148,149,150,151,152,153,154,155,156,157,158,159,160,161,162,163,164,165,166,167,168,169,170,171,172,173,174,175,176,177,178,179,180,181,182,183,184,185,186,187,188,189,190,191,192,193,194,195,196,197,198,199,200,201,202,203,204,205,206,207,208,209,210,211,212,213,214,215,216,217,218,219,220,221,222,223,224,225,226,227,228,229,230,231,232,233,234,235,236,237,238,239,240,241,242,243,244,245,246,247,248,249,250,251,252,253,254,255,256,257,258,259,260,261,262,263,264,265,266,267,268,269,270,271,272,273,274,275,276,277,278,279,280,281,282,283,284,285,286,287,288,289,290,291,292,293,294,295,296,297,298,299,300,301,302,303,304,305,306,307,308,309,310,311,312,313,314,315,316,317,318,319,320,321,322,323,324,325,326,327,328,329,330,331,332,333,334,335,336,337,338,339,340,341,342,343,344,345,346,347,348,349,350,351,352,353,354,355,356,357,358,359,360,361,362,363,364,365,366,367,368,369,370,371,372,373,374,375,376,377,378,379,380,381,382,383,384,385,386,387,388,389,390,391,392,393,394,395,396,397,398,399,400,401,402,403,404,405,406,407,408,409,410,411,412,413,414,415,416,417,418,419,420,421,422,423,424,425,426,427,428,429,430,431,432,433,434,435,436,437,438,439,440,441,442,443,444,445,446,447,448,449,450,451,452,453,454,455,456,457,458,459,460,461,462,463,464,465,466,467,468,469,470,471,472,473,474,475,476,477,478,479,480,481,482,483,484,485,486,487,488,489,490,491,492,493,494,495,496,497,498,499,500,501,502,503,504,505,506,507,508,509,510,511,512,513,514,515,516,517,518,519,520,521,522,523,524,525,526,527,528,529,530,531,532,533,534,535,536,537,538,539,540,541,542,543,544,545,546,547,548,549,550,551,552,553,554,555,556,557,558,559,560,561,562,563,564,565,566,567,568,569,570,571,572,573,574,575,576,577,578,579,580,581,582,583,584,585,586,587,588,589,590,591,592,593,594,595,596,597,598,599,600,601,602,603,604,605,606,607,608,609,610,611,612,613,614,615,616,617,618,619,620,621,622,623,624,625,626,627,628,629,630,631,632,633,634,635,636,637,638,639,640,641,642,643,644,645,646,647,648,649,650,651,652,653,654,655,656,657,658,659,660,661,662,663,664,665,666,667,668,669,670,671,672,673,674,675,676,677,678,679,680,681,682,683,684,685,686,687,688,689,690,691,692,693,694,695,696,697,698,699,700,701,702,703,704,705,706,707,708,709,710,711,712,713,714,715,716,717,718,719,720,721,722,723,724,725,726,727,728,729,730,731,732,733,734,735,736,737,738,739,740,741,742,743,744,745,746,747,748,749,750,751,752,753,754,755,756,757,758,759,760,761,762,763,764,765,766,767,768,769,770,771,772,773,774,775,776,777,778,779,780,781,782,783,784,785,786,787,788,789,790,791,792,793,794,795,796,797,798,799,800,801,802,803,804,805,806,807,808,809,810,811,812,813,814,815,816,817,818,819,820,821,822,823,824,825,826,827,828,829,830,831,832,833,834,835,836,837,838,839,840,841,842,843,844,845,846,847,848,849,850,851,852,853,854,855,856,857,858,859,860,861,862,863,864,865,866,867,868,869,870,871,872,873,874,875,876,877,878,879,880,881,882,883,884,885,886,887,888,889,890,891,892,893,894,895,896,897,898,899,900,901,902,903,904,905,906,907,908,909,910,911,912,913,914,915,916,917,918,919,920,921,922,923,924,925,926,927,928,929,930,931,932,933,934,935,936,937,938,939,940,941,942,943,944,945,946,947,948,949,950,951,952,953,954,955,956,957,958,959,960,961,962,963,964,965,966,967,968,969,970,971,972,973,974,975,976,977,978,979,980,981,982,983,984,985,986,987,988,989,990,991,992,993,994,995,996,997,998,999,1000,1001,1002,1003,1004,1005,1006,1007,1008,1009,1010,1011,1012,1013,1014,1015,1016,1017,1018,1019,1020,1021,1022,1023,1024,1025,1026,1027,1028,1029,1030,1031,1032,1033,1034,1035,1036,1037,1038,1039,1040,1041,1042,1043,1044,1045,1046,1047,1048,1049,1050,1051,1052,1053,1054,1055,1056,1057,1058,1059,1060,1061,1062,1063,1064,1065,1066,1067,1068,1069,1070,1071,1072,1073,1074,1075,1076,1077,1078,1079,1080,1081,1082,1083,1084,1085,1086,1087,1088,1089,1090,1091,1092,1093,1094,1095,1096,1097,1098,1099,1100,1101,1102,1103,1104,1105,1106,1107,1108,1109,1110,1111,1112,1113,1114,1115,1116,1117,1118,1119,1120,1121,1122,1123,1124,1125,1126,1127,1128,1129,1130,1131,1132,1133,1134,1135,1136,1137,1138,1139,1140,1141,1142,1143,1144,1145,1146,1147,1148,1149,1150,1151,1152,1153,1154,1155,1156,1157,1158,1159,1160,1161,1162,1163,1164,1165,1166,1167,1168,1169,1170,1171,1172,1173,1174,1175,1176,1177,1178,1179,1180,1181,1182,1183,1184,1185,1186,1187,1188,1189,1190,1191,1192,1193,1194,1195,1196,1197,1198,1199,1200],"tree_info":[0,0,0,0,0,0,0,0,0,0,0,0,0,0,0,0,0,0,0,0,0,0,0,0,0,0,0,0,0,0,0,0,0,0,0,0,0,0,0,0,0,0,0,0,0,0,0,0,0,0,0,0,0,0,0,0,0,0,0,0,0,0,0,0,0,0,0,0,0,0,0,0,0,0,0,0,0,0,0,0,0,0,0,0,0,0,0,0,0,0,0,0,0,0,0,0,0,0,0,0,0,0,0,0,0,0,0,0,0,0,0,0,0,0,0,0,0,0,0,0,0,0,0,0,0,0,0,0,0,0,0,0,0,0,0,0,0,0,0,0,0,0,0,0,0,0,0,0,0,0,0,0,0,0,0,0,0,0,0,0,0,0,0,0,0,0,0,0,0,0,0,0,0,0,0,0,0,0,0,0,0,0,0,0,0,0,0,0,0,0,0,0,0,0,0,0,0,0,0,0,0,0,0,0,0,0,0,0,0,0,0,0,0,0,0,0,0,0,0,0,0,0,0,0,0,0,0,0,0,0,0,0,0,0,0,0,0,0,0,0,0,0,0,0,0,0,0,0,0,0,0,0,0,0,0,0,0,0,0,0,0,0,0,0,0,0,0,0,0,0,0,0,0,0,0,0,0,0,0,0,0,0,0,0,0,0,0,0,0,0,0,0,0,0,0,0,0,0,0,0,0,0,0,0,0,0,0,0,0,0,0,0,0,0,0,0,0,0,0,0,0,0,0,0,0,0,0,0,0,0,0,0,0,0,0,0,0,0,0,0,0,0,0,0,0,0,0,0,0,0,0,0,0,0,0,0,0,0,0,0,0,0,0,0,0,0,0,0,0,0,0,0,0,0,0,0,0,0,0,0,0,0,0,0,0,0,0,0,0,0,0,0,0,0,0,0,0,0,0,0,0,0,0,0,0,0,0,0,0,0,0,0,0,0,0,0,0,0,0,0,0,0,0,0,0,0,0,0,0,0,0,0,0,0,0,0,0,0,0,0,0,0,0,0,0,0,0,0,0,0,0,0,0,0,0,0,0,0,0,0,0,0,0,0,0,0,0,0,0,0,0,0,0,0,0,0,0,0,0,0,0,0,0,0,0,0,0,0,0,0,0,0,0,0,0,0,0,0,0,0,0,0,0,0,0,0,0,0,0,0,0,0,0,0,0,0,0,0,0,0,0,0,0,0,0,0,0,0,0,0,0,0,0,0,0,0,0,0,0,0,0,0,0,0,0,0,0,0,0,0,0,0,0,0,0,0,0,0,0,0,0,0,0,0,0,0,0,0,0,0,0,0,0,0,0,0,0,0,0,0,0,0,0,0,0,0,0,0,0,0,0,0,0,0,0,0,0,0,0,0,0,0,0,0,0,0,0,0,0,0,0,0,0,0,0,0,0,0,0,0,0,0,0,0,0,0,0,0,0,0,0,0,0,0,0,0,0,0,0,0,0,0,0,0,0,0,0,0,0,0,0,0,0,0,0,0,0,0,0,0,0,0,0,0,0,0,0,0,0,0,0,0,0,0,0,0,0,0,0,0,0,0,0,0,0,0,0,0,0,0,0,0,0,0,0,0,0,0,0,0,0,0,0,0,0,0,0,0,0,0,0,0,0,0,0,0,0,0,0,0,0,0,0,0,0,0,0,0,0,0,0,0,0,0,0,0,0,0,0,0,0,0,0,0,0,0,0,0,0,0,0,0,0,0,0,0,0,0,0,0,0,0,0,0,0,0,0,0,0,0,0,0,0,0,0,0,0,0,0,0,0,0,0,0,0,0,0,0,0,0,0,0,0,0,0,0,0,0,0,0,0,0,0,0,0,0,0,0,0,0,0,0,0,0,0,0,0,0,0,0,0,0,0,0,0,0,0,0,0,0,0,0,0,0,0,0,0,0,0,0,0,0,0,0,0,0,0,0,0,0,0,0,0,0,0,0,0,0,0,0,0,0,0,0,0,0,0,0,0,0,0,0,0,0,0,0,0,0,0,0,0,0,0,0,0,0,0,0,0,0,0,0,0,0,0,0,0,0,0,0,0,0,0,0,0,0,0,0,0,0,0,0,0,0,0,0,0,0,0,0,0,0,0,0,0,0,0,0,0,0,0,0,0,0,0,0,0,0,0,0,0,0,0,0,0,0,0,0,0,0,0,0,0,0,0,0,0,0,0,0,0,0,0,0,0,0,0,0,0,0,0,0,0,0,0,0,0,0,0,0,0,0,0,0,0,0,0,0,0,0,0,0,0,0,0,0,0,0,0,0,0,0,0,0,0,0,0,0,0,0,0,0,0,0,0,0,0,0,0,0,0,0,0,0,0,0,0,0,0,0,0,0,0,0,0,0,0,0,0,0,0,0,0,0,0,0,0,0,0,0,0,0,0,0,0,0,0,0,0,0,0,0,0,0,0,0,0,0,0,0,0,0,0,0,0,0,0,0,0,0,0,0,0,0,0,0,0,0,0,0,0,0,0,0,0,0,0,0,0,0,0,0,0,0,0,0,0,0,0,0,0,0,0,0,0,0,0,0,0,0,0,0,0,0,0,0,0,0,0,0,0,0,0,0,0,0,0,0,0,0,0,0,0,0,0,0,0,0,0,0,0,0,0,0,0,0,0,0,0,0,0,0,0,0,0,0,0,0,0,0,0,0,0,0,0,0,0,0,0,0,0,0,0,0,0,0,0,0,0,0,0,0,0,0,0,0,0,0,0,0],"trees":[{"base_weights":[-4.101368E-2,7.956833E0,-1.8079834E0,4.360669E0,1.6783722E1,-3.0595105E0,7.844544E-1,2.915683E-1,1.5626475E0,2.227019E0,5.4230297E-1,-1.6353196E-1,-3.6941472E-1,1.3075201E-1,-6.902801E-1],"categories":[],"categories_nodes":[],"categories_segments":[],"categories_sizes":[],"default_left":[0,0,0,0,0,0,0,0,0,0,0,0,0,0,0],"id":0,"left_children":[1,3,5,7,9,11,13,-1,-1,-1,-1,-1,-1,-1,-1],"loss_changes":[1.7806238E4,7.2373105E3,3.3483384E3,1.7138333E3,7.3900684E3,1.1079458E3,2.7403574E3,0E0,0E0,0E0,0E0,0E0,0E0,0E0,0E0],"parents":[2147483647,0,0,1,1,2,2,3,3,4,4,5,5,6,6],"right_children":[2,4,6,8,10,12,14,-1,-1,-1,-1,-1,-1,-1,-1],"split_conditions":[-4.1439983E-1,1.7049677E0,1.4421042E0,3.2367518E0,8.054249E-1,1.0438467E0,7.4513036E-1,2.915683E-1,1.5626475E0,2.227019E0,5.4230297E-1,-1.6353196E-1,-3.6941472E-1,1.3075201E-1,-6.902801E-1],"split_indices":[1,64,147,77,157,156,1,0,0,0,0,0,0,0,0],"split_type":[0,0,0,0,0,0,0,0,0,0,0,0,0,0,0],"sum_hessian":[1.26E3,2.28E2,1.032E3,1.62E2,6.6E1,6.96E2,3.36E2,1.55E2,7E0,3.1E1,3.5E1,4.27E2,2.69E2,3.08E2,2.8E1],"tree_param":{"num_deleted":"0","num_feature":"174","num_nodes":"15","size_leaf_vector":"1"}},{"base_weights":[1.4998145E-1,7.4827332E0,-1.4524896E0,4.5829453E0,1.4732144E1,-1.900514E0,4.6597905E0,7.961911E-1,1.3784775E-1,1.9815874E0,5.7878643E-1,-1.0858996E-1,-3.860777E-1,1.0780318E0,1.772273E-1],"categories":[],"categories_nodes":[],"categories_segments":[],"categories_sizes":[],"default_left":[0,0,0,0,0,0,0,0,0,0,0,0,0,0,0],"id":1,"left_children":[1,3,5,7,9,11,13,-1,-1,-1,-1,-1,-1,-1,-1],"loss_changes":[1.4676425E4,4.7088E3,2.806902E3,2.4776926E3,4.8650156E3,1.5083352E3,1.5146898E3,0E0,0E0,0E0,0E0,0E0,0E0,0E0,0E0],"parents":[2147483647,0,0,1,1,2,2,3,3,4,4,5,5,6,6],"right_children":[2,4,6,8,10,12,14,-1,-1,-1,-1,-1,-1,-1,-1],"split_conditions":[-4.1439983E-1,1.7049677E0,3.803046E0,3.2124004E-1,8.054249E-1,2.428315E0,8.982695E-1,7.961911E-1,1.3784775E-1,1.9815874E0,5.7878643E-1,-1.0858996E-1,-3.860777E-1,1.0780318E0,1.772273E-1],"split_indices":[1,64,63,0,157,3,151,0,0,0,0,0,0,0,0],"split_type":[0,0,0,0,0,0,0,0,0,0,0,0,0,0,0],"sum_hessian":[1.249E3,2.24E2,1.025E3,1.6E2,6.4E1,9.55E2,7E1,5.5E1,1.05E2,2.7E1,3.7E1,8.09E2,1.46E2,1.5E1,5.5E1],"tree_param":{"num_deleted":"0","num_feature":"174","num_nodes":"15","size_leaf_vector":"1"}},{"base_weights":[-1.9858491E-1,7.4548054E0,-1.3490522E0,3.6662734E0,1.4566545E1,-1.8687975E0,3.8588643E0,1.5883051E-1,1.2492771E0,8.1684434E-1,2.581718E0,7.4267484E-2,-1.9820853E-1,-3.452632E-1,4.514873E-1],"categories":[],"categories_nodes":[],"categories_segments":[],"categories_sizes":[],"default_left":[0,0,0,0,0,0,0,0,0,0,0,0,0,0,0],"id":2,"left_children":[1,3,5,7,9,11,13,-1,-1,-1,-1,-1,-1,-1,-1],"loss_changes":[1.1050221E4,4.418593E3,2.9531018E3,2.1508364E3,4.37934E3,1.74006E3,1.480785E3,0E0,0E0,0E0,0E0,0E0,0E0,0E0,0E0],"parents":[2147483647,0,0,1,1,2,2,3,3,4,4,5,5,6,6],"right_children":[2,4,6,8,10,12,14,-1,-1,-1,-1,-1,-1,-1,-1],"split_conditions":[-9.9416494E-1,1.7049677E0,3.2367518E0,1.4533713E0,1.6928643E0,-1.24517284E-1,4.6265492E-1,1.5883051E-1,1.2492771E0,8.1684434E-1,2.581718E0,7.4267484E-2,-1.9820853E-1,-3.452632E-1,4.514873E-1],"split_indices":[1,64,77,149,92,1,2,0,0,0,0,0,0,0,0],"split_type":[0,0,0,0,0,0,0,0,0,0,0,0,0,0,0],"sum_hessian":[1.255E3,1.64E2,1.091E3,1.07E2,5.7E1,9.92E2,9.9E1,9.4E1,1.3E1,4.6E1,1.1E1,1.81E2,8.11E2,1.8E1,8.1E1],"tree_param":{"num_deleted":"0","num_feature":"174","num_nodes":"15","size_leaf_vector":"1"}},{"base_weights":[9.707405E-2,6.3223677E0,-1.3460312E0,5.566362E0,2.4932568E0,-1.8294219E0,3.587665E0,2.8726742E-1,1.2337509E0,-9.742686E-2,-3.1699902E-1,4.7345123E-1,-2.8005517E-1],"categories":[],"categories_nodes":[],"categories_segments":[],"categories_sizes":[],"default_left":[0,0,0,0,0,0,0,0,0,0,0,0,0],"id":3,"left_children":[1,3,5,7,-1,9,11,-1,-1,-1,-1,-1,-1],"loss_changes":[1.1409387E4,4.527049E3,2.4588281E3,4.5085405E3,0E0,1.2236309E3,1.5512686E3,0E0,0E0,0E0,0E0,0E0,0E0],"parents":[2147483647,0,0,1,1,2,2,3,3,5,5,6,6],"right_children":[2,4,6,8,-1,10,12,-1,-1,-1,-1,-1,-1],"split_conditions":[-4.1439983E-1,4.3730183E0,3.2367518E0,2.4216702E0,2.4932568E0,1.910166E0,2.428315E0,2.8726742E-1,1.2337509E0,-9.742686E-2,-3.1699902E-1,4.7345123E-1,-2.8005517E-1],"split_indices":[1,29,77,79,0,81,93,0,0,0,0,0,0],"split_type":[0,0,0,0,0,0,0,0,0,0,0,0,0],"sum_hessian":[1.27E3,2.39E2,1.031E3,2.32E2,7E0,9.39E2,9.2E1,1.94E2,3.8E1,7.34E2,2.05E2,6.9E1,2.3E1],"tree_param":{"num_deleted":"0","num_feature":"174","num_nodes":"13","size_leaf_vector":"1"}},{"base_weights":[-5.7453208E-2,-1.2600833E0,2.4544349E0,-3.1333444E-1,-3.7589965E0,1.4296246E-2,7.7540817E0,-5.484683E-2,8.660903E-1,-3.8603565E-1,-7.291332E-2,-4.9393225E-2,3.5196123E-1,1.4677618E0,3.776697E-1],"categories":[],"categories_nodes":[],"categories_segments":[],"categories_sizes":[],"default_left":[0,0,0,0,0,0,0,0,0,0,0,0,0,0,0],"id":4,"left_children":[1,3,5,7,9,11,13,-1,-1,-1,-1,-1,-1,-1,-1],"loss_changes":[3.788169E3,2.00622E3,5.250311E3,2.5992546E3,7.277705E2,7.805528E2,4.1170386E3,0E0,0E0,0E0,0E0,0E0,0E0,0E0,0E0],"parents":[2147483647,0,0,1,1,2,2,3,3,4,4,5,5,6,6],"right_children":[2,4,6,8,10,12,14,-1,-1,-1,-1,-1,-1,-1,-1],"split_conditions":[1.4421042E0,1.6691562E0,2.083703E0,4.504426E0,1.6347783E0,2.224268E0,1.3837205E0,-5.484683E-2,8.660903E-1,-3.8603565E-1,-7.291332E-2,-4.9393225E-2,3.5196123E-1,1.4677618E0,3.776697E-1],"split_indices":[147,136,58,59,82,123,113,0,0,0,0,0,0,0,0],"split_type":[0,0,0,0,0,0,0,0,0,0,0,0,0,0,0],"sum_hessian":[1.254E3,8.48E2,4.06E2,6.15E2,2.33E2,2.78E2,1.28E2,5.95E2,2E1,1.68E2,6.5E1,2.43E2,3.5E1,2.8E1,1E2],"tree_param":{"num_deleted":"0","num_feature":"174","num_nodes":"15","size_leaf_vector":"1"}},{"base_weights":[4.1435264E-2,5.5712852E0,-1.1921026E0,3.7536402E0,1.261458E1,-1.4708611E0,3.9442127E0,5.7862807E-2,7.252285E-1,-5.6566036E-1,1.3159461E0,-1.4912367E-1,2.2839782E-1,3.2141304E0,-1.18615314E-1],"categories":[],"categories_nodes":[],"categories_segments":[],"categories_sizes":[],"default_left":[0,0,0,0,0,0,0,0,0,0,0,0,0,0,0],"id":5,"left_children":[1,3,5,7,9,11,13,-1,-1,-1,-1,-1,-1,-1,-1],"loss_changes":[8.751717E3,2.9956553E3,1.5019403E3,3.023773E3,3.7384707E3,1.7548491E3,1.0718268E4,0E0,0E0,0E0,0E0,0E0,0E0,0E0,0E0],"parents":[2147483647,0,0,1,1,2,2,3,3,4,4,5,5,6,6],"right_children":[2,4,6,8,10,12,14,-1,-1,-1,-1,-1,-1,-1,-1],"split_conditions":[-4.1439983E-1,2.00341E0,4.3730183E0,1.4265777E0,-1.1729192E0,3.2367518E0,-2.3155115E0,5.7862807E-2,7.252285E-1,-5.6566036E-1,1.3159461E0,-1.4912367E-1,2.2839782E-1,3.2141304E0,-1.18615314E-1],"split_indices":[1,80,29,100,0,77,0,0,0,0,0,0,0,0,0],"split_type":[0,0,0,0,0,0,0,0,0,0,0,0,0,0,0],"sum_hessian":[1.283E3,2.34E2,1.049E3,1.86E2,4.8E1,9.95E2,5.4E1,1.19E2,6.7E1,8E0,4E1,9.1E2,8.5E1,7E0,4.7E1],"tree_param":{"num_deleted":"0","num_feature":"174","num_nodes":"15","size_leaf_vector":"1"}},{"base_weights":[1.8764192E-2,5.2153835E0,-1.1126735E0,3.0026395E0,1.1200613E1,-2.1023247E0,1.0105667E0,6.388722E-1,4.91622E-2,1.1782174E0,-2.8693008E-1,-1.7858946E-1,5.642276E-1,8.3248943E-1,5.078271E-3],"categories":[],"categories_nodes":[],"categories_segments":[],"categories_sizes":[],"default_left":[0,0,0,0,0,0,0,0,0,0,0,0,0,0,0],"id":6,"left_children":[1,3,5,7,9,11,13,-1,-1,-1,-1,-1,-1,-1,-1],"loss_changes":[7.4318945E3,2.9930415E3,2.1811194E3,1.9815201E3,3.2774624E3,9.4641113E2,2.9572412E3,0E0,0E0,0E0,0E0,0E0,0E0,0E0,0E0],"parents":[2147483647,0,0,1,1,2,2,3,3,4,4,5,5,6,6],"right_children":[2,4,6,8,10,12,14,-1,-1,-1,-1,-1,-1,-1,-1],"split_conditions":[-4.1439983E-1,1.7049677E0,1.4421042E0,8.4505564E-1,3.2367518E0,5.901633E0,6.3381195E-1,6.388722E-1,4.91622E-2,1.1782174E0,-2.8693008E-1,-1.7858946E-1,5.642276E-1,8.3248943E-1,5.078271E-3],"split_indices":[1,64,147,162,31,5,164,0,0,0,0,0,0,0,0],"split_type":[0,0,0,0,0,0,0,0,0,0,0,0,0,0,0],"sum_hessian":[1.264E3,2.26E2,1.038E3,1.65E2,6.1E1,7.08E2,3.3E2,5.3E1,1.12E2,4.9E1,1.2E1,6.97E2,1.1E1,3E1,3E2],"tree_param":{"num_deleted":"0","num_feature":"174","num_nodes":"15","size_leaf_vector":"1"}},{"base_weights":[-7.1677916E-2,3.5395703E0,-1.4554682E0,1.8422978E0,8.179946E0,-8.522543E-1,-3.730068E0,2.1637222E-3,4.8986116E-1,5.250197E-1,1.8300043E0,-9.872142E-2,2.4659252E-1,-3.4749252E-1,-1.9417E-1],"categories":[],"categories_nodes":[],"categories_segments":[],"categories_sizes":[],"default_left":[0,0,0,0,0,0,0,0,0,0,0,0,0,0,0],"id":7,"left_children":[1,3,5,7,9,11,13,-1,-1,-1,-1,-1,-1,-1,-1],"loss_changes":[6.3314585E3,2.764433E3,1.2567991E3,2.0163855E3,2.1950732E3,1.1173966E3,1.5883301E2,0E0,0E0,0E0,0E0,0E0,0E0,0E0,0E0],"parents":[2147483647,0,0,1,1,2,2,3,3,4,4,5,5,6,6],"right_children":[2,4,6,8,10,12,14,-1,-1,-1,-1,-1,-1,-1,-1],"split_conditions":[1.6536526E-1,1.4265777E0,1.910166E0,1.4421042E0,2.146362E0,3.2367518E0,1.6347783E0,2.1637222E-3,4.8986116E-1,5.250197E-1,1.8300043E0,-9.872142E-2,2.4659252E-1,-3.4749252E-1,-1.9417E-1],"split_indices":[1,100,81,147,145,77,82,0,0,0,0,0,0,0,0],"split_type":[0,0,0,0,0,0,0,0,0,0,0,0,0,0,0],"sum_hessian":[1.267E3,3.51E2,9.16E2,2.57E2,9.4E1,7.24E2,1.92E2,1.81E2,7.6E1,8.5E1,9E0,6.59E2,6.5E1,1.28E2,6.4E1],"tree_param":{"num_deleted":"0","num_feature":"174","num_nodes":"15","size_leaf_vector":"1"}},{"base_weights":[1.5481479E-2,3.4294908E0,-1.3248017E0,1.8196386E0,8.188243E0,-1.5828671E0,3.56153E0,8.910338E-2,8.7460786E-1,4.8680347E-1,1.9775722E0,-1.3832392E-1,4.082685E-1,2.2348232E0,-1.9176675E-1],"categories":[],"categories_nodes":[],"categories_segments":[],"categories_sizes":[],"default_left":[0,0,0,0,0,0,0,0,0,0,0,0,0,0,0],"id":8,"left_children":[1,3,5,7,9,11,13,-1,-1,-1,-1,-1,-1,-1,-1],"loss_changes":[5.843227E3,2.7578823E3,1.1563237E3,1.7256467E3,3.1330874E3,9.2467847E2,6.7514595E3,0E0,0E0,0E0,0E0,0E0,0E0,0E0,0E0],"parents":[2147483647,0,0,1,1,2,2,3,3,4,4,5,5,6,6],"right_children":[2,4,6,8,10,12,14,-1,-1,-1,-1,-1,-1,-1,-1],"split_conditions":[1.6536526E-1,1.7049677E0,4.3730183E0,3.2367518E0,2.146362E0,5.901633E0,1.1163231E0,8.910338E-2,8.7460786E-1,4.8680347E-1,1.9775722E0,-1.3832392E-1,4.082685E-1,2.2348232E0,-1.9176675E-1],"split_indices":[1,64,29,77,145,5,73,0,0,0,0,0,0,0,0],"split_type":[0,0,0,0,0,0,0,0,0,0,0,0,0,0,0],"sum_hessian":[1.277E3,3.6E2,9.17E2,2.69E2,9.1E1,8.71E2,4.6E1,2.5E2,1.9E1,8.1E1,1E1,8.51E2,2E1,9E0,3.7E1],"tree_param":{"num_deleted":"0","num_feature":"174","num_nodes":"15","size_leaf_vector":"1"}},{"base_weights":[1.464812E-1,-7.810088E-1,2.0604305E0,5.6910373E-2,-2.9913976E0,1.9013558E-1,6.2133393E0,-2.2385169E-2,7.6178116E-1,-3.0177224E-1,-7.305315E-2,-3.6957256E-2,3.3952165E-1,5.7556695E-1,-4.6405965E-1],"categories":[],"categories_nodes":[],"categories_segments":[],"categories_sizes":[],"default_left":[0,0,0,0,0,0,0,0,0,0,0,0,0,0,0],"id":9,"left_children":[1,3,5,7,9,11,13,-1,-1,-1,-1,-1,-1,-1,-1],"loss_changes":[2.2242913E3,1.563206E3,3.176746E3,1.9750974E3,3.8764868E2,7.5443256E2,1.5771255E3,0E0,0E0,0E0,0E0,0E0,0E0,0E0,0E0],"parents":[2147483647,0,0,1,1,2,2,3,3,4,4,5,5,6,6],"right_children":[2,4,6,8,10,12,14,-1,-1,-1,-1,-1,-1,-1,-1],"split_conditions":[1.4421042E0,1.6691562E0,2.083703E0,4.504426E0,1.4786991E0,2.224268E0,2.428315E0,-2.2385169E-2,7.6178116E-1,-3.0177224E-1,-7.305315E-2,-3.6957256E-2,3.3952165E-1,5.7556695E-1,-4.6405965E-1],"split_indices":[147,136,62,59,117,123,3,0,0,0,0,0,0,0,0],"split_type":[0,0,0,0,0,0,0,0,0,0,0,0,0,0,0],"sum_hessian":[1.253E3,8.44E2,4.09E2,6.12E2,2.32E2,2.82E2,1.27E2,5.91E2,2.1E1,1.67E2,6.5E1,2.43E2,3.9E1,1.17E2,1E1],"tree_param":{"num_deleted":"0","num_feature":"174","num_nodes":"15","size_leaf_vector":"1"}},{"base_weights":[2.0909083E-1,4.5182514E0,-7.856528E-1,1.9771259E0,9.441635E0,-1.5381994E0,7.692968E-1,2.9369092E-1,-2.6344857E-1,5.629909E-1,1.8111633E0,-1.4402412E-1,2.1204683E-1,7.120385E-1,-8.302188E-3],"categories":[],"categories_nodes":[],"categories_segments":[],"categories_sizes":[],"default_left":[0,0,0,0,0,0,0,0,0,0,0,0,0,0,0],"id":10,"left_children":[1,3,5,7,9,11,13,-1,-1,-1,-1,-1,-1,-1,-1],"loss_changes":[5.371011E3,2.9400273E3,1.191238E3,1.4102192E3,2.516829E3,7.917844E2,2.3764387E3,0E0,0E0,0E0,0E0,0E0,0E0,0E0,0E0],"parents":[2147483647,0,0,1,1,2,2,3,3,4,4,5,5,6,6],"right_children":[2,4,6,8,10,12,14,-1,-1,-1,-1,-1,-1,-1,-1],"split_conditions":[-4.1439983E-1,1.4265777E0,1.4421042E0,1.910166E0,2.4216702E0,4.3730183E0,6.3381195E-1,2.9369092E-1,-2.6344857E-1,5.629909E-1,1.8111633E0,-1.4402412E-1,2.1204683E-1,7.120385E-1,-8.302188E-3],"split_indices":[1,100,147,81,79,29,164,0,0,0,0,0,0,0,0],"split_type":[0,0,0,0,0,0,0,0,0,0,0,0,0,0,0],"sum_hessian":[1.253E3,2.35E2,1.018E3,1.55E2,8E1,6.86E2,3.32E2,1.17E2,3.8E1,6.8E1,1.2E1,6.44E2,4.2E1,3.2E1,3E2],"tree_param":{"num_deleted":"0","num_feature":"174","num_nodes":"15","size_leaf_vector":"1"}},{"base_weights":[-1.275673E-1,7.184086E-1,-2.049057E0,3.8024577E-1,7.81128E0,-3.2896106E0,3.200926E-1,-8.418662E-2,1.3150392E-1,3.2822478E0,-4.4710148E-2,-3.471042E-1,-4.045467E-2,2.1166138E-1,-1.878213E-1],"categories":[],"categories_nodes":[],"categories_segments":[],"categories_sizes":[],"default_left":[0,0,0,0,0,0,0,0,0,0,0,0,0,0,0],"id":11,"left_children":[1,3,5,7,9,11,13,-1,-1,-1,-1,-1,-1,-1,-1],"loss_changes":[2.057931E3,2.108291E3,1.1374263E3,1.5398334E3,1.122002E4,7.618384E2,8.365889E2,0E0,0E0,0E0,0E0,0E0,0E0,0E0,0E0],"parents":[2147483647,0,0,1,1,2,2,3,3,4,4,5,5,6,6],"right_children":[2,4,6,8,10,12,14,-1,-1,-1,-1,-1,-1,-1,-1],"split_conditions":[1.52926E0,4.3730183E0,1.4786991E0,8.9703304E-1,-1.6123778E0,8.925362E-1,1.9535592E0,-8.418662E-2,1.3150392E-1,3.2822478E0,-4.4710148E-2,-3.471042E-1,-4.045467E-2,2.1166138E-1,-1.878213E-1],"split_indices":[125,29,117,155,0,0,98,0,0,0,0,0,0,0,0],"split_type":[0,0,0,0,0,0,0,0,0,0,0,0,0,0,0],"sum_hessian":[1.266E3,8.79E2,3.87E2,8.39E2,4E1,2.54E2,1.33E2,3.94E2,4.45E2,8E0,3.2E1,1.83E2,7.1E1,7.1E1,6.2E1],"tree_param":{"num_deleted":"0","num_feature":"174","num_nodes":"15","size_leaf_vector":"1"}},{"base_weights":[-4.3767728E-2,2.6364346E0,-1.0950067E0,1.1944869E0,7.40185E0,-1.3405163E0,3.2627103E0,1.700877E-1,-1.8731931E-1,1.1369274E0,1.1418381E-1,-9.552869E-2,-6.461571E-1,2.5273252E0,-1.2797451E-1],"categories":[],"categories_nodes":[],"categories_segments":[],"categories_sizes":[],"default_left":[0,0,0,0,0,0,0,0,0,0,0,0,0,0,0],"id":12,"left_children":[1,3,5,7,9,11,13,-1,-1,-1,-1,-1,-1,-1,-1],"loss_changes":[3.5303635E3,2.425601E3,9.6286804E2,9.106808E2,3.378045E3,8.0006335E2,6.677074E3,0E0,0E0,0E0,0E0,0E0,0E0,0E0,0E0],"parents":[2147483647,0,0,1,1,2,2,3,3,4,4,5,5,6,6],"right_children":[2,4,6,8,10,12,14,-1,-1,-1,-1,-1,-1,-1,-1],"split_conditions":[1.6536526E-1,1.7049677E0,4.3730183E0,1.6691562E0,8.054249E-1,5.9630165E0,-2.3155115E0,1.700877E-1,-1.8731931E-1,1.1369274E0,1.1418381E-1,-9.552869E-2,-6.461571E-1,2.5273252E0,-1.2797451E-1],"split_indices":[1,64,29,136,157,1,0,0,0,0,0,0,0,0,0],"split_type":[0,0,0,0,0,0,0,0,0,0,0,0,0,0,0],"sum_hessian":[1.253E3,3.53E2,9E2,2.71E2,8.2E1,8.52E2,4.8E1,2.14E2,5.7E1,3.8E1,4.4E1,8.35E2,1.7E1,7E0,4.1E1],"tree_param":{"num_deleted":"0","num_feature":"174","num_nodes":"15","size_leaf_vector":"1"}},{"base_weights":[-1.2532464E-1,-2.168552E-1,1.1418502E0,2.404869E-1,-2.8092823E0,-4.0209787E-3,4.659989E-1,-4.0871271E-1,-3.7728313E-2],"categories":[],"categories_nodes":[],"categories_segments":[],"categories_sizes":[],"default_left":[0,0,0,0,0,0,0,0,0],"id":13,"left_children":[1,3,-1,5,7,-1,-1,-1,-1],"loss_changes":[1.691614E3,1.5021976E3,0E0,1.7632322E3,1.0354106E3,0E0,0E0,0E0,0E0],"parents":[2147483647,0,0,1,1,3,3,4,4],"right_children":[2,4,-1,6,8,-1,-1,-1,-1],"split_conditions":[1.2736649E1,2.428315E0,1.1418502E0,4.3730183E0,7.4243814E-1,-4.0209787E-3,4.659989E-1,-4.0871271E-1,-3.7728313E-2],"split_indices":[44,3,0,29,161,0,0,0,0],"split_type":[0,0,0,0,0,0,0,0,0],"sum_hessian":[1.275E3,1.267E3,8E0,1.077E3,1.9E2,1.024E3,5.3E1,9.5E1,9.5E1],"tree_param":{"num_deleted":"0","num_feature":"174","num_nodes":"9","size_leaf_vector":"1"}},{"base_weights":[-1.8588609E-1,2.1737542E0,-1.1023576E0,4.9846655E-1,5.1624374E0,-9.7387445E-1,-7.3692718E0,-6.693778E-2,3.7306032E-1,-7.7140056E-2,6.151089E-1,-1.3288318E-1,5.0308492E-2,-6.162475E-1,-5.609678E-1],"categories":[],"categories_nodes":[],"categories_segments":[],"categories_sizes":[],"default_left":[0,0,0,0,0,0,0,0,0,0,0,0,0,0,0],"id":14,"left_children":[1,3,5,7,9,11,13,-1,-1,-1,-1,-1,-1,-1,-1],"loss_changes":[2.6902E3,1.7423813E3,7.21422E2,1.2548594E3,1.9770784E3,9.8552954E2,2.0958862E0,0E0,0E0,0E0,0E0,0E0,0E0,0E0,0E0],"parents":[2147483647,0,0,1,1,2,2,3,3,4,4,5,5,6,6],"right_children":[2,4,6,8,10,12,14,-1,-1,-1,-1,-1,-1,-1,-1],"split_conditions":[1.6536526E-1,1.4421042E0,5.9630165E0,1.5048071E0,-2.94002E-1,1.4421042E0,2.7828128E0,-6.693778E-2,3.7306032E-1,-7.7140056E-2,6.151089E-1,-1.3288318E-1,5.0308492E-2,-6.162475E-1,-5.609678E-1],"split_indices":[1,147,1,105,0,147,110,0,0,0,0,0,0,0,0],"split_type":[0,0,0,0,0,0,0,0,0,0,0,0,0,0,0],"sum_hessian":[1.244E3,3.48E2,8.96E2,2.23E2,1.25E2,8.78E2,1.8E1,1.69E2,5.4E1,3.7E1,8.8E1,6.12E2,2.66E2,8E0,1E1],"tree_param":{"num_deleted":"0","num_feature":"174","num_nodes":"15","size_leaf_vector":"1"}},{"base_weights":[1.0136923E-1,3.3227794E0,-6.3289624E-1,1.322129E0,7.1989927E0,-8.790139E-1,2.8525088E0,7.808679E-1,3.795058E-2,4.1268292E-1,2.006045E0,-1.1792892E-1,2.6771644E-2,8.0772364E-1,1.7466737E-2],"categories":[],"categories_nodes":[],"categories_segments":[],"categories_sizes":[],"default_left":[0,0,0,0,0,0,0,0,0,0,0,0,0,0,0],"id":15,"left_children":[1,3,5,7,9,11,13,-1,-1,-1,-1,-1,-1,-1,-1],"loss_changes":[2.9945686E3,1.8223811E3,8.8440466E2,1.1132925E3,2.8951445E3,7.0859094E2,1.3091211E3,0E0,0E0,0E0,0E0,0E0,0E0,0E0,0E0],"parents":[2147483647,0,0,1,1,2,2,3,3,4,4,5,5,6,6],"right_children":[2,4,6,8,10,12,14,-1,-1,-1,-1,-1,-1,-1,-1],"split_conditions":[-4.1439983E-1,1.4265777E0,3.803046E0,-1.2840475E0,2.339095E0,1.4786991E0,8.982695E-1,7.808679E-1,3.795058E-2,4.1268292E-1,2.006045E0,-1.1792892E-1,2.6771644E-2,8.0772364E-1,1.7466737E-2],"split_indices":[1,100,63,1,146,117,151,0,0,0,0,0,0,0,0],"split_type":[0,0,0,0,0,0,0,0,0,0,0,0,0,0,0],"sum_hessian":[1.266E3,2.35E2,1.031E3,1.55E2,8E1,9.63E2,6.8E1,1.4E1,1.41E2,7.2E1,8E0,6.43E2,3.2E2,1.8E1,5E1],"tree_param":{"num_deleted":"0","num_feature":"174","num_nodes":"15","size_leaf_vector":"1"}},{"base_weights":[-2.1990584E-3,2.78399E0,-6.1861616E-1,5.496601E0,9.755545E-1,-2.3408203E-1,-2.709193E0,1.2771465E-1,9.003025E-1,-5.1394597E-2,3.948431E-1,-4.6198063E-2,2.6573032E-1,-3.4089354E-1,-8.964092E-2],"categories":[],"categories_nodes":[],"categories_segments":[],"categories_sizes":[],"default_left":[0,0,0,0,0,0,0,0,0,0,0,0,0,0,0],"id":16,"left_children":[1,3,5,7,9,11,13,-1,-1,-1,-1,-1,-1,-1,-1],"loss_changes":[2.1330706E3,1.103732E3,8.1755347E2,2.0420071E3,8.746911E2,1.0676014E3,3.9492322E2,0E0,0E0,0E0,0E0,0E0,0E0,0E0,0E0],"parents":[2147483647,0,0,1,1,2,2,3,3,4,4,5,5,6,6],"right_children":[2,4,6,8,10,12,14,-1,-1,-1,-1,-1,-1,-1,-1],"split_conditions":[-4.1439983E-1,8.4505564E-1,2.428315E0,1.0509921E0,1.5048071E0,3.2367518E0,7.4243814E-1,1.2771465E-1,9.003025E-1,-5.1394597E-2,3.948431E-1,-4.6198063E-2,2.6573032E-1,-3.4089354E-1,-8.964092E-2],"split_indices":[1,162,3,133,105,77,161,0,0,0,0,0,0,0,0],"split_type":[0,0,0,0,0,0,0,0,0,0,0,0,0,0,0],"sum_hessian":[1.242E3,2.25E2,1.017E3,9E1,1.35E2,8.59E2,1.58E2,5.4E1,3.6E1,9.6E1,3.9E1,7.83E2,7.6E1,7.9E1,7.9E1],"tree_param":{"num_deleted":"0","num_feature":"174","num_nodes":"15","size_leaf_vector":"1"}},{"base_weights":[-6.358763E-2,-5.359276E-1,1.9587263E0,-1.1934865E0,5.9808785E-1,3.720705E0,-3.9037895E0,3.3486765E-2,-1.4962499E-1,-5.7127904E-2,4.260801E-1,7.401078E-1,1.5494643E-1,-2.5894195E-1,-4.938052E-1],"categories":[],"categories_nodes":[],"categories_segments":[],"categories_sizes":[],"default_left":[0,0,0,0,0,0,0,0,0,0,0,0,0,0,0],"id":17,"left_children":[1,3,5,7,9,11,13,-1,-1,-1,-1,-1,-1,-1,-1],"loss_changes":[1.2007058E3,7.598522E2,2.4584507E3,7.182743E2,2.346749E3,1.8124983E3,8.193689E1,0E0,0E0,0E0,0E0,0E0,0E0,0E0,0E0],"parents":[2147483647,0,0,1,1,2,2,3,3,4,4,5,5,6,6],"right_children":[2,4,6,8,10,12,14,-1,-1,-1,-1,-1,-1,-1,-1],"split_conditions":[2.0698242E0,1.3900129E0,2.428315E0,5.3615963E-1,1.6347783E0,1.3837205E0,1.7234472E0,3.3486765E-2,-1.4962499E-1,-5.7127904E-2,4.260801E-1,7.401078E-1,1.5494643E-1,-2.5894195E-1,-4.938052E-1],"split_indices":[71,120,3,167,82,113,116,0,0,0,0,0,0,0,0],"split_type":[0,0,0,0,0,0,0,0,0,0,0,0,0,0,0],"sum_hessian":[1.257E3,1.019E3,2.38E2,6.45E2,3.74E2,1.83E2,5.5E1,1.93E2,4.52E2,2.93E2,8.1E1,4.4E1,1.39E2,4.3E1,1.2E1],"tree_param":{"num_deleted":"0","num_feature":"174","num_nodes":"15","size_leaf_vector":"1"}},{"base_weights":[-1.4937162E-1,5.59247E-1,-1.8191583E0,1.5395591E0,-7.1057767E-1,-3.217501E0,-3.4438318E-1,1.9303957E-1,-9.674537E-2,-8.1441544E-2,2.1073893E-1,-2.302607E-1,-5.185843E-1,-8.621679E-2,2.4013828E-1],"categories":[],"categories_nodes":[],"categories_segments":[],"categories_sizes":[],"default_left":[0,0,0,0,0,0,0,0,0,0,0,0,0,0,0],"id":18,"left_children":[1,3,5,7,9,11,13,-1,-1,-1,-1,-1,-1,-1,-1],"loss_changes":[1.4932561E3,1.1029176E3,7.753894E2,1.2267437E3,4.080617E2,2.0409412E2,4.563035E2,0E0,0E0,0E0,0E0,0E0,0E0,0E0,0E0],"parents":[2147483647,0,0,1,1,2,2,3,3,4,4,5,5,6,6],"right_children":[2,4,6,8,10,12,14,-1,-1,-1,-1,-1,-1,-1,-1],"split_conditions":[1.52926E0,1.2433532E0,1.1025816E0,1.910166E0,2.7370293E0,2.0977929E0,1.7049677E0,1.9303957E-1,-9.674537E-2,-8.1441544E-2,2.1073893E-1,-2.302607E-1,-5.185843E-1,-8.621679E-2,2.4013828E-1],"split_indices":[125,141,128,81,76,107,64,0,0,0,0,0,0,0,0],"split_type":[0,0,0,0,0,0,0,0,0,0,0,0,0,0,0],"sum_hessian":[1.262E3,8.86E2,3.76E2,5E2,3.86E2,1.93E2,1.83E2,3.78E2,1.22E2,3.53E2,3.3E1,1.76E2,1.7E1,1.5E2,3.3E1],"tree_param":{"num_deleted":"0","num_feature":"174","num_nodes":"15","size_leaf_vector":"1"}},{"base_weights":[1.3384803E-2,3.144539E0,-4.5939916E-1,-7.3847294E0,4.496295E0,5.5076487E-2,-2.440598E0,-2.978376E-1,-7.5530714E-1,2.1119162E-1,1.0119064E0,-4.4097684E-2,1.1530479E-1,-2.1968338E-1,-9.941421E-3],"categories":[],"categories_nodes":[],"categories_segments":[],"categories_sizes":[],"default_left":[0,0,0,0,0,0,0,0,0,0,0,0,0,0,0],"id":19,"left_children":[1,3,5,7,9,11,13,-1,-1,-1,-1,-1,-1,-1,-1],"loss_changes":[1.8845077E3,2.376901E3,1.1273309E3,1.464884E2,2.2415747E3,7.477644E2,1.7111743E2,0E0,0E0,0E0,0E0,0E0,0E0,0E0,0E0],"parents":[2147483647,0,0,1,1,2,2,3,3,4,4,5,5,6,6],"right_children":[2,4,6,8,10,12,14,-1,-1,-1,-1,-1,-1,-1,-1],"split_conditions":[-9.9416494E-1,-3.6431536E-1,1.910166E0,1.3290893E0,1.5048071E0,1.4786991E0,2.351359E0,-2.978376E-1,-7.5530714E-1,2.1119162E-1,1.0119064E0,-4.4097684E-2,1.1530479E-1,-2.1968338E-1,-9.941421E-3],"split_indices":[1,0,81,158,105,117,39,0,0,0,0,0,0,0,0],"split_type":[0,0,0,0,0,0,0,0,0,0,0,0,0,0,0],"sum_hessian":[1.273E3,1.67E2,1.106E3,1.9E1,1.48E2,8.78E2,2.28E2,7E0,1.2E1,1.21E2,2.7E1,6.11E2,2.67E2,2E2,2.8E1],"tree_param":{"num_deleted":"0","num_feature":"174","num_nodes":"15","size_leaf_vector":"1"}},{"base_weights":[1.2558375E-1,2.2978537E0,-7.2178483E-1,1.0259763E0,6.1417084E0,-2.8989732E-1,-2.3665185E0,4.1835982E-2,5.3249586E-1,3.607029E-1,1.7928979E0,-7.7737145E-2,1.0255824E-1,-3.0589235E-1,-1.4902559E-1],"categories":[],"categories_nodes":[],"categories_segments":[],"categories_sizes":[],"default_left":[0,0,0,0,0,0,0,0,0,0,0,0,0,0,0],"id":20,"left_children":[1,3,5,7,9,11,13,-1,-1,-1,-1,-1,-1,-1,-1],"loss_changes":[2.3745264E3,1.7697595E3,6.5918567E2,7.710226E2,2.3679583E3,7.9978705E2,1.4053223E2,0E0,0E0,0E0,0E0,0E0,0E0,0E0,0E0],"parents":[2147483647,0,0,1,1,2,2,3,3,4,4,5,5,6,6],"right_children":[2,4,6,8,10,12,14,-1,-1,-1,-1,-1,-1,-1,-1],"split_conditions":[1.6536526E-1,1.7049677E0,1.910166E0,3.2367518E0,2.428315E0,1.4786991E0,4.593985E-1,4.1835982E-2,5.3249586E-1,3.607029E-1,1.7928979E0,-7.7737145E-2,1.0255824E-1,-3.0589235E-1,-1.4902559E-1],"split_indices":[1,64,81,77,93,117,132,0,0,0,0,0,0,0,0],"split_type":[0,0,0,0,0,0,0,0,0,0,0,0,0,0,0],"sum_hessian":[1.29E3,3.62E2,9.28E2,2.72E2,9E1,7.35E2,1.93E2,2.5E2,2.2E1,8.2E1,8E0,5.12E2,2.23E2,4.8E1,1.45E2],"tree_param":{"num_deleted":"0","num_feature":"174","num_nodes":"15","size_leaf_vector":"1"}},{"base_weights":[1.8591669E-1,1.8979498E0,-5.171339E-1,1.5999588E0,1.3786384E0,-7.047633E-1,3.320246E0,5.9168085E-2,3.7545198E-1,-3.2712346E-1,-3.817101E-2,2.3151283E0,-1.464305E-1],"categories":[],"categories_nodes":[],"categories_segments":[],"categories_sizes":[],"default_left":[0,0,0,0,0,0,0,0,0,0,0,0,0],"id":21,"left_children":[1,3,5,7,-1,9,11,-1,-1,-1,-1,-1,-1],"loss_changes":[1.529839E3,1.7036615E3,6.487152E2,9.7028253E2,0E0,6.5763293E2,5.5982974E3,0E0,0E0,0E0,0E0,0E0,0E0],"parents":[2147483647,0,0,1,1,2,2,3,3,5,5,6,6],"right_children":[2,4,6,8,-1,10,12,-1,-1,-1,-1,-1,-1],"split_conditions":[1.6536526E-1,5.82891E0,4.3730183E0,2.00341E0,1.3786384E0,-2.3155115E0,-2.3155115E0,5.9168085E-2,3.7545198E-1,-3.2712346E-1,-3.817101E-2,2.3151283E0,-1.464305E-1],"split_indices":[1,89,29,74,0,0,0,0,0,0,0,0,0],"split_type":[0,0,0,0,0,0,0,0,0,0,0,0,0],"sum_hessian":[1.271E3,3.7E2,9.01E2,3.63E2,7E0,8.59E2,4.2E1,2.85E2,7.8E1,5.3E1,8.06E2,7E0,3.5E1],"tree_param":{"num_deleted":"0","num_feature":"174","num_nodes":"13","size_leaf_vector":"1"}},{"base_weights":[-6.740819E-2,1.674935E0,-7.6357603E-1,1.3914183E0,1.2690935E0,-6.6428995E-1,-6.6278243E0,8.6286026E-1,8.1795074E-2,-2.5983948E-2,-1.7917262E-1,-5.440448E-1,-5.0670326E-1],"categories":[],"categories_nodes":[],"categories_segments":[],"categories_sizes":[],"default_left":[0,0,0,0,0,0,0,0,0,0,0,0,0],"id":22,"left_children":[1,3,5,7,-1,9,11,-1,-1,-1,-1,-1,-1],"loss_changes":[1.5295433E3,1.4591519E3,5.2456964E2,1.2098601E3,0E0,4.7531396E2,7.750244E-1,0E0,0E0,0E0,0E0,0E0,0E0],"parents":[2147483647,0,0,1,1,2,2,3,3,5,5,6,6],"right_children":[2,4,6,8,-1,10,12,-1,-1,-1,-1,-1,-1],"split_conditions":[1.6536526E-1,5.82891E0,5.9630165E0,-1.6123778E0,1.2690935E0,2.428315E0,3.6296162E-1,8.6286026E-1,8.1795074E-2,-2.5983948E-2,-1.7917262E-1,-5.440448E-1,-5.0670326E-1],"split_indices":[1,89,1,0,0,3,152,0,0,0,0,0,0],"split_type":[0,0,0,0,0,0,0,0,0,0,0,0,0],"sum_hessian":[1.261E3,3.6E2,9.01E2,3.53E2,7E0,8.86E2,1.5E1,1.3E1,3.4E2,7.31E2,1.55E2,8E0,7E0],"tree_param":{"num_deleted":"0","num_feature":"174","num_nodes":"13","size_leaf_vector":"1"}},{"base_weights":[-6.0549702E-2,3.0175054E-1,-2.248306E0,4.0504735E-2,5.260603E0,6.504497E-1,-2.7911534E0,-5.12048E-2,1.5845636E-1,3.1159627E0,-4.122075E-2,-4.594277E-1,-1.83501E-1],"categories":[],"categories_nodes":[],"categories_segments":[],"categories_sizes":[],"default_left":[0,0,0,0,0,0,0,0,0,0,0,0,0],"id":23,"left_children":[1,3,5,7,9,-1,11,-1,-1,-1,-1,-1,-1],"loss_changes":[1.01535944E3,1.4237123E3,1.0308711E3,1.397014E3,1.0793024E4,0E0,2.4924084E2,0E0,0E0,0E0,0E0,0E0,0E0],"parents":[2147483647,0,0,1,1,2,2,3,3,4,4,6,6],"right_children":[2,4,6,8,10,-1,12,-1,-1,-1,-1,-1,-1],"split_conditions":[2.428315E0,4.3730183E0,3.6296162E-1,1.6347783E0,-1.6123778E0,6.504497E-1,-9.9416494E-1,-5.12048E-2,1.5845636E-1,3.1159627E0,-4.122075E-2,-4.594277E-1,-1.83501E-1],"split_indices":[3,29,152,82,0,0,1,0,0,0,0,0,0],"split_type":[0,0,0,0,0,0,0,0,0,0,0,0,0],"sum_hessian":[1.281E3,1.099E3,1.82E2,1.044E3,5.5E1,9E0,1.73E2,7.73E2,2.71E2,8E0,4.7E1,2.4E1,1.49E2],"tree_param":{"num_deleted":"0","num_feature":"174","num_nodes":"13","size_leaf_vector":"1"}},{"base_weights":[-3.2665454E-2,4.480016E-1,-1.7781669E0,-2.2974653E-2,2.2742069E0,-2.1150923E0,6.469529E-1,-7.49064E-2,5.214122E-2,6.6896605E-1,7.252642E-2,-2.1937706E-1,-4.044777E-2],"categories":[],"categories_nodes":[],"categories_segments":[],"categories_sizes":[],"default_left":[0,0,0,0,0,0,0,0,0,0,0,0,0],"id":24,"left_children":[1,3,5,7,9,11,-1,-1,-1,-1,-1,-1,-1],"loss_changes":[1.0647024E3,8.558071E2,9.1578314E2,4.9411026E2,1.706606E3,2.7484253E2,0E0,0E0,0E0,0E0,0E0,0E0,0E0],"parents":[2147483647,0,0,1,1,2,2,3,3,4,4,5,5],"right_children":[2,4,6,8,10,12,-1,-1,-1,-1,-1,-1,-1],"split_conditions":[1.910166E0,2.0698242E0,5.82891E0,8.9210063E-1,1.3837205E0,1.6347783E0,6.469529E-1,-7.49064E-2,5.214122E-2,6.6896605E-1,7.252642E-2,-2.1937706E-1,-4.044777E-2],"split_indices":[81,71,89,134,113,83,0,0,0,0,0,0,0],"split_type":[0,0,0,0,0,0,0,0,0,0,0,0,0],"sum_hessian":[1.269E3,9.95E2,2.74E2,7.91E2,2.04E2,2.65E2,9E0,3.36E2,4.55E2,3.7E1,1.67E2,1.89E2,7.6E1],"tree_param":{"num_deleted":"0","num_feature":"174","num_nodes":"13","size_leaf_vector":"1"}},{"base_weights":[5.4942243E-2,2.7806344E0,-3.6232692E-1,-7.015415E0,4.0781493E0,4.763972E-1,-1.3115008E0,-1.9565175E-1,-7.986009E-1,9.171973E-2,6.153133E-1,2.2155697E-2,6.8706656E-1,-1.6489601E-1,-1.9692155E-2],"categories":[],"categories_nodes":[],"categories_segments":[],"categories_sizes":[],"default_left":[0,0,0,0,0,0,0,0,0,0,0,0,0,0,0],"id":25,"left_children":[1,3,5,7,9,11,13,-1,-1,-1,-1,-1,-1,-1,-1],"loss_changes":[1.4649121E3,2.1734883E3,8.8924133E2,2.7633575E2,1.6183562E3,9.5718054E2,4.256723E2,0E0,0E0,0E0,0E0,0E0,0E0,0E0,0E0],"parents":[2147483647,0,0,1,1,2,2,3,3,4,4,5,5,6,6],"right_children":[2,4,6,8,10,12,14,-1,-1,-1,-1,-1,-1,-1,-1],"split_conditions":[-9.9416494E-1,-3.6431536E-1,1.0438467E0,1.3290893E0,1.0075164E0,5.901633E0,1.4421042E0,-1.9565175E-1,-7.986009E-1,9.171973E-2,6.153133E-1,2.2155697E-2,6.8706656E-1,-1.6489601E-1,-1.9692155E-2],"split_indices":[1,0,156,158,143,5,147,0,0,0,0,0,0,0,0],"split_type":[0,0,0,0,0,0,0,0,0,0,0,0,0,0,0],"sum_hessian":[1.288E3,1.71E2,1.117E3,2E1,1.51E2,5.93E2,5.24E2,8E0,1.2E1,8.4E1,6.7E1,5.79E2,1.4E1,3.05E2,2.19E2],"tree_param":{"num_deleted":"0","num_feature":"174","num_nodes":"15","size_leaf_vector":"1"}},{"base_weights":[-5.445839E-2,1.9714259E0,-5.3795713E-1,1.3724984E0,1.5486171E0,-4.3314365E-1,-6.3374276E0,7.698758E-2,1.1489797E0,-7.62431E-2,5.1936734E-2,-5.2746737E-1,-4.7364765E-1],"categories":[],"categories_nodes":[],"categories_segments":[],"categories_sizes":[],"default_left":[0,0,0,0,0,0,0,0,0,0,0,0,0],"id":26,"left_children":[1,3,5,7,-1,9,11,-1,-1,-1,-1,-1,-1],"loss_changes":[1.2302622E3,2.53901E3,6.1634753E2,1.2359604E3,0E0,5.6977686E2,1.9916382E0,0E0,0E0,0E0,0E0,0E0,0E0],"parents":[2147483647,0,0,1,1,2,2,3,3,5,5,6,6],"right_children":[2,4,6,8,-1,10,12,-1,-1,-1,-1,-1,-1],"split_conditions":[-4.1439983E-1,4.3730183E0,5.9630165E0,5.82891E0,1.5486171E0,1.4421042E0,4.593985E-1,7.698758E-2,1.1489797E0,-7.62431E-2,5.1936734E-2,-5.2746737E-1,-4.7364765E-1],"split_indices":[1,29,1,89,0,147,132,0,0,0,0,0,0],"split_type":[0,0,0,0,0,0,0,0,0,0,0,0,0],"sum_hessian":[1.256E3,2.42E2,1.014E3,2.34E2,8E0,9.96E2,1.8E1,2.27E2,7E0,6.71E2,3.25E2,1E1,8E0],"tree_param":{"num_deleted":"0","num_feature":"174","num_nodes":"13","size_leaf_vector":"1"}},{"base_weights":[3.658635E-2,-1.4849666E-1,3.441048E0,-2.974111E0,2.5288066E-1,2.8316185E0,-9.9962103E-1,-3.012494E-1,-9.263745E-2,-1.0335663E-2,2.010799E-1,-2.8604704E-1,4.6292615E-1],"categories":[],"categories_nodes":[],"categories_segments":[],"categories_sizes":[],"default_left":[0,0,0,0,0,0,0,0,0,0,0,0,0],"id":27,"left_children":[1,3,5,7,9,-1,11,-1,-1,-1,-1,-1,-1],"loss_changes":[8.065504E2,1.3768531E3,9.436057E3,2.2310327E2,9.2723724E2,0E0,1.0294224E3,0E0,0E0,0E0,0E0,0E0,0E0],"parents":[2147483647,0,0,1,1,2,2,3,3,4,4,6,6],"right_children":[2,4,6,8,10,-1,12,-1,-1,-1,-1,-1,-1],"split_conditions":[4.3730183E0,-1.1729192E0,-1.6123778E0,2.0977929E0,2.0698242E0,2.8316185E0,1.4421042E0,-3.012494E-1,-9.263745E-2,-1.0335663E-2,2.010799E-1,-2.8604704E-1,4.6292615E-1],"split_indices":[29,0,0,107,71,0,147,0,0,0,0,0,0],"split_type":[0,0,0,0,0,0,0,0,0,0,0,0,0],"sum_hessian":[1.28E3,1.214E3,6.6E1,1.51E2,1.063E3,8E0,5.8E1,1.04E2,4.7E1,9.1E2,1.53E2,4.2E1,1.6E1],"tree_param":{"num_deleted":"0","num_feature":"174","num_nodes":"13","size_leaf_vector":"1"}},{"base_weights":[6.74475E-2,2.160857E0,-4.263362E-1,4.8165065E-1,5.4772425E0,-6.1699085E-2,-1.7493832E0,1.8277709E-1,-1.6315639E-1,2.0296457E-1,8.665261E-1,-1.4481776E-2,4.3121722E-1,-1.7284562E-1,7.086589E-3],"categories":[],"categories_nodes":[],"categories_segments":[],"categories_sizes":[],"default_left":[0,0,0,0,0,0,0,0,0,0,0,0,0,0,0],"id":28,"left_children":[1,3,5,7,9,11,13,-1,-1,-1,-1,-1,-1,-1,-1],"loss_changes":[1.2890197E3,1.3253751E3,4.8676718E2,7.2841437E2,1.2692188E3,5.233759E2,1.7071356E2,0E0,0E0,0E0,0E0,0E0,0E0,0E0,0E0],"parents":[2147483647,0,0,1,1,2,2,3,3,4,4,5,5,6,6],"right_children":[2,4,6,8,10,12,14,-1,-1,-1,-1,-1,-1,-1,-1],"split_conditions":[-4.1439983E-1,1.4265777E0,1.910166E0,1.0438467E0,1.5048071E0,5.901633E0,2.00341E0,1.8277709E-1,-1.6315639E-1,2.0296457E-1,8.665261E-1,-1.4481776E-2,4.3121722E-1,-1.7284562E-1,7.086589E-3],"split_indices":[1,100,81,156,105,5,80,0,0,0,0,0,0,0,0],"split_type":[0,0,0,0,0,0,0,0,0,0,0,0,0,0,0],"sum_hessian":[1.247E3,2.38E2,1.009E3,1.58E2,8E1,7.91E2,2.18E2,9.2E1,6.6E1,5.2E1,2.8E1,7.74E2,1.7E1,1.77E2,4.1E1],"tree_param":{"num_deleted":"0","num_feature":"174","num_nodes":"15","size_leaf_vector":"1"}},{"base_weights":[1.1859636E-1,1.7953229E0,-2.4950154E-1,1.2186097E0,1.5828218E0,-7.818627E-2,-3.1322596E0,3.579786E-2,7.424609E-1,-3.973709E-2,1.08988464E-1,-1.3544555E-1,-4.8172012E-1],"categories":[],"categories_nodes":[],"categories_segments":[],"categories_sizes":[],"default_left":[0,0,0,0,0,0,0,0,0,0,0,0,0],"id":29,"left_children":[1,3,5,7,-1,9,11,-1,-1,-1,-1,-1,-1],"loss_changes":[7.782944E2,2.3726992E3,5.1063983E2,1.372984E3,0E0,5.9701154E2,2.426087E2,0E0,0E0,0E0,0E0,0E0,0E0],"parents":[2147483647,0,0,1,1,2,2,3,3,5,5,6,6],"right_children":[2,4,6,8,-1,10,12,-1,-1,-1,-1,-1,-1],"split_conditions":[-4.1439983E-1,4.3730183E0,7.4513036E-1,2.146362E0,1.5828218E0,1.7203397E0,2.7017467E0,3.579786E-2,7.424609E-1,-3.973709E-2,1.08988464E-1,-1.3544555E-1,-4.8172012E-1],"split_indices":[1,29,1,145,0,99,87,0,0,0,0,0,0],"split_type":[0,0,0,0,0,0,0,0,0,0,0,0,0],"sum_hessian":[1.261E3,2.27E2,1.034E3,2.2E2,7E0,9.76E2,5.8E1,2.01E2,1.9E1,7.56E2,2.2E2,3.9E1,1.9E1],"tree_param":{"num_deleted":"0","num_feature":"174","num_nodes":"13","size_leaf_vector":"1"}},{"base_weights":[-3.960236E-2,3.685006E-1,-1.528966E0,8.0555797E-1,-1.1155354E0,-2.175664E0,1.003287E-1,1.0782025E-1,-1.2301958E-1,-2.9319313E-1,-4.574709E-2,-1.8786564E-1,2.2753188E-1,-4.289685E-2,3.4882247E-1],"categories":[],"categories_nodes":[],"categories_segments":[],"categories_sizes":[],"default_left":[0,0,0,0,0,0,0,0,0,0,0,0,0,0,0],"id":30,"left_children":[1,3,5,7,9,11,13,-1,-1,-1,-1,-1,-1,-1,-1],"loss_changes":[7.6584955E2,6.41473E2,2.8554993E2,9.9152997E2,3.1265186E2,1.8442523E2,2.1147173E2,0E0,0E0,0E0,0E0,0E0,0E0,0E0,0E0],"parents":[2147483647,0,0,1,1,2,2,3,3,4,4,5,5,6,6],"right_children":[2,4,6,8,10,12,14,-1,-1,-1,-1,-1,-1,-1,-1],"split_conditions":[1.910166E0,1.8470006E0,1.6347783E0,2.2685773E0,-3.032683E-2,4.8043694E0,9.892171E-1,1.0782025E-1,-1.2301958E-1,-2.9319313E-1,-4.574709E-2,-1.8786564E-1,2.2753188E-1,-4.289685E-2,3.4882247E-1],"split_indices":[81,49,83,121,0,26,0,0,0,0,0,0,0,0,0],"split_type":[0,0,0,0,0,0,0,0,0,0,0,0,0,0,0],"sum_hessian":[1.26E3,9.89E2,2.71E2,7.64E2,2.25E2,1.94E2,7.7E1,6.19E2,1.45E2,3.9E1,1.86E2,1.87E2,7E0,6.7E1,1E1],"tree_param":{"num_deleted":"0","num_feature":"174","num_nodes":"15","size_leaf_vector":"1"}},{"base_weights":[-2.8085161E-3,-6.925443E-2,7.435959E-1,7.6749586E-2,-3.483573E0,-3.7806347E-2,1.0886535E-1,-1.806724E-1,-4.4374385E-1],"categories":[],"categories_nodes":[],"categories_segments":[],"categories_sizes":[],"default_left":[0,0,0,0,0,0,0,0,0],"id":31,"left_children":[1,3,-1,5,7,-1,-1,-1,-1],"loss_changes":[7.942657E2,6.3211597E2,0E0,8.68994E2,1.321427E2,0E0,0E0,0E0,0E0],"parents":[2147483647,0,0,1,1,3,3,4,4],"right_children":[2,4,-1,6,8,-1,-1,-1,-1],"split_conditions":[1.2736649E1,7.4513036E-1,7.435959E-1,1.4786991E0,1.9535592E0,-3.7806347E-2,1.0886535E-1,-1.806724E-1,-4.4374385E-1],"split_indices":[44,1,0,117,98,0,0,0,0],"split_type":[0,0,0,0,0,0,0,0,0],"sum_hessian":[1.277E3,1.268E3,9E0,1.216E3,5.2E1,8.52E2,3.64E2,3.3E1,1.9E1],"tree_param":{"num_deleted":"0","num_feature":"174","num_nodes":"9","size_leaf_vector":"1"}},{"base_weights":[-1.7094709E-1,-7.090126E-1,8.862736E-1,-1.9597223E-1,-1.749897E0,7.6711497E0,2.6156953E-1,4.784906E-2,-1.04470454E-1,-2.2679646E-1,-7.097883E-2,1.5778372E-1,9.322089E-1,1.9649193E-1,-6.572758E-2],"categories":[],"categories_nodes":[],"categories_segments":[],"categories_sizes":[],"default_left":[0,0,0,0,0,0,0,0,0,0,0,0,0,0,0],"id":32,"left_children":[1,3,5,7,9,11,13,-1,-1,-1,-1,-1,-1,-1,-1],"loss_changes":[7.201686E2,4.48032E2,1.8098271E3,5.0185956E2,2.620345E2,8.311008E2,9.413727E2,0E0,0E0,0E0,0E0,0E0,0E0,0E0,0E0],"parents":[2147483647,0,0,1,1,2,2,3,3,4,4,5,5,6,6],"right_children":[2,4,6,8,10,12,14,-1,-1,-1,-1,-1,-1,-1,-1],"split_conditions":[1.4421042E0,1.5096416E0,6.3381195E-1,1.0438467E0,7.4243814E-1,1.4421042E0,8.054249E-1,4.784906E-2,-1.04470454E-1,-2.2679646E-1,-7.097883E-2,1.5778372E-1,9.322089E-1,1.9649193E-1,-6.572758E-2],"split_indices":[147,154,164,156,161,142,157,0,0,0,0,0,0,0,0],"split_type":[0,0,0,0,0,0,0,0,0,0,0,0,0,0,0],"sum_hessian":[1.266E3,8.39E2,4.27E2,5.62E2,2.77E2,3.6E1,3.91E2,3.28E2,2.34E2,1.21E2,1.56E2,1.5E1,2.1E1,1.29E2,2.62E2],"tree_param":{"num_deleted":"0","num_feature":"174","num_nodes":"15","size_leaf_vector":"1"}},{"base_weights":[3.6658477E-2,1.9555387E0,-2.5082386E-1,-6.823478E0,3.0232823E0,1.09771356E-1,-1.5619575E0,-7.2566193E-1,-3.128017E-1,1.2701592E-1,7.254028E-1,-3.5374735E-2,9.2360646E-2,-1.0881573E-1,-3.2383463E-1],"categories":[],"categories_nodes":[],"categories_segments":[],"categories_sizes":[],"default_left":[0,0,0,0,0,0,0,0,0,0,0,0,0,0,0],"id":33,"left_children":[1,3,5,7,9,11,13,-1,-1,-1,-1,-1,-1,-1,-1],"loss_changes":[7.02801E2,1.5560269E3,5.2385504E2,1.1993762E2,1.2875104E3,5.07637E2,1.15619385E2,0E0,0E0,0E0,0E0,0E0,0E0,0E0,0E0],"parents":[2147483647,0,0,1,1,2,2,3,3,4,4,5,5,6,6],"right_children":[2,4,6,8,10,12,14,-1,-1,-1,-1,-1,-1,-1,-1],"split_conditions":[-9.9416494E-1,-6.01623E-1,1.910166E0,2.0698242E0,1.6928643E0,1.3900129E0,8.303757E0,-7.2566193E-1,-3.128017E-1,1.2701592E-1,7.254028E-1,-3.5374735E-2,9.2360646E-2,-1.0881573E-1,-3.2383463E-1],"split_indices":[1,0,81,71,92,120,51,0,0,0,0,0,0,0,0],"split_type":[0,0,0,0,0,0,0,0,0,0,0,0,0,0,0],"sum_hessian":[1.274E3,1.66E2,1.108E3,1.8E1,1.48E2,8.69E2,2.39E2,1E1,8E0,1.2E2,2.8E1,5.69E2,3E2,2.22E2,1.7E1],"tree_param":{"num_deleted":"0","num_feature":"174","num_nodes":"15","size_leaf_vector":"1"}},{"base_weights":[-4.590879E-2,-1.02643326E-1,8.1419927E-1,-2.8233677E-1,3.123737E0,-1.3342026E-1,2.1112174E-2,2.396971E0,-8.521562E-2],"categories":[],"categories_nodes":[],"categories_segments":[],"categories_sizes":[],"default_left":[0,0,0,0,0,0,0,0,0],"id":34,"left_children":[1,3,-1,5,7,-1,-1,-1,-1],"loss_changes":[7.456704E2,7.3628394E2,0E0,9.2088324E2,7.6029585E3,0E0,0E0,0E0,0E0],"parents":[2147483647,0,0,1,1,3,3,4,4],"right_children":[2,4,-1,6,8,-1,-1,-1,-1],"split_conditions":[1.2736649E1,4.3730183E0,8.1419927E-1,-3.6431536E-1,-1.6123778E0,-1.3342026E-1,2.1112174E-2,2.396971E0,-8.521562E-2],"split_indices":[44,29,0,0,0,0,0,0,0],"split_type":[0,0,0,0,0,0,0,0,0],"sum_hessian":[1.277E3,1.27E3,7E0,1.203E3,6.7E1,3.39E2,8.64E2,9E0,5.8E1],"tree_param":{"num_deleted":"0","num_feature":"174","num_nodes":"9","size_leaf_vector":"1"}},{"base_weights":[-7.154137E-2,-2.3457508E-1,3.0693464E0,-2.939584E-1,6.230471E-1,1.3138615E1,-8.707227E-1,-7.298904E-2,1.9334098E-2,1.3496163E-2,1.8683332E0,-2.2034575E-1,4.1174755E-1],"categories":[],"categories_nodes":[],"categories_segments":[],"categories_sizes":[],"default_left":[0,0,0,0,0,0,0,0,0,0,0,0,0],"id":35,"left_children":[1,3,5,7,-1,9,11,-1,-1,-1,-1,-1,-1],"loss_changes":[6.641451E2,5.912729E2,2.5391572E3,4.1077194E2,0E0,2.421743E3,5.296479E2,0E0,0E0,0E0,0E0,0E0,0E0],"parents":[2147483647,0,0,1,1,2,2,3,3,5,5,6,6],"right_children":[2,4,6,8,-1,10,12,-1,-1,-1,-1,-1,-1],"split_conditions":[4.3730183E0,1.2736649E1,1.1163231E0,9.2202276E-1,6.230471E-1,1.9024975E0,2.083703E0,-7.298904E-2,1.9334098E-2,1.3496163E-2,1.8683332E0,-2.2034575E-1,4.1174755E-1],"split_indices":[29,44,73,153,0,57,58,0,0,0,0,0,0],"split_type":[0,0,0,0,0,0,0,0,0,0,0,0,0],"sum_hessian":[1.297E3,1.233E3,6.4E1,1.224E3,9E0,1.8E1,4.6E1,5.66E2,6.58E2,8E0,1E1,3.5E1,1.1E1],"tree_param":{"num_deleted":"0","num_feature":"174","num_nodes":"13","size_leaf_vector":"1"}},{"base_weights":[8.601981E-2,6.120718E-1,-1.1545528E0,3.786831E-1,5.399295E0,-2.3101656E0,-4.710042E-1,-3.6425176E-3,1.7590863E-1,-1.2699264E-1,1.0728421E0,-2.2463524E-1,3.7151556E-3,-6.7741394E-2,2.8845662E-1],"categories":[],"categories_nodes":[],"categories_segments":[],"categories_sizes":[],"default_left":[0,0,0,0,0,0,0,0,0,0,0,0,0,0,0],"id":36,"left_children":[1,3,5,7,9,11,13,-1,-1,-1,-1,-1,-1,-1,-1],"loss_changes":[8.1967084E2,9.854229E2,2.954188E2,6.552038E2,2.3246597E3,1.6935345E2,3.6770905E2,0E0,0E0,0E0,0E0,0E0,0E0,0E0,0E0],"parents":[2147483647,0,0,1,1,2,2,3,3,4,4,5,5,6,6],"right_children":[2,4,6,8,10,12,14,-1,-1,-1,-1,-1,-1,-1,-1],"split_conditions":[1.52926E0,4.3730183E0,7.4243814E-1,2.00341E0,1.1604505E0,2.571264E0,2.083703E0,-3.6425176E-3,1.7590863E-1,-1.2699264E-1,1.0728421E0,-2.2463524E-1,3.7151556E-3,-6.7741394E-2,2.8845662E-1],"split_indices":[125,29,161,74,106,122,58,0,0,0,0,0,0,0,0],"split_type":[0,0,0,0,0,0,0,0,0,0,0,0,0,0,0],"sum_hessian":[1.256E3,8.82E2,3.74E2,8.41E2,4.1E1,1.39E2,2.35E2,6.83E2,1.58E2,2.2E1,1.9E1,1.14E2,2.5E1,2.15E2,2E1],"tree_param":{"num_deleted":"0","num_feature":"174","num_nodes":"15","size_leaf_vector":"1"}},{"base_weights":[2.6759993E-2,-4.0591457E-1,9.325153E-1,1.2700461E-1,-1.7648739E0,3.082784E0,-7.662261E-2,-1.0035962E-2,5.498902E-1,-2.3083785E-1,-8.5870825E-2,4.6331283E-1,9.937793E-2,-6.447193E-2,2.0064217E-1],"categories":[],"categories_nodes":[],"categories_segments":[],"categories_sizes":[],"default_left":[0,0,0,0,0,0,0,0,0,0,0,0,0,0,0],"id":37,"left_children":[1,3,5,7,9,11,13,-1,-1,-1,-1,-1,-1,-1,-1],"loss_changes":[4.9340067E2,6.1703766E2,8.8316754E2,1.0531781E3,1.8721771E2,6.544905E2,5.2952496E2,0E0,0E0,0E0,0E0,0E0,0E0,0E0,0E0],"parents":[2147483647,0,0,1,1,2,2,3,3,4,4,5,5,6,6],"right_children":[2,4,6,8,10,12,14,-1,-1,-1,-1,-1,-1,-1,-1],"split_conditions":[1.4421042E0,1.6691562E0,8.054249E-1,4.504426E0,-3.032683E-2,8.4505564E-1,1.714158E0,-1.0035962E-2,5.498902E-1,-2.3083785E-1,-8.5870825E-2,4.6331283E-1,9.937793E-2,-6.447193E-2,2.0064217E-1],"split_indices":[147,136,157,59,0,162,118,0,0,0,0,0,0,0,0],"split_type":[0,0,0,0,0,0,0,0,0,0,0,0,0,0,0],"sum_hessian":[1.259E3,8.52E2,4.07E2,6.12E2,2.4E2,1.3E2,2.77E2,5.9E2,2.2E1,9E1,1.5E2,5.2E1,7.8E1,2.16E2,6.1E1],"tree_param":{"num_deleted":"0","num_feature":"174","num_nodes":"15","size_leaf_vector":"1"}},{"base_weights":[2.9374294E-2,-9.0786844E-2,4.1283064E0,7.1072893E0,-1.8581407E-1,1.0590925E0,1.0613235E0,-6.3404936E-1,1.4971578E0,1.2940117E-2,-1.17714964E-1,-1.0819037E-1,3.6438987E-1],"categories":[],"categories_nodes":[],"categories_segments":[],"categories_sizes":[],"default_left":[0,0,0,0,0,0,0,0,0,0,0,0,0],"id":38,"left_children":[1,3,5,7,9,-1,11,-1,-1,-1,-1,-1,-1],"loss_changes":[6.2257587E2,8.399425E2,1.01578955E3,2.8326753E3,5.4752515E2,0E0,2.3058527E2,0E0,0E0,0E0,0E0,0E0,0E0],"parents":[2147483647,0,0,1,1,2,2,3,3,4,4,6,6],"right_children":[2,4,6,8,10,-1,12,-1,-1,-1,-1,-1,-1],"split_conditions":[5.901633E0,-1.2840475E0,7.215982E-1,1.1588368E0,1.910166E0,1.0590925E0,1.646085E0,-6.3404936E-1,1.4971578E0,1.2940117E-2,-1.17714964E-1,-1.0819037E-1,3.6438987E-1],"split_indices":[5,1,159,124,81,0,94,0,0,0,0,0,0],"split_type":[0,0,0,0,0,0,0,0,0,0,0,0,0],"sum_hessian":[1.264E3,1.228E3,3.6E1,1.6E1,1.212E3,9E0,2.7E1,7E0,9E0,9.55E2,2.57E2,1.6E1,1.1E1],"tree_param":{"num_deleted":"0","num_feature":"174","num_nodes":"13","size_leaf_vector":"1"}},{"base_weights":[1.5751503E-2,-5.8006114E-1,6.039315E-1,7.191722E0,-8.679113E-1,-1.9540212E0,1.2447087E0,-1.9522308E-1,2.2143464E0,-1.0553913E-1,2.2870447E-1,-2.336554E-1,3.1172093E-2,6.33617E-2,3.4940708E-1],"categories":[],"categories_nodes":[],"categories_segments":[],"categories_sizes":[],"default_left":[0,0,0,0,0,0,0,0,0,0,0,0,0,0,0],"id":39,"left_children":[1,3,5,7,9,11,13,-1,-1,-1,-1,-1,-1,-1,-1],"loss_changes":[4.3455197E2,1.3780356E3,1.022782E3,4.3890215E3,1.024302E3,2.8936017E2,7.036445E2,0E0,0E0,0E0,0E0,0E0,0E0,0E0,0E0],"parents":[2147483647,0,0,1,1,2,2,3,3,4,4,5,5,6,6],"right_children":[2,4,6,8,10,12,14,-1,-1,-1,-1,-1,-1,-1,-1],"split_conditions":[1.0075164E0,-1.6123778E0,-1.1729192E0,4.3730183E0,1.6347783E0,1.6347783E0,2.7370293E0,-1.9522308E-1,2.2143464E0,-1.0553913E-1,2.2870447E-1,-2.336554E-1,3.1172093E-2,6.33617E-2,3.4940708E-1],"split_indices":[143,0,0,29,82,82,76,0,0,0,0,0,0,0,0],"split_type":[0,0,0,0,0,0,0,0,0,0,0,0,0,0,0],"sum_hessian":[1.24E3,6.16E2,6.24E2,2.2E1,5.94E2,1.25E2,4.99E2,1.5E1,7E0,5.29E2,6.5E1,8.8E1,3.7E1,4.37E2,6.2E1],"tree_param":{"num_deleted":"0","num_feature":"174","num_nodes":"15","size_leaf_vector":"1"}},{"base_weights":[-3.2266546E-2,2.5407568E-1,-1.4708786E0,6.823175E0,1.5192859E-1,-4.8195776E-1,-3.15328E0,1.1970273E0,3.2787163E-2,-5.8905996E-2,6.745509E-2,-3.678537E-1,7.5532375E-3,-1.549243E-1,-3.051962E-1],"categories":[],"categories_nodes":[],"categories_segments":[],"categories_sizes":[],"default_left":[0,0,0,0,0,0,0,0,0,0,0,0,0,0,0],"id":40,"left_children":[1,3,5,7,9,11,13,-1,-1,-1,-1,-1,-1,-1,-1],"loss_changes":[5.161595E2,7.011842E2,3.4604904E2,8.452718E2,6.406679E2,3.1352545E2,6.370526E1,0E0,0E0,0E0,0E0,0E0,0E0,0E0,0E0],"parents":[2147483647,0,0,1,1,2,2,3,3,4,4,5,5,6,6],"right_children":[2,4,6,8,10,12,14,-1,-1,-1,-1,-1,-1,-1,-1],"split_conditions":[2.2685773E0,-1.4289888E0,1.7203397E0,1.3900129E0,8.9210063E-1,-3.032683E-2,1.9535592E0,1.1970273E0,3.2787163E-2,-5.8905996E-2,6.745509E-2,-3.678537E-1,7.5532375E-3,-1.549243E-1,-3.051962E-1],"split_indices":[121,1,99,120,134,0,98,0,0,0,0,0,0,0,0],"split_type":[0,0,0,0,0,0,0,0,0,0,0,0,0,0,0],"sum_hessian":[1.253E3,1.045E3,2.08E2,1.6E1,1.029E3,1.31E2,7.7E1,7E0,9E0,4.51E2,5.78E2,1.6E1,1.15E2,2.8E1,4.9E1],"tree_param":{"num_deleted":"0","num_feature":"174","num_nodes":"15","size_leaf_vector":"1"}},{"base_weights":[1.8414635E-2,3.1243348E-1,-1.0476621E0,-1.6183007E-1,1.2891315E0,-1.7214503E0,1.5271047E0,1.6344374E-2,-1.5100516E-1,-4.865986E-2,2.4260487E-1,-1.6894837E-1,4.6139568E-2,-5.1060785E-2,1.328201E0],"categories":[],"categories_nodes":[],"categories_segments":[],"categories_sizes":[],"default_left":[0,0,0,0,0,0,0,0,0,0,0,0,0,0,0],"id":41,"left_children":[1,3,5,7,9,11,13,-1,-1,-1,-1,-1,-1,-1,-1],"loss_changes":[3.914922E2,4.5348907E2,4.6840955E2,4.2109302E2,1.0734329E3,1.99427E2,1.8455215E3,0E0,0E0,0E0,0E0,0E0,0E0,0E0,0E0],"parents":[2147483647,0,0,1,1,2,2,3,3,4,4,5,5,6,6],"right_children":[2,4,6,8,10,12,14,-1,-1,-1,-1,-1,-1,-1,-1],"split_conditions":[1.910166E0,1.4533713E0,2.339095E0,1.6098717E0,-2.94002E-1,1.0024009E0,2.571264E0,1.6344374E-2,-1.5100516E-1,-4.865986E-2,2.4260487E-1,-1.6894837E-1,4.6139568E-2,-5.1060785E-2,1.328201E0],"split_indices":[81,149,146,101,0,0,122,0,0,0,0,0,0,0,0],"split_type":[0,0,0,0,0,0,0,0,0,0,0,0,0,0,0],"sum_hessian":[1.249E3,9.79E2,2.7E2,6.59E2,3.2E2,2.14E2,5.6E1,5.44E2,1.15E2,1.54E2,1.66E2,1.82E2,3.2E1,4.9E1,7E0],"tree_param":{"num_deleted":"0","num_feature":"174","num_nodes":"15","size_leaf_vector":"1"}},{"base_weights":[2.910633E-2,1.5480697E-1,-2.7944336E0,-2.6829958E-1,1.3766747E0,1.4188739E0,-4.4150314E0,-6.499613E-2,4.6485532E-2,8.506366E-2,1.0337081E0,5.274438E-2,1.6520289E-1,-2.0785552E-1,-3.8769558E-1],"categories":[],"categories_nodes":[],"categories_segments":[],"categories_sizes":[],"default_left":[0,0,0,0,0,0,0,0,0,0,0,0,0,0,0],"id":42,"left_children":[1,3,5,7,9,11,13,-1,-1,-1,-1,-1,-1,-1,-1],"loss_changes":[4.4967487E2,6.271011E2,3.687274E2,4.2262564E2,1.1110376E3,7.467676E0,3.2541504E1,0E0,0E0,0E0,0E0,0E0,0E0,0E0,0E0],"parents":[2147483647,0,0,1,1,2,2,3,3,4,4,5,5,6,6],"right_children":[2,4,6,8,10,12,14,-1,-1,-1,-1,-1,-1,-1,-1],"split_conditions":[1.614778E0,1.6347783E0,9.2202276E-1,1.0075164E0,5.82891E0,5.758714E0,1.4421042E0,-6.499613E-2,4.6485532E-2,8.506366E-2,1.0337081E0,5.274438E-2,1.6520289E-1,-2.0785552E-1,-3.8769558E-1],"split_indices":[1,82,153,143,89,33,147,0,0,0,0,0,0,0,0],"split_type":[0,0,0,0,0,0,0,0,0,0,0,0,0,0,0],"sum_hessian":[1.267E3,1.213E3,5.4E1,9.01E2,3.12E2,1.5E1,3.9E1,5.48E2,3.53E2,3.04E2,8E0,7E0,8E0,8E0,3.1E1],"tree_param":{"num_deleted":"0","num_feature":"174","num_nodes":"15","size_leaf_vector":"1"}},{"base_weights":[-5.5760402E-2,-3.6526182E-1,1.2403406E0,-2.6344725E-1,-3.3357415E0,-4.9375698E-1,3.8415246E0,-2.9851623E-2,2.4661046E-1,-1.4561734E-1,-4.1632035E-1,2.3211095E-1,-1.5142657E-1,1.18783414E-1,6.408611E-1],"categories":[],"categories_nodes":[],"categories_segments":[],"categories_sizes":[],"default_left":[0,0,0,0,0,0,0,0,0,0,0,0,0,0,0],"id":43,"left_children":[1,3,5,7,9,11,13,-1,-1,-1,-1,-1,-1,-1,-1],"loss_changes":[5.098522E2,3.102881E2,1.1051357E3,3.7488626E2,9.726523E1,7.087922E2,9.71307E2,0E0,0E0,0E0,0E0,0E0,0E0,0E0,0E0],"parents":[2147483647,0,0,1,1,2,2,3,3,4,4,5,5,6,6],"right_children":[2,4,6,8,10,12,14,-1,-1,-1,-1,-1,-1,-1,-1],"split_conditions":[2.0698242E0,4.64758E0,1.4533713E0,5.82891E0,1.9024975E0,1.3837205E0,-3.032683E-2,-2.9851623E-2,2.4661046E-1,-1.4561734E-1,-4.1632035E-1,2.3211095E-1,-1.5142657E-1,1.18783414E-1,6.408611E-1],"split_indices":[71,52,149,89,57,113,0,0,0,0,0,0,0,0,0],"split_type":[0,0,0,0,0,0,0,0,0,0,0,0,0,0,0],"sum_hessian":[1.271E3,1.026E3,2.45E2,9.92E2,3.4E1,1.47E2,9.8E1,9.6E2,3.2E1,1.9E1,1.5E1,4.3E1,1.04E2,6.3E1,3.5E1],"tree_param":{"num_deleted":"0","num_feature":"174","num_nodes":"15","size_leaf_vector":"1"}},{"base_weights":[-6.324746E-2,-4.3234706E-1,7.837292E-1,-6.123028E-1,2.4053447E0,1.6712766E0,-1.8788738E0,-1.8128031E-1,-8.379133E-3,1.9859506E0,-1.3519971E-1,3.749274E-1,6.685909E-2,6.7278355E-2,-2.0343968E-1],"categories":[],"categories_nodes":[],"categories_segments":[],"categories_sizes":[],"default_left":[0,0,0,0,0,0,0,0,0,0,0,0,0,0,0],"id":44,"left_children":[1,3,5,7,9,11,13,-1,-1,-1,-1,-1,-1,-1,-1],"loss_changes":[3.913974E2,4.4528793E2,8.9801013E2,6.937127E2,4.8239263E3,7.206694E2,1.7645291E2,0E0,0E0,0E0,0E0,0E0,0E0,0E0,0E0],"parents":[2147483647,0,0,1,1,2,2,3,3,4,4,5,5,6,6],"right_children":[2,4,6,8,10,12,14,-1,-1,-1,-1,-1,-1,-1,-1],"split_conditions":[1.4786991E0,4.3730183E0,2.2685773E0,-2.94002E-1,-1.6123778E0,7.1832854E-1,8.054249E-1,-1.8128031E-1,-8.379133E-3,1.9859506E0,-1.3519971E-1,3.749274E-1,6.685909E-2,6.7278355E-2,-2.0343968E-1],"split_indices":[117,29,121,0,0,119,157,0,0,0,0,0,0,0,0],"split_type":[0,0,0,0,0,0,0,0,0,0,0,0,0,0,0],"sum_hessian":[1.252E3,8.72E2,3.8E2,8.2E2,5.2E1,2.85E2,9.5E1,1.91E2,6.29E2,8E0,4.4E1,6.1E1,2.24E2,1.9E1,7.6E1],"tree_param":{"num_deleted":"0","num_feature":"174","num_nodes":"15","size_leaf_vector":"1"}},{"base_weights":[1.08889766E-1,3.5843632E-1,-1.1605247E0,6.810416E-1,-1.5392177E0,3.0845106E-1,-1.863561E0,9.3773134E-2,-6.62819E-2,8.1783915E-1,-1.6738176E-1,-7.593791E-2,2.4454999E-1,-1.7333259E-1,2.6861647E-1],"categories":[],"categories_nodes":[],"categories_segments":[],"categories_sizes":[],"default_left":[0,0,0,0,0,0,0,0,0,0,0,0,0,0,0],"id":45,"left_children":[1,3,5,7,9,11,13,-1,-1,-1,-1,-1,-1,-1,-1],"loss_changes":[3.991373E2,6.4463635E2,2.1378363E2,6.806273E2,1.0269481E3,2.3455595E2,2.3335806E2,0E0,0E0,0E0,0E0,0E0,0E0,0E0,0E0],"parents":[2147483647,0,0,1,1,2,2,3,3,4,4,5,5,6,6],"right_children":[2,4,6,8,10,12,14,-1,-1,-1,-1,-1,-1,-1,-1],"split_conditions":[2.2685773E0,2.428315E0,8.054249E-1,1.8470006E0,3.6296162E-1,1.6604316E0,5.327288E0,9.3773134E-2,-6.62819E-2,8.1783915E-1,-1.6738176E-1,-7.593791E-2,2.4454999E-1,-1.7333259E-1,2.6861647E-1],"split_indices":[121,3,157,49,152,135,45,0,0,0,0,0,0,0,0],"split_type":[0,0,0,0,0,0,0,0,0,0,0,0,0,0,0],"sum_hessian":[1.26E3,1.053E3,2.07E2,9E2,1.53E2,6.7E1,1.4E2,6.77E2,2.23E2,7E0,1.46E2,4.6E1,2.1E1,1.32E2,8E0],"tree_param":{"num_deleted":"0","num_feature":"174","num_nodes":"15","size_leaf_vector":"1"}},{"base_weights":[4.8384655E-2,2.8918013E-1,-1.3662685E0,8.3814466E-1,-4.6896312E-1,-2.5911233E0,1.2417272E-1,4.1890074E-2,5.260003E-1,-5.019717E-2,3.6921084E-1,-1.0624139E-1,-3.159071E-1,-1.1700462E-1,1.9271909E-1],"categories":[],"categories_nodes":[],"categories_segments":[],"categories_sizes":[],"default_left":[0,0,0,0,0,0,0,0,0,0,0,0,0,0,0],"id":46,"left_children":[1,3,5,7,9,11,13,-1,-1,-1,-1,-1,-1,-1,-1],"loss_changes":[4.3090823E2,4.4990677E2,3.3591476E2,1.127203E3,3.780237E2,1.7535553E2,3.049746E2,0E0,0E0,0E0,0E0,0E0,0E0,0E0,0E0],"parents":[2147483647,0,0,1,1,2,2,3,3,4,4,5,5,6,6],"right_children":[2,4,6,8,10,12,14,-1,-1,-1,-1,-1,-1,-1,-1],"split_conditions":[2.428315E0,1.2433532E0,1.3290893E0,4.3730183E0,9.892171E-1,6.728069E-1,-6.01623E-1,4.1890074E-2,5.260003E-1,-5.019717E-2,3.6921084E-1,-1.0624139E-1,-3.159071E-1,-1.1700462E-1,1.9271909E-1],"split_indices":[3,141,158,29,0,0,0,0,0,0,0,0,0,0,0],"split_type":[0,0,0,0,0,0,0,0,0,0,0,0,0,0,0],"sum_hessian":[1.265E3,1.081E3,1.84E2,6.27E2,4.54E2,1.01E2,8.3E1,5.95E2,3.2E1,4.4E2,1.4E1,5.3E1,4.8E1,4.9E1,3.4E1],"tree_param":{"num_deleted":"0","num_feature":"174","num_nodes":"15","size_leaf_vector":"1"}},{"base_weights":[1.2430128E-1,1.886359E-2,3.9230492E0,-1.200749E0,2.3858544E-1,1.0795025E0,9.497811E-1,-5.138381E-2,-2.738867E-1,-7.178784E-3,1.3946968E-1,-1.0174766E-1,3.590435E-1],"categories":[],"categories_nodes":[],"categories_segments":[],"categories_sizes":[],"default_left":[0,0,0,0,0,0,0,0,0,0,0,0,0],"id":47,"left_children":[1,3,5,7,9,-1,11,-1,-1,-1,-1,-1,-1],"loss_changes":[5.042542E2,3.2826648E2,9.767538E2,2.3271408E2,5.1784094E2,0E0,2.0696002E2,0E0,0E0,0E0,0E0,0E0,0E0],"parents":[2147483647,0,0,1,1,2,2,3,3,4,4,6,6],"right_children":[2,4,6,8,10,-1,12,-1,-1,-1,-1,-1,-1],"split_conditions":[5.901633E0,4.6265492E-1,7.215982E-1,1.7049677E0,2.0698242E0,1.0795025E0,1.2433532E0,-5.138381E-2,-2.738867E-1,-7.178784E-3,1.3946968E-1,-1.0174766E-1,3.590435E-1],"split_indices":[5,2,159,64,71,0,141,0,0,0,0,0,0],"split_type":[0,0,0,0,0,0,0,0,0,0,0,0,0],"sum_hessian":[1.259E3,1.225E3,3.4E1,1.87E2,1.038E3,8E0,2.6E1,1.5E2,3.7E1,8.53E2,1.85E2,1.6E1,1E1],"tree_param":{"num_deleted":"0","num_feature":"174","num_nodes":"13","size_leaf_vector":"1"}},{"base_weights":[-5.2949563E-2,2.4220948E-1,-1.0619462E0,6.319939E-1,-7.494342E-1,-1.268397E0,2.5503963E-1,8.200582E-2,-1.02845095E-1,-1.3751677E-1,8.73777E-3,-1.20887965E-1,2.1707045E-1],"categories":[],"categories_nodes":[],"categories_segments":[],"categories_sizes":[],"default_left":[0,0,0,0,0,0,0,0,0,0,0,0,0],"id":48,"left_children":[1,3,5,7,9,11,-1,-1,-1,-1,-1,-1,-1],"loss_changes":[3.7107986E2,3.7261182E2,2.4868497E2,5.3328455E2,2.2937627E2,2.722365E2,0E0,0E0,0E0,0E0,0E0,0E0,0E0],"parents":[2147483647,0,0,1,1,2,2,3,3,4,4,5,5],"right_children":[2,4,6,8,10,12,-1,-1,-1,-1,-1,-1,-1],"split_conditions":[1.8470006E0,1.6604316E0,3.9377174E0,2.2685773E0,9.385744E-1,9.892171E-1,2.5503963E-1,8.200582E-2,-1.02845095E-1,-1.3751677E-1,8.73777E-3,-1.20887965E-1,2.1707045E-1],"split_indices":[49,135,84,121,112,0,0,0,0,0,0,0,0],"split_type":[0,0,0,0,0,0,0,0,0,0,0,0,0],"sum_hessian":[1.246E3,9.64E2,2.82E2,6.92E2,2.72E2,2.69E2,1.3E1,5.73E2,1.19E2,1.27E2,1.45E2,2.53E2,1.6E1],"tree_param":{"num_deleted":"0","num_feature":"174","num_nodes":"13","size_leaf_vector":"1"}},{"base_weights":[3.1406187E-2,-2.9502138E-1,7.896532E-1,1.7430346E-1,-1.5782543E0,-6.0566664E-1,4.3167458E0,8.300511E-2,-4.6885498E-2,-7.466853E-2,-2.750771E-1,1.34219E-1,-7.761227E-2,1.688678E-1,6.637713E-1],"categories":[],"categories_nodes":[],"categories_segments":[],"categories_sizes":[],"default_left":[0,0,0,0,0,0,0,0,0,0,0,0,0,0,0],"id":49,"left_children":[1,3,5,7,9,11,13,-1,-1,-1,-1,-1,-1,-1,-1],"loss_changes":[3.1335297E2,5.3299915E2,1.8750758E3,4.3108212E2,2.8504108E2,2.324844E2,9.554341E2,0E0,0E0,0E0,0E0,0E0,0E0,0E0,0E0],"parents":[2147483647,0,0,1,1,2,2,3,3,4,4,5,5,6,6],"right_children":[2,4,6,8,10,12,14,-1,-1,-1,-1,-1,-1,-1,-1],"split_conditions":[1.5048071E0,1.6604316E0,1.6928643E0,1.0438467E0,1.4533713E0,4.593985E-1,4.9702346E-1,8.300511E-2,-4.6885498E-2,-7.466853E-2,-2.750771E-1,1.34219E-1,-7.761227E-2,1.688678E-1,6.637713E-1],"split_indices":[105,135,92,156,149,132,0,0,0,0,0,0,0,0,0],"split_type":[0,0,0,0,0,0,0,0,0,0,0,0,0,0,0],"sum_hessian":[1.266E3,8.85E2,3.81E2,6.48E2,2.37E2,2.73E2,1.08E2,3.03E2,3.45E2,1.77E2,6E1,3.8E1,2.35E2,7E1,3.8E1],"tree_param":{"num_deleted":"0","num_feature":"174","num_nodes":"15","size_leaf_vector":"1"}},{"base_weights":[1.1912996E-1,6.0939336E0,2.8959177E-2,-2.3407345E-1,1.471901E0,-5.1417343E-2,3.32184E0,1.6117197E-2,-8.202304E-2,9.3427014E-1,-7.1196616E-2],"categories":[],"categories_nodes":[],"categories_segments":[],"categories_sizes":[],"default_left":[0,0,0,0,0,0,0,0,0,0,0],"id":50,"left_children":[1,3,5,-1,-1,7,9,-1,-1,-1,-1],"loss_changes":[6.885033E2,2.1350107E3,3.3323206E2,0E0,0E0,3.0649942E2,1.0675073E3,0E0,0E0,0E0,0E0],"parents":[2147483647,0,0,1,1,2,2,5,5,6,6],"right_children":[2,4,6,-1,-1,8,10,-1,-1,-1,-1],"split_conditions":[-1.4289888E0,1.1588368E0,5.901633E0,-2.3407345E-1,1.471901E0,1.910166E0,8.4505564E-1,1.6117197E-2,-8.202304E-2,9.3427014E-1,-7.1196616E-2],"split_indices":[1,124,5,0,0,81,162,0,0,0,0],"split_type":[0,0,0,0,0,0,0,0,0,0,0],"sum_hessian":[1.278E3,1.9E1,1.259E3,1.1E1,8E0,1.229E3,3E1,9.76E2,2.53E2,1E1,2E1],"tree_param":{"num_deleted":"0","num_feature":"174","num_nodes":"11","size_leaf_vector":"1"}},{"base_weights":[-6.1290357E-2,-4.2459247E-1,6.889985E-1,-8.198218E-1,5.4826456E-1,5.989513E0,3.0449554E-1,-1.6405621E-1,-3.158897E-2,3.0125892E-1,-2.183879E-2,8.737617E-2,6.9176E-1,1.6982225E-1,-4.6377312E-2],"categories":[],"categories_nodes":[],"categories_segments":[],"categories_sizes":[],"default_left":[0,0,0,0,0,0,0,0,0,0,0,0,0,0,0],"id":51,"left_children":[1,3,5,7,9,11,13,-1,-1,-1,-1,-1,-1,-1,-1],"loss_changes":[3.45905E2,3.2874988E2,8.43735E2,3.1959366E2,6.5936554E2,3.718816E2,6.283249E2,0E0,0E0,0E0,0E0,0E0,0E0,0E0,0E0],"parents":[2147483647,0,0,1,1,2,2,3,3,4,4,5,5,6,6],"right_children":[2,4,6,8,10,12,14,-1,-1,-1,-1,-1,-1,-1,-1],"split_conditions":[1.4421042E0,1.4265777E0,6.3381195E-1,-3.032683E-2,-4.1439983E-1,1.4421042E0,8.054249E-1,-1.6405621E-1,-3.158897E-2,3.0125892E-1,-2.183879E-2,8.737617E-2,6.9176E-1,1.6982225E-1,-4.6377312E-2],"split_indices":[147,100,164,0,1,142,157,0,0,0,0,0,0,0,0],"split_type":[0,0,0,0,0,0,0,0,0,0,0,0,0,0,0],"sum_hessian":[1.269E3,8.55E2,4.14E2,6.08E2,2.47E2,2.8E1,3.86E2,1.54E2,4.54E2,5E1,1.97E2,1E1,1.8E1,1.26E2,2.6E2],"tree_param":{"num_deleted":"0","num_feature":"174","num_nodes":"15","size_leaf_vector":"1"}},{"base_weights":[7.559676E-2,1.7084655E-1,-2.5848184E0,4.7787005E-1,-6.5524757E-1,-2.9662097E0,-1.3309819E-1,9.3456306E-2,-4.1637648E-2,-7.441368E-2,5.45733E-1,-2.6963264E-1,-1.9445573E-1],"categories":[],"categories_nodes":[],"categories_segments":[],"categories_sizes":[],"default_left":[0,0,0,0,0,0,0,0,0,0,0,0,0],"id":52,"left_children":[1,3,5,7,9,11,-1,-1,-1,-1,-1,-1,-1],"loss_changes":[3.2257434E2,3.11711E2,1.5249573E1,6.2685126E2,7.04613E2,6.8502197E0,0E0,0E0,0E0,0E0,0E0,0E0,0E0],"parents":[2147483647,0,0,1,1,2,2,3,3,4,4,5,5],"right_children":[2,4,6,8,10,12,-1,-1,-1,-1,-1,-1,-1],"split_conditions":[5.5004835E0,1.6691562E0,9.385744E-1,1.2926365E0,4.64758E0,2.2685773E0,-1.3309819E-1,9.3456306E-2,-4.1637648E-2,-7.441368E-2,5.45733E-1,-2.6963264E-1,-1.9445573E-1],"split_indices":[61,136,112,114,52,121,0,0,0,0,0,0,0],"split_type":[0,0,0,0,0,0,0,0,0,0,0,0,0],"sum_hessian":[1.273E3,1.229E3,4.4E1,8.96E2,3.33E2,3.1E1,1.3E1,5.28E2,3.68E2,3.21E2,1.2E1,1.7E1,1.4E1],"tree_param":{"num_deleted":"0","num_feature":"174","num_nodes":"13","size_leaf_vector":"1"}},{"base_weights":[5.0443407E-2,4.6393818E-1,-5.747335E-1,1.815913E0,2.507076E-2,-8.0166715E-1,2.758238E0,1.1255323E-1,9.5580626E-1,-3.1429693E-2,7.5559005E-2,-1.6529141E-1,-2.3604453E-2,9.729442E-1,8.0962675E-3],"categories":[],"categories_nodes":[],"categories_segments":[],"categories_sizes":[],"default_left":[0,0,0,0,0,0,0,0,0,0,0,0,0,0,0],"id":53,"left_children":[1,3,5,7,9,11,13,-1,-1,-1,-1,-1,-1,-1,-1],"loss_changes":[3.2597745E2,4.5033643E2,3.796872E2,7.5868787E2,2.2314507E2,3.0321548E2,8.0632776E2,0E0,0E0,0E0,0E0,0E0,0E0,0E0,0E0],"parents":[2147483647,0,0,1,1,2,2,3,3,4,4,5,5,6,6],"right_children":[2,4,6,8,10,12,14,-1,-1,-1,-1,-1,-1,-1,-1],"split_conditions":[1.2433532E0,-1.24517284E-1,3.2229795E0,5.82891E0,1.4786991E0,7.4243814E-1,8.982695E-1,1.1255323E-1,9.5580626E-1,-3.1429693E-2,7.5559005E-2,-1.6529141E-1,-2.3604453E-2,9.729442E-1,8.0962675E-3],"split_indices":[141,1,78,89,117,161,151,0,0,0,0,0,0,0,0],"split_type":[0,0,0,0,0,0,0,0,0,0,0,0,0,0,0],"sum_hessian":[1.261E3,7.59E2,5.02E2,1.86E2,5.73E2,4.7E2,3.2E1,1.79E2,7E0,3.94E2,1.79E2,1.33E2,3.37E2,7E0,2.5E1],"tree_param":{"num_deleted":"0","num_feature":"174","num_nodes":"15","size_leaf_vector":"1"}},{"base_weights":[7.36969E-2,4.226689E0,7.11401E-5,-2.8811854E-1,1.0846356E0,2.642106E-1,-9.5435214E-1,-1.8881539E-2,1.0695992E-1,-9.753098E-2,5.5100524E-1],"categories":[],"categories_nodes":[],"categories_segments":[],"categories_sizes":[],"default_left":[0,0,0,0,0,0,0,0,0,0,0],"id":54,"left_children":[1,3,5,-1,-1,7,9,-1,-1,-1,-1],"loss_changes":[3.861682E2,1.6280555E3,3.128546E2,0E0,0E0,5.277377E2,5.795011E2,0E0,0E0,0E0,0E0],"parents":[2147483647,0,0,1,1,2,2,5,5,6,6],"right_children":[2,4,6,-1,-1,8,10,-1,-1,-1,-1],"split_conditions":[-1.2840475E0,6.998986E-1,1.910166E0,-2.8811854E-1,1.0846356E0,1.4421042E0,5.82891E0,-1.8881539E-2,1.0695992E-1,-9.753098E-2,5.5100524E-1],"split_indices":[1,163,81,0,0,147,89,0,0,0,0],"split_type":[0,0,0,0,0,0,0,0,0,0,0],"sum_hessian":[1.263E3,2.2E1,1.241E3,1.2E1,1E1,9.72E2,2.69E2,6.64E2,3.08E2,2.6E2,9E0],"tree_param":{"num_deleted":"0","num_feature":"174","num_nodes":"11","size_leaf_vector":"1"}},{"base_weights":[-1.8891755E-2,-1.1734898E0,2.9896957E-1,-6.575196E-1,-3.847069E0,4.4276965E-1,-2.2378106E0,4.4005197E-2,-1.4041075E-1,-2.7462614E-1,-4.6980003E-1,9.142882E-3,1.2133741E-1,1.4786711E-1,-2.5356025E-1],"categories":[],"categories_nodes":[],"categories_segments":[],"categories_sizes":[],"default_left":[0,0,0,0,0,0,0,0,0,0,0,0,0,0,0],"id":55,"left_children":[1,3,5,7,9,11,13,-1,-1,-1,-1,-1,-1,-1,-1],"loss_changes":[4.6242587E2,3.752038E2,3.604051E2,3.0644952E2,3.5486023E1,3.3222177E2,2.0708948E2,0E0,0E0,0E0,0E0,0E0,0E0,0E0,0E0],"parents":[2147483647,0,0,1,1,2,2,3,3,4,4,5,5,6,6],"right_children":[2,4,6,8,10,12,14,-1,-1,-1,-1,-1,-1,-1,-1],"split_conditions":[5.235147E-1,2.428315E0,7.4513036E-1,8.982695E-1,1.9535592E0,1.6928643E0,9.2202276E-1,4.4005197E-2,-1.4041075E-1,-2.7462614E-1,-4.6980003E-1,9.142882E-3,1.2133741E-1,1.4786711E-1,-2.5356025E-1],"split_indices":[166,93,1,151,98,92,153,0,0,0,0,0,0,0,0],"split_type":[0,0,0,0,0,0,0,0,0,0,0,0,0,0,0],"sum_hessian":[1.26E3,2.72E2,9.88E2,2.28E2,4.4E1,9.35E2,5.3E1,1.09E2,1.19E2,3.7E1,7E0,7.18E2,2.17E2,1E1,4.3E1],"tree_param":{"num_deleted":"0","num_feature":"174","num_nodes":"15","size_leaf_vector":"1"}},{"base_weights":[1.6663574E-1,7.938703E-2,3.4846964E0,-9.802946E-1,2.754369E-1,-2.503911E-1,7.715562E-1,-4.3479323E-2,-3.7039426E-1,4.312063E-2,-8.7464996E-2,-3.514154E-1,1.5859224E-1],"categories":[],"categories_nodes":[],"categories_segments":[],"categories_sizes":[],"default_left":[0,0,0,0,0,0,0,0,0,0,0,0,0],"id":56,"left_children":[1,3,5,7,9,11,-1,-1,-1,-1,-1,-1,-1],"loss_changes":[3.615679E2,2.5282967E2,7.441185E2,3.0290125E2,3.7770612E2,1.8745021E2,0E0,0E0,0E0,0E0,0E0,0E0,0E0],"parents":[2147483647,0,0,1,1,2,2,3,3,4,4,5,5],"right_children":[2,4,6,8,10,12,-1,-1,-1,-1,-1,-1,-1],"split_conditions":[5.901633E0,4.6265492E-1,1.4533713E0,3.2367518E0,2.2685773E0,8.054249E-1,7.715562E-1,-4.3479323E-2,-3.7039426E-1,4.312063E-2,-8.7464996E-2,-3.514154E-1,1.5859224E-1],"split_indices":[5,2,149,77,121,157,0,0,0,0,0,0,0],"split_type":[0,0,0,0,0,0,0,0,0,0,0,0,0],"sum_hessian":[1.249E3,1.217E3,3.2E1,1.9E2,1.027E3,2E1,1.2E1,1.7E2,2E1,8.6E2,1.67E2,7E0,1.3E1],"tree_param":{"num_deleted":"0","num_feature":"174","num_nodes":"13","size_leaf_vector":"1"}},{"base_weights":[-5.025643E-2,-3.7897122E-1,5.6626135E-1,1.9678041E-2,-1.4689884E0,4.3353667E0,1.9121666E-1,-3.9997835E-2,7.956653E-2,-1.6055661E-1,8.8944554E-2,-1.0349139E-1,2.1364148E0,-7.6625526E-2,8.598099E-2],"categories":[],"categories_nodes":[],"categories_segments":[],"categories_sizes":[],"default_left":[0,0,0,0,0,0,0,0,0,0,0,0,0,0,0],"id":57,"left_children":[1,3,5,7,9,11,13,-1,-1,-1,-1,-1,-1,-1,-1],"loss_changes":[2.5757828E2,3.602345E2,6.247868E2,3.116802E2,3.1698547E2,5.085799E3,4.1383926E2,0E0,0E0,0E0,0E0,0E0,0E0,0E0,0E0],"parents":[2147483647,0,0,1,1,2,2,3,3,4,4,5,5,6,6],"right_children":[2,4,6,8,10,12,14,-1,-1,-1,-1,-1,-1,-1,-1],"split_conditions":[1.3900129E0,1.6319748E0,4.593985E-1,1.3251783E0,2.083703E0,2.4216702E0,1.4265777E0,-3.9997835E-2,7.956653E-2,-1.6055661E-1,8.8944554E-2,-1.0349139E-1,2.1364148E0,-7.6625526E-2,8.598099E-2],"split_indices":[120,148,132,139,58,79,100,0,0,0,0,0,0,0,0],"split_type":[0,0,0,0,0,0,0,0,0,0,0,0,0,0,0],"sum_hessian":[1.271E3,8.29E2,4.42E2,6.07E2,2.22E2,4E1,4.02E2,3.96E2,2.11E2,1.83E2,3.9E1,3.2E1,8E0,1.75E2,2.27E2],"tree_param":{"num_deleted":"0","num_feature":"174","num_nodes":"15","size_leaf_vector":"1"}},{"base_weights":[-7.33928E-2,-2.1107621E0,4.839384E-2,3.7776926E-1,-2.873604E0,-1.8804011E-1,1.0761967E0,-1.960341E-1,-4.220934E-1,-5.411284E-2,5.7536513E-2,-7.808859E-2,2.2048722E-1],"categories":[],"categories_nodes":[],"categories_segments":[],"categories_sizes":[],"default_left":[0,0,0,0,0,0,0,0,0,0,0,0,0],"id":58,"left_children":[1,3,5,-1,7,9,11,-1,-1,-1,-1,-1,-1],"loss_changes":[3.0792996E2,3.6657922E2,2.8456503E2,0E0,6.2417725E1,4.2808334E2,7.6595386E2,0E0,0E0,0E0,0E0,0E0,0E0],"parents":[2147483647,0,0,1,1,2,2,4,4,5,5,6,6],"right_children":[2,4,6,-1,8,10,12,-1,-1,-1,-1,-1,-1],"split_conditions":[-2.3155115E0,8.9703304E-1,2.0698242E0,3.7776926E-1,1.7981739E0,1.4265777E0,-2.94002E-1,-1.960341E-1,-4.220934E-1,-5.411284E-2,5.7536513E-2,-7.808859E-2,2.2048722E-1],"split_indices":[0,155,71,0,104,100,0,0,0,0,0,0,0],"split_type":[0,0,0,0,0,0,0,0,0,0,0,0,0],"sum_hessian":[1.241E3,7E1,1.171E3,7E0,6.3E1,9.52E2,2.19E2,5.4E1,9E0,6.18E2,3.34E2,9.9E1,1.2E2],"tree_param":{"num_deleted":"0","num_feature":"174","num_nodes":"13","size_leaf_vector":"1"}},{"base_weights":[1.5085508E-3,-7.6767445E-2,2.840273E0,4.4971056E0,-1.3690361E-1,9.6769196E-1,4.190993E-1,-4.9289516E-1,1.0186566E0,-4.189399E-2,4.1799873E-2,-1.5028763E-1,3.454313E-1],"categories":[],"categories_nodes":[],"categories_segments":[],"categories_sizes":[],"default_left":[0,0,0,0,0,0,0,0,0,0,0,0,0],"id":59,"left_children":[1,3,5,7,9,-1,11,-1,-1,-1,-1,-1,-1],"loss_changes":[2.815467E2,3.391269E2,7.6867896E2,1.4249304E3,3.149342E2,0E0,2.4506337E2,0E0,0E0,0E0,0E0,0E0,0E0],"parents":[2147483647,0,0,1,1,2,2,3,3,4,4,6,6],"right_children":[2,4,6,8,10,-1,12,-1,-1,-1,-1,-1,-1],"split_conditions":[5.901633E0,-1.2840475E0,5.3615963E-1,1.1588368E0,1.3251783E0,9.6769196E-1,1.4265777E0,-4.9289516E-1,1.0186566E0,-4.189399E-2,4.1799873E-2,-1.5028763E-1,3.454313E-1],"split_indices":[5,1,167,124,139,0,100,0,0,0,0,0,0],"split_type":[0,0,0,0,0,0,0,0,0,0,0,0,0],"sum_hessian":[1.267E3,1.233E3,3.4E1,1.6E1,1.217E3,7E0,2.7E1,7E0,9E0,7.66E2,4.51E2,1.7E1,1E1],"tree_param":{"num_deleted":"0","num_feature":"174","num_nodes":"13","size_leaf_vector":"1"}},{"base_weights":[1.5870238E-2,6.9299266E-2,-3.7477E0,3.94276E-1,-5.422394E-1,-3.2193363E-1,-2.736085E-1,2.0984244E-3,1.5824266E-1,-5.0914153E-2,3.3177876E-1],"categories":[],"categories_nodes":[],"categories_segments":[],"categories_sizes":[],"default_left":[0,0,0,0,0,0,0,0,0,0,0],"id":60,"left_children":[1,3,5,7,9,-1,-1,-1,-1,-1,-1],"loss_changes":[2.5858023E2,2.519965E2,1.6365356E0,4.8649924E2,2.0450002E2,0E0,0E0,0E0,0E0,0E0,0E0],"parents":[2147483647,0,0,1,1,2,2,3,3,4,4],"right_children":[2,4,6,8,10,-1,-1,-1,-1,-1,-1],"split_conditions":[5.9630165E0,1.3837205E0,2.7828128E0,1.7981739E0,1.2736649E1,-3.2193363E-1,-2.736085E-1,2.0984244E-3,1.5824266E-1,-5.0914153E-2,3.3177876E-1],"split_indices":[1,113,110,104,44,0,0,0,0,0,0],"split_type":[0,0,0,0,0,0,0,0,0,0,0],"sum_hessian":[1.286E3,1.268E3,1.8E1,8.28E2,4.4E2,9E0,9E0,6.73E2,1.55E2,4.31E2,9E0],"tree_param":{"num_deleted":"0","num_feature":"174","num_nodes":"11","size_leaf_vector":"1"}},{"base_weights":[-4.095392E-2,3.9955474E-2,-2.2705393E0,-2.6353136E-2,3.2627015E0,-2.069109E0,-2.444029E-1,-2.7150312E-2,5.764952E-2,1.097116E0,-1.3502261E-1,-1.9018221E-1,-9.736844E-2],"categories":[],"categories_nodes":[],"categories_segments":[],"categories_sizes":[],"default_left":[0,0,0,0,0,0,0,0,0,0,0,0,0],"id":61,"left_children":[1,3,5,7,9,11,-1,-1,-1,-1,-1,-1,-1],"loss_changes":[2.318151E2,2.6499484E2,7.280472E0,2.8807043E2,1.3081058E3,9.838593E0,0E0,0E0,0E0,0E0,0E0,0E0,0E0],"parents":[2147483647,0,0,1,1,2,2,3,3,4,4,5,5],"right_children":[2,4,6,8,10,12,-1,-1,-1,-1,-1,-1,-1],"split_conditions":[5.5004835E0,5.82891E0,1.3837205E0,1.4786991E0,4.593985E-1,9.385744E-1,-2.444029E-1,-2.7150312E-2,5.764952E-2,1.097116E0,-1.3502261E-1,-1.9018221E-1,-9.736844E-2],"split_indices":[61,89,113,117,132,112,0,0,0,0,0,0,0],"split_type":[0,0,0,0,0,0,0,0,0,0,0,0,0],"sum_hessian":[1.285E3,1.24E3,4.5E1,1.215E3,2.5E1,3.6E1,9E0,8.56E2,3.59E2,8E0,1.7E1,2.6E1,1E1],"tree_param":{"num_deleted":"0","num_feature":"174","num_nodes":"13","size_leaf_vector":"1"}},{"base_weights":[2.075122E-2,2.5723386E-1,-8.2869464E-1,-6.874483E-1,3.203572E-1,-1.0309767E0,3.6327434E-1,1.5075305E-2,1.9820078E-1,3.0636507E-1,-9.5466115E-2],"categories":[],"categories_nodes":[],"categories_segments":[],"categories_sizes":[],"default_left":[0,0,0,0,0,0,0,0,0,0,0],"id":62,"left_children":[1,3,5,-1,7,9,-1,-1,-1,-1,-1],"loss_changes":[2.5551622E2,5.5951514E2,3.0259143E2,0E0,2.8058044E2,2.2241803E2,0E0,0E0,0E0,0E0,0E0],"parents":[2147483647,0,0,1,1,2,2,4,4,5,5],"right_children":[2,4,6,-1,8,10,-1,-1,-1,-1,-1],"split_conditions":[1.910166E0,-1.7188714E0,5.82891E0,-6.874483E-1,4.3730183E0,-1.57393E0,3.6327434E-1,1.5075305E-2,1.9820078E-1,3.0636507E-1,-9.5466115E-2],"split_indices":[81,1,89,0,29,1,0,0,0,0,0],"split_type":[0,0,0,0,0,0,0,0,0,0,0],"sum_hessian":[1.272E3,9.95E2,2.77E2,7E0,9.88E2,2.67E2,1E1,9.32E2,5.6E1,9E0,2.58E2],"tree_param":{"num_deleted":"0","num_feature":"174","num_nodes":"11","size_leaf_vector":"1"}},{"base_weights":[-1.340543E-1,3.6549668E0,-1.9512132E-1,-3.4315822E-1,9.240257E-1,-2.6431385E-1,2.8022642E0,-5.6022365E-2,1.4894745E-2,7.1829003E-1,-9.801736E-2],"categories":[],"categories_nodes":[],"categories_segments":[],"categories_sizes":[],"default_left":[0,0,0,0,0,0,0,0,0,0,0],"id":63,"left_children":[1,3,5,-1,-1,7,9,-1,-1,-1,-1],"loss_changes":[2.9176266E2,1.2716726E3,2.5736987E2,0E0,0E0,2.4152188E2,7.0488873E2,0E0,0E0,0E0,0E0],"parents":[2147483647,0,0,1,1,2,2,5,5,6,6],"right_children":[2,4,6,-1,-1,8,10,-1,-1,-1,-1],"split_conditions":[-1.2840475E0,6.998986E-1,5.901633E0,-3.4315822E-1,9.240257E-1,1.0075164E0,8.4505564E-1,-5.6022365E-2,1.4894745E-2,7.1829003E-1,-9.801736E-2],"split_indices":[1,163,5,0,0,143,162,0,0,0,0],"split_type":[0,0,0,0,0,0,0,0,0,0,0],"sum_hessian":[1.261E3,2E1,1.241E3,1E1,1E1,1.213E3,2.8E1,6.14E2,5.99E2,1.1E1,1.7E1],"tree_param":{"num_deleted":"0","num_feature":"174","num_nodes":"11","size_leaf_vector":"1"}},{"base_weights":[3.4895528E-2,1.3906197E-1,-2.2064764E0,-1.9747047E-1,9.644931E-1,-1.5275058E0,-3.731164E-1,-5.891193E-2,8.393374E-2,1.7839758E-1,5.9966585E-3,-1.1129347E-2,-2.8059912E-1],"categories":[],"categories_nodes":[],"categories_segments":[],"categories_sizes":[],"default_left":[0,0,0,0,0,0,0,0,0,0,0,0,0],"id":64,"left_children":[1,3,5,7,9,11,-1,-1,-1,-1,-1,-1,-1],"loss_changes":[2.9440524E2,3.34733E2,9.462393E1,5.837838E2,3.9734305E2,1.2231779E2,0E0,0E0,0E0,0E0,0E0,0E0,0E0],"parents":[2147483647,0,0,1,1,2,2,3,3,4,4,5,5],"right_children":[2,4,6,8,10,12,-1,-1,-1,-1,-1,-1,-1],"split_conditions":[7.4513036E-1,1.4786991E0,1.3837205E0,1.4265777E0,1.1163231E0,5.9630165E0,-3.731164E-1,-5.891193E-2,8.393374E-2,1.7839758E-1,5.9966585E-3,-1.1129347E-2,-2.8059912E-1],"split_indices":[1,117,113,100,73,1,0,0,0,0,0,0,0],"split_type":[0,0,0,0,0,0,0,0,0,0,0,0,0],"sum_hessian":[1.261E3,1.205E3,5.6E1,8.56E2,3.49E2,4.4E1,1.2E1,5.97E2,2.59E2,1.43E2,2.06E2,2.6E1,1.8E1],"tree_param":{"num_deleted":"0","num_feature":"174","num_nodes":"13","size_leaf_vector":"1"}},{"base_weights":[1.22058955E-5,3.4520125E-1,-5.2496976E-1,1.6210756E-1,3.6636813E0,-2.674557E-1,-2.5398388E0,-5.7122298E-2,1.0197672E-1,1.1778446E0,-1.8634902E-1,-4.1099418E-2,2.2713655E-1,-2.5553983E-1,1.2723091E-1],"categories":[],"categories_nodes":[],"categories_segments":[],"categories_sizes":[],"default_left":[0,0,0,0,0,0,0,0,0,0,0,0,0,0,0],"id":65,"left_children":[1,3,5,7,9,11,13,-1,-1,-1,-1,-1,-1,-1,-1],"loss_changes":[2.2978378E2,4.647943E2,2.6097467E2,7.161944E2,2.6823442E3,3.4824286E2,1.596087E2,0E0,0E0,0E0,0E0,0E0,0E0,0E0,0E0],"parents":[2147483647,0,0,1,1,2,2,3,3,4,4,5,5,6,6],"right_children":[2,4,6,8,10,12,14,-1,-1,-1,-1,-1,-1,-1,-1],"split_conditions":[1.2433532E0,4.3730183E0,2.7017467E0,3.2124004E-1,-3.032683E-2,3.2229795E0,1.7616333E0,-5.7122298E-2,1.0197672E-1,1.1778446E0,-1.8634902E-1,-4.1099418E-2,2.2713655E-1,-2.5553983E-1,1.2723091E-1],"split_indices":[141,29,87,0,0,78,88,0,0,0,0,0,0,0,0],"split_type":[0,0,0,0,0,0,0,0,0,0,0,0,0,0,0],"sum_hessian":[1.268E3,7.65E2,5.03E2,7.25E2,4E1,4.46E2,5.7E1,4.06E2,3.19E2,1.4E1,2.6E1,4.13E2,3.3E1,4.9E1,8E0],"tree_param":{"num_deleted":"0","num_feature":"174","num_nodes":"15","size_leaf_vector":"1"}},{"base_weights":[6.523385E-2,-6.036014E-1,3.209901E-1,-5.5539503E0,-3.089266E-1,2.0069263E0,1.2504008E-2,-1.8190642E-1,-7.5832564E-1,4.3633804E-1,-4.7592103E-2,6.1139017E-2,5.855486E-1,-2.3497518E-2,9.403154E-2],"categories":[],"categories_nodes":[],"categories_segments":[],"categories_sizes":[],"default_left":[0,0,0,0,0,0,0,0,0,0,0,0,0,0,0],"id":66,"left_children":[1,3,5,7,9,11,13,-1,-1,-1,-1,-1,-1,-1,-1],"loss_changes":[2.2015161E2,5.1929083E2,4.841943E2,2.6045325E2,5.65216E2,9.555163E2,2.8403006E2,0E0,0E0,0E0,0E0,0E0,0E0,0E0,0E0],"parents":[2147483647,0,0,1,1,2,2,3,3,4,4,5,5,6,6],"right_children":[2,4,6,8,10,12,14,-1,-1,-1,-1,-1,-1,-1,-1],"split_conditions":[-2.94002E-1,-9.9416494E-1,-9.9416494E-1,1.1983958E0,6.912794E-1,1.5048071E0,1.714158E0,-1.8190642E-1,-7.5832564E-1,4.3633804E-1,-4.7592103E-2,6.1139017E-2,5.855486E-1,-2.3497518E-2,9.403154E-2],"split_indices":[0,1,1,129,168,105,118,0,0,0,0,0,0,0,0],"split_type":[0,0,0,0,0,0,0,0,0,0,0,0,0,0,0],"sum_hessian":[1.287E3,3.56E2,9.31E2,2E1,3.36E2,1.44E2,7.87E2,1.1E1,9E0,1.6E1,3.2E2,1.17E2,2.7E1,6.23E2,1.64E2],"tree_param":{"num_deleted":"0","num_feature":"174","num_nodes":"15","size_leaf_vector":"1"}},{"base_weights":[-2.0337936E-2,-8.266992E-1,2.9814425E-1,-1.2348131E0,6.9499297E0,1.7966654E-2,2.1881242E0,-3.9458296E-1,-7.878104E-2,1.3963708E0,-1.2304875E-1,-8.3483495E-3,4.0122816E-1,1.0402223E-1,6.1909854E-1],"categories":[],"categories_nodes":[],"categories_segments":[],"categories_sizes":[],"default_left":[0,0,0,0,0,0,0,0,0,0,0,0,0,0,0],"id":67,"left_children":[1,3,5,7,9,11,13,-1,-1,-1,-1,-1,-1,-1,-1],"loss_changes":[3.2743686E2,1.1457029E3,4.8398227E2,3.1139697E2,1.6251873E3,4.9277472E2,5.811468E2,0E0,0E0,0E0,0E0,0E0,0E0,0E0,0E0],"parents":[2147483647,0,0,1,1,2,2,3,3,4,4,5,5,6,6],"right_children":[2,4,6,8,10,12,14,-1,-1,-1,-1,-1,-1,-1,-1],"split_conditions":[-3.6431536E-1,4.3730183E0,2.0698242E0,-9.9416494E-1,-1.6123778E0,5.82891E0,2.0744274E0,-3.9458296E-1,-7.878104E-2,1.3963708E0,-1.2304875E-1,-8.3483495E-3,4.0122816E-1,1.0402223E-1,6.1909854E-1],"split_indices":[0,29,71,1,0,89,115,0,0,0,0,0,0,0,0],"split_type":[0,0,0,0,0,0,0,0,0,0,0,0,0,0,0],"sum_hessian":[1.275E3,3.61E2,9.14E2,3.43E2,1.8E1,7.96E2,1.18E2,2.1E1,3.22E2,8E0,1E1,7.77E2,1.9E1,1.02E2,1.6E1],"tree_param":{"num_deleted":"0","num_feature":"174","num_nodes":"15","size_leaf_vector":"1"}},{"base_weights":[1.6683938E-2,-1.9748038E-1,9.0934306E-1,-3.9017398E-2,-1.9806215E0,-1.3189709E-1,3.3014312E0,-3.245298E-2,6.1757088E-2,-2.4344495E-1,-3.333096E-2,-7.233299E-2,2.7815527E-1,1.3166915E-1,7.359458E-1],"categories":[],"categories_nodes":[],"categories_segments":[],"categories_sizes":[],"default_left":[0,0,0,0,0,0,0,0,0,0,0,0,0,0,0],"id":68,"left_children":[1,3,5,7,9,11,13,-1,-1,-1,-1,-1,-1,-1,-1],"loss_changes":[2.4107524E2,2.873579E2,6.077519E2,2.8162335E2,1.4033884E2,4.8068964E2,7.2525354E2,0E0,0E0,0E0,0E0,0E0,0E0,0E0,0E0],"parents":[2147483647,0,0,1,1,2,2,3,3,4,4,5,5,6,6],"right_children":[2,4,6,8,10,12,14,-1,-1,-1,-1,-1,-1,-1,-1],"split_conditions":[2.0698242E0,3.1825757E0,1.683897E0,1.5048071E0,1.3251783E0,2.0744274E0,1.3251783E0,-3.245298E-2,6.1757088E-2,-2.4344495E-1,-3.333096E-2,-7.233299E-2,2.7815527E-1,1.3166915E-1,7.359458E-1],"split_indices":[71,41,140,105,139,115,139,0,0,0,0,0,0,0,0],"split_type":[0,0,0,0,0,0,0,0,0,0,0,0,0,0,0],"sum_hessian":[1.261E3,1.017E3,2.44E2,9.34E2,8.3E1,1.7E2,7.4E1,6.43E2,2.91E2,4.9E1,3.4E1,1.4E2,3E1,5.8E1,1.6E1],"tree_param":{"num_deleted":"0","num_feature":"174","num_nodes":"15","size_leaf_vector":"1"}},{"base_weights":[-3.356409E-2,2.2187117E-1,-6.509897E-1,6.743267E-1,-3.3310214E-1,-1.1089615E0,5.7023185E-1,8.423687E-2,-1.4706986E-1,-6.6446334E-2,4.254007E-1,-5.8936227E-2,-1.9577748E-1,-3.037464E-1,1.7097414E-1],"categories":[],"categories_nodes":[],"categories_segments":[],"categories_sizes":[],"default_left":[0,0,0,0,0,0,0,0,0,0,0,0,0,0,0],"id":69,"left_children":[1,3,5,7,9,11,13,-1,-1,-1,-1,-1,-1,-1,-1],"loss_changes":[2.0155789E2,2.2699637E2,2.091746E2,4.8517212E2,1.1616476E3,1.353309E2,7.0863086E2,0E0,0E0,0E0,0E0,0E0,0E0,0E0,0E0],"parents":[2147483647,0,0,1,1,2,2,3,3,4,4,5,5,6,6],"right_children":[2,4,6,8,10,12,14,-1,-1,-1,-1,-1,-1,-1,-1],"split_conditions":[1.52926E0,1.1556181E0,6.728069E-1,2.224268E0,2.224268E0,5.849152E-1,-5.5934113E-1,8.423687E-2,-1.4706986E-1,-6.6446334E-2,4.254007E-1,-5.8936227E-2,-1.9577748E-1,-3.037464E-1,1.7097414E-1],"split_indices":[125,130,0,123,123,0,1,0,0,0,0,0,0,0,0],"split_type":[0,0,0,0,0,0,0,0,0,0,0,0,0,0,0],"sum_hessian":[1.278E3,9.04E2,3.74E2,4.98E2,4.06E2,2.72E2,1.02E2,4.32E2,6.6E1,3.73E2,3.3E1,2.14E2,5.8E1,2.7E1,7.5E1],"tree_param":{"num_deleted":"0","num_feature":"174","num_nodes":"15","size_leaf_vector":"1"}},{"base_weights":[-8.1630684E-2,-3.2769278E-1,4.5723602E-1,-8.3826286E-1,7.822287E-1,3.5360763E0,-7.5455755E-2,-9.284662E-2,2.0414388E-2,-1.548124E-3,3.647505E-1,1.07161194E-1,8.959728E-1,-3.8448744E-2,1.9700272E-1],"categories":[],"categories_nodes":[],"categories_segments":[],"categories_sizes":[],"default_left":[0,0,0,0,0,0,0,0,0,0,0,0,0,0,0],"id":70,"left_children":[1,3,5,7,9,11,13,-1,-1,-1,-1,-1,-1,-1,-1],"loss_changes":[1.6919032E2,4.9642303E2,6.5604205E2,2.1699725E2,8.42669E2,9.9885156E2,3.55804E2,0E0,0E0,0E0,0E0,0E0,0E0,0E0,0E0],"parents":[2147483647,0,0,1,1,2,2,3,3,4,4,5,5,6,6],"right_children":[2,4,6,8,10,12,14,-1,-1,-1,-1,-1,-1,-1,-1],"split_conditions":[1.4786991E0,1.4265777E0,5.3615963E-1,2.0790536E0,2.339095E0,3.2124004E-1,2.083703E0,-9.284662E-2,2.0414388E-2,-1.548124E-3,3.647505E-1,1.07161194E-1,8.959728E-1,-3.8448744E-2,1.9700272E-1],"split_indices":[117,100,167,65,146,0,62,0,0,0,0,0,0,0,0],"split_type":[0,0,0,0,0,0,0,0,0,0,0,0,0,0,0],"sum_hessian":[1.276E3,8.76E2,4E2,6E2,2.76E2,5.9E1,3.41E2,4.61E2,1.39E2,2.28E2,4.8E1,4.6E1,1.3E1,2.94E2,4.7E1],"tree_param":{"num_deleted":"0","num_feature":"174","num_nodes":"15","size_leaf_vector":"1"}},{"base_weights":[5.5967525E-2,-2.34633E-1,7.184861E-1,-4.5661306E-1,-1.5842718E-1,3.9365385E0,9.080487E-2,-3.0412884E-2,7.342157E-2,1.1607021E-1,9.4228363E-1,3.3126358E-2,-2.657663E-1],"categories":[],"categories_nodes":[],"categories_segments":[],"categories_sizes":[],"default_left":[0,0,0,0,0,0,0,0,0,0,0,0,0],"id":71,"left_children":[1,3,5,-1,7,9,11,-1,-1,-1,-1,-1,-1],"loss_changes":[2.4374255E2,3.6961285E2,7.7967084E2,0E0,2.1076442E2,1.2356138E3,3.6184735E2,0E0,0E0,0E0,0E0,0E0,0E0],"parents":[2147483647,0,0,1,1,2,2,4,4,5,5,6,6],"right_children":[2,4,6,-1,8,10,12,-1,-1,-1,-1,-1,-1],"split_conditions":[1.4786991E0,-1.7188714E0,5.3615963E-1,-4.5661306E-1,2.339095E0,3.2124004E-1,8.925362E-1,-3.0412884E-2,7.342157E-2,1.1607021E-1,9.4228363E-1,3.3126358E-2,-2.657663E-1],"split_indices":[117,1,167,0,146,0,0,0,0,0,0,0,0],"split_type":[0,0,0,0,0,0,0,0,0,0,0,0,0],"sum_hessian":[1.266E3,8.8E2,3.86E2,1.2E1,8.68E2,6.3E1,3.23E2,7.19E2,1.49E2,4.8E1,1.5E1,2.95E2,2.8E1],"tree_param":{"num_deleted":"0","num_feature":"174","num_nodes":"13","size_leaf_vector":"1"}},{"base_weights":[-6.5561472E-3,1.019241E0,-1.5469916E-1,1.4231654E-1,6.2043695E0,-5.965097E-1,4.0643814E-1,-1.5550485E-1,1.5959072E-1,-7.072541E-2,1.2258525E0,2.5652412E-1,-6.295758E-2,1.061838E-2,2.9475075E-1],"categories":[],"categories_nodes":[],"categories_segments":[],"categories_sizes":[],"default_left":[0,0,0,0,0,0,0,0,0,0,0,0,0,0,0],"id":72,"left_children":[1,3,5,7,9,11,13,-1,-1,-1,-1,-1,-1,-1,-1],"loss_changes":[1.9147227E2,7.229441E2,2.7295663E2,5.328139E2,1.5050211E3,4.613716E2,4.370116E2,0E0,0E0,0E0,0E0,0E0,0E0,0E0,0E0],"parents":[2147483647,0,0,1,1,2,2,3,3,4,4,5,5,6,6],"right_children":[2,4,6,8,10,12,14,-1,-1,-1,-1,-1,-1,-1,-1],"split_conditions":[-9.9416494E-1,2.339095E0,1.1056176E0,1.0075164E0,1.3251783E0,-1.6123778E0,3.2367518E0,-1.5550485E-1,1.5959072E-1,-7.072541E-2,1.2258525E0,2.5652412E-1,-6.295758E-2,1.061838E-2,2.9475075E-1],"split_indices":[1,146,103,143,139,0,77,0,0,0,0,0,0,0,0],"split_type":[0,0,0,0,0,0,0,0,0,0,0,0,0,0,0],"sum_hessian":[1.26E3,1.59E2,1.101E3,1.36E2,2.3E1,6.16E2,4.85E2,6.4E1,7.2E1,1.3E1,1E1,3E1,5.86E2,4.48E2,3.7E1],"tree_param":{"num_deleted":"0","num_feature":"174","num_nodes":"15","size_leaf_vector":"1"}},{"base_weights":[-1.0238607E-1,-1.84594E-1,1.6881846E0,-7.387327E-1,2.2898513E-1,-1.6337717E0,3.4415424E0,-7.435174E-2,2.3387977E-1,1.9817245E-1,-7.2590373E-3,-2.2682899E-1,3.6445946E-2,6.78352E-1,7.100259E-2],"categories":[],"categories_nodes":[],"categories_segments":[],"categories_sizes":[],"default_left":[0,0,0,0,0,0,0,0,0,0,0,0,0,0,0],"id":73,"left_children":[1,3,5,7,9,11,13,-1,-1,-1,-1,-1,-1,-1,-1],"loss_changes":[1.8443492E2,2.7455978E2,3.2035858E2,3.7137845E2,4.9776154E2,4.854782E1,4.6736914E2,0E0,0E0,0E0,0E0,0E0,0E0,0E0,0E0],"parents":[2147483647,0,0,1,1,2,2,3,3,4,4,5,5,6,6],"right_children":[2,4,6,8,10,12,14,-1,-1,-1,-1,-1,-1,-1,-1],"split_conditions":[1.0067954E0,9.2202276E-1,4.593985E-1,2.4216702E0,6.3381195E-1,1.7049677E0,1.910166E0,-7.435174E-2,2.3387977E-1,1.9817245E-1,-7.2590373E-3,-2.2682899E-1,3.6445946E-2,6.78352E-1,7.100259E-2],"split_indices":[0,153,132,79,164,64,81,0,0,0,0,0,0,0,0],"split_type":[0,0,0,0,0,0,0,0,0,0,0,0,0,0,0],"sum_hessian":[1.253E3,1.198E3,5.5E1,5.12E2,6.86E2,1.9E1,3.6E1,4.86E2,2.6E1,8.5E1,6.01E2,1.2E1,7E0,1.2E1,2.4E1],"tree_param":{"num_deleted":"0","num_feature":"174","num_nodes":"15","size_leaf_vector":"1"}},{"base_weights":[5.8946427E-2,3.3929855E-1,-4.8799357E-1,1.4900215E-1,5.114432E0,-1.2289977E0,2.461003E-1,-5.7878338E-2,6.1489977E-2,5.849329E-1,1.3554359E-2,7.087141E-2,-1.2211969E-1,7.944946E-2,-6.362889E-2],"categories":[],"categories_nodes":[],"categories_segments":[],"categories_sizes":[],"default_left":[0,0,0,0,0,0,0,0,0,0,0,0,0,0,0],"id":74,"left_children":[1,3,5,7,9,11,13,-1,-1,-1,-1,-1,-1,-1,-1],"loss_changes":[1.9366257E2,7.587373E2,2.3282135E2,4.4025006E2,3.5546008E2,1.3909665E2,1.696614E2,0E0,0E0,0E0,0E0,0E0,0E0,0E0,0E0],"parents":[2147483647,0,0,1,1,2,2,3,3,4,4,5,5,6,6],"right_children":[2,4,6,8,10,12,14,-1,-1,-1,-1,-1,-1,-1,-1],"split_conditions":[1.3837205E0,2.083703E0,1.3290893E0,8.9210063E-1,1.646085E0,5.235147E-1,8.9210063E-1,-5.7878338E-2,6.1489977E-2,5.849329E-1,1.3554359E-2,7.087141E-2,-1.2211969E-1,7.944946E-2,-6.362889E-2],"split_indices":[113,58,158,150,94,166,150,0,0,0,0,0,0,0,0],"split_type":[0,0,0,0,0,0,0,0,0,0,0,0,0,0,0],"sum_hessian":[1.263E3,8.35E2,4.28E2,8.03E2,3.2E1,2.13E2,2.15E2,3.34E2,4.69E2,2.2E1,1E1,2.7E1,1.86E2,1.25E2,9E1],"tree_param":{"num_deleted":"0","num_feature":"174","num_nodes":"15","size_leaf_vector":"1"}},{"base_weights":[-4.6831496E-2,-1.8637304E0,6.397045E-2,-2.3913553E0,2.4715528E-1,-1.3231161E-1,9.865138E-1,-4.080953E-1,-1.5557502E-1,-3.0759912E-2,8.6100295E-2,4.188883E-2,9.9993217E-1],"categories":[],"categories_nodes":[],"categories_segments":[],"categories_sizes":[],"default_left":[0,0,0,0,0,0,0,0,0,0,0,0,0],"id":75,"left_children":[1,3,5,7,-1,9,11,-1,-1,-1,-1,-1,-1],"loss_changes":[2.556779E2,1.9158734E2,2.1675436E2,7.848456E1,0E0,3.0578787E2,1.1186813E3,0E0,0E0,0E0,0E0,0E0,0E0],"parents":[2147483647,0,0,1,1,2,2,3,3,5,5,6,6],"right_children":[2,4,6,8,-1,10,12,-1,-1,-1,-1,-1,-1],"split_conditions":[-2.3155115E0,1.6347783E0,2.146362E0,1.1588368E0,2.4715528E-1,2.0698242E0,8.925362E-1,-4.080953E-1,-1.5557502E-1,-3.0759912E-2,8.6100295E-2,4.188883E-2,9.9993217E-1],"split_indices":[0,83,97,124,0,71,0,0,0,0,0,0,0],"split_type":[0,0,0,0,0,0,0,0,0,0,0,0,0],"sum_hessian":[1.27E3,7.3E1,1.197E3,6.6E1,7E0,9.87E2,2.1E2,9E0,5.7E1,8.16E2,1.71E2,2.02E2,8E0],"tree_param":{"num_deleted":"0","num_feature":"174","num_nodes":"13","size_leaf_vector":"1"}},{"base_weights":[2.652817E-3,9.649264E-2,-1.8963476E0,-1.6218619E-1,7.8525627E-1,-3.1029658E0,1.8855074E-1,2.5407063E-2,-6.3946806E-2,4.0558836E-1,1.7112061E-2,-3.5238475E-1,-1.6514108E-1],"categories":[],"categories_nodes":[],"categories_segments":[],"categories_sizes":[],"default_left":[0,0,0,0,0,0,0,0,0,0,0,0,0],"id":76,"left_children":[1,3,5,7,9,11,-1,-1,-1,-1,-1,-1,-1],"loss_changes":[2.2328027E2,2.127356E2,3.0393527E2,2.6881287E2,8.0241846E2,6.2750397E1,0E0,0E0,0E0,0E0,0E0,0E0,0E0],"parents":[2147483647,0,0,1,1,2,2,3,3,4,4,5,5],"right_children":[2,4,6,8,10,12,-1,-1,-1,-1,-1,-1,-1],"split_conditions":[4.64758E0,1.5048071E0,1.4265777E0,1.1163231E0,4.593985E-1,-6.01623E-1,1.8855074E-1,2.5407063E-2,-6.3946806E-2,4.0558836E-1,1.7112061E-2,-3.5238475E-1,-1.6514108E-1],"split_indices":[52,105,100,73,132,0,0,0,0,0,0,0,0],"split_type":[0,0,0,0,0,0,0,0,0,0,0,0,0],"sum_hessian":[1.253E3,1.194E3,5.9E1,8.68E2,3.26E2,4.6E1,1.3E1,4.96E2,3.72E2,3.8E1,2.88E2,2E1,2.6E1],"tree_param":{"num_deleted":"0","num_feature":"174","num_nodes":"13","size_leaf_vector":"1"}},{"base_weights":[-1.2608004E-2,3.61902E-1,-5.0923276E-1,6.7933017E-1,-1.1402287E0,-1.1122283E0,3.5906425E-1,1.8210331E-2,2.0352511E-1,-2.1619618E-1,-1.1697938E-2,3.4417365E-2,-1.032485E-1,-7.0776224E-2,2.484291E-1],"categories":[],"categories_nodes":[],"categories_segments":[],"categories_sizes":[],"default_left":[0,0,0,0,0,0,0,0,0,0,0,0,0,0,0],"id":77,"left_children":[1,3,5,7,9,11,13,-1,-1,-1,-1,-1,-1,-1,-1],"loss_changes":[2.37511E2,3.4712225E2,2.8744778E2,5.091638E2,1.9932611E2,9.3719086E1,7.782255E2,0E0,0E0,0E0,0E0,0E0,0E0,0E0,0E0],"parents":[2147483647,0,0,1,1,2,2,3,3,4,4,5,5,6,6],"right_children":[2,4,6,8,10,12,14,-1,-1,-1,-1,-1,-1,-1,-1],"split_conditions":[1.154013E0,1.7981739E0,1.6347783E0,1.4421042E0,1.4786991E0,8.4505564E-1,1.3900129E0,1.8210331E-2,2.0352511E-1,-2.1619618E-1,-1.1697938E-2,3.4417365E-2,-1.032485E-1,-7.0776224E-2,2.484291E-1],"split_indices":[160,104,82,147,117,162,120,0,0,0,0,0,0,0,0],"split_type":[0,0,0,0,0,0,0,0,0,0,0,0,0,0,0],"sum_hessian":[1.277E3,7.28E2,5.49E2,6.01E2,1.27E2,3.24E2,2.25E2,4.85E2,1.16E2,4.9E1,7.8E1,3.5E1,2.89E2,1.55E2,7E1],"tree_param":{"num_deleted":"0","num_feature":"174","num_nodes":"15","size_leaf_vector":"1"}},{"base_weights":[-5.9644382E-2,-1.55054E-2,-3.2867632E0,2.1258369E-1,-6.465631E-1,-3.8385314E-1,-1.7524871E-1,5.5602714E-2,-3.3422273E-2,-8.335872E-2,5.5513605E-2],"categories":[],"categories_nodes":[],"categories_segments":[],"categories_sizes":[],"default_left":[0,0,0,0,0,0,0,0,0,0,0],"id":78,"left_children":[1,3,5,7,9,-1,-1,-1,-1,-1,-1],"loss_changes":[1.7946436E2,1.7891579E2,2.8355545E1,2.816516E2,1.7868697E2,0E0,0E0,0E0,0E0,0E0,0E0],"parents":[2147483647,0,0,1,1,2,2,3,3,4,4],"right_children":[2,4,6,8,10,-1,-1,-1,-1,-1,-1],"split_conditions":[8.303757E0,1.6604316E0,7.4243814E-1,1.2433532E0,1.7049677E0,-3.8385314E-1,-1.7524871E-1,5.5602714E-2,-3.3422273E-2,-8.335872E-2,5.5513605E-2],"split_indices":[25,135,161,141,64,0,0,0,0,0,0],"split_type":[0,0,0,0,0,0,0,0,0,0,0],"sum_hessian":[1.26E3,1.243E3,1.7E1,9.13E2,3.3E2,7E0,1E1,5.16E2,3.97E2,2.54E2,7.6E1],"tree_param":{"num_deleted":"0","num_feature":"174","num_nodes":"11","size_leaf_vector":"1"}},{"base_weights":[8.887358E-3,-3.7169343E-1,4.490603E-1,-5.4536873E-1,3.3033798E0,-2.0393355E-1,1.5276827E0,-1.8240404E-1,-2.8818132E-2,8.264893E-1,-6.0784523E-3,-3.236909E-2,7.1521443E-1,3.8320422E-2,4.180508E-1],"categories":[],"categories_nodes":[],"categories_segments":[],"categories_sizes":[],"default_left":[0,0,0,0,0,0,0,0,0,0,0,0,0,0,0],"id":79,"left_children":[1,3,5,7,9,11,13,-1,-1,-1,-1,-1,-1,-1,-1],"loss_changes":[2.1459517E2,4.3848093E2,4.183792E2,2.097419E2,7.437515E2,6.928419E2,8.742741E2,0E0,0E0,0E0,0E0,0E0,0E0,0E0,0E0],"parents":[2147483647,0,0,1,1,2,2,3,3,4,4,5,5,6,6],"right_children":[2,4,6,8,10,12,14,-1,-1,-1,-1,-1,-1,-1,-1],"split_conditions":[3.2124004E-1,4.3730183E0,1.2017735E0,-2.3155115E0,1.1163231E0,5.82891E0,1.3900129E0,-1.8240404E-1,-2.8818132E-2,8.264893E-1,-6.0784523E-3,-3.236909E-2,7.1521443E-1,3.8320422E-2,4.180508E-1],"split_indices":[0,29,90,0,73,89,120,0,0,0,0,0,0,0,0],"split_type":[0,0,0,0,0,0,0,0,0,0,0,0,0,0,0],"sum_hessian":[1.281E3,6.87E2,5.94E2,6.56E2,3.1E1,3.7E2,2.24E2,6.2E1,5.94E2,1E1,2.1E1,3.62E2,8E0,1.75E2,4.9E1],"tree_param":{"num_deleted":"0","num_feature":"174","num_nodes":"15","size_leaf_vector":"1"}},{"base_weights":[-6.9503866E-2,4.1234675E-1,-5.798912E-1,8.513292E-1,2.9913467E-1,-4.280795E-1,-3.224982E0,-7.7130776E-3,1.5144798E-1,-1.6084394E-1,-1.6433783E-2,-3.951414E-1,-4.2555913E-2],"categories":[],"categories_nodes":[],"categories_segments":[],"categories_sizes":[],"default_left":[0,0,0,0,0,0,0,0,0,0,0,0,0],"id":80,"left_children":[1,3,5,-1,7,9,11,-1,-1,-1,-1,-1,-1],"loss_changes":[3.0790552E2,7.5104535E2,2.4413232E2,0E0,4.0555014E2,2.030611E2,1.5510928E2,0E0,0E0,0E0,0E0,0E0,0E0],"parents":[2147483647,0,0,1,1,2,2,4,4,5,5,6,6],"right_children":[2,4,6,-1,8,10,12,-1,-1,-1,-1,-1,-1],"split_conditions":[1.0438467E0,-1.2840475E0,3.2367518E0,8.513292E-1,1.7203397E0,-1.1729192E0,1.1604505E0,-7.7130776E-3,1.5144798E-1,-1.6084394E-1,-1.6433783E-2,-3.951414E-1,-4.2555913E-2],"split_indices":[156,1,31,0,99,0,106,0,0,0,0,0,0],"split_type":[0,0,0,0,0,0,0,0,0,0,0,0,0],"sum_hessian":[1.252E3,6.44E2,6.08E2,7E0,6.37E2,5.75E2,3.3E1,5.11E2,1.26E2,7E1,5.05E2,2E1,1.3E1],"tree_param":{"num_deleted":"0","num_feature":"174","num_nodes":"13","size_leaf_vector":"1"}},{"base_weights":[4.3471366E-2,-2.6610497E-1,6.3053364E-1,1.3175514E-2,-1.1716262E0,6.7728105E0,3.64753E-1,-2.9075092E-2,9.3957596E-2,-1.3513976E-1,1.8750845E-2,7.480253E-1,3.7023616E-1,3.2469E-1,-1.6068019E-3],"categories":[],"categories_nodes":[],"categories_segments":[],"categories_sizes":[],"default_left":[0,0,0,0,0,0,0,0,0,0,0,0,0,0,0],"id":81,"left_children":[1,3,5,7,9,11,13,-1,-1,-1,-1,-1,-1,-1,-1],"loss_changes":[2.2844928E2,2.081364E2,7.084777E2,2.788183E2,1.444974E2,1.0041864E2,5.960145E2,0E0,0E0,0E0,0E0,0E0,0E0,0E0,0E0],"parents":[2147483647,0,0,1,1,2,2,3,3,4,4,5,5,6,6],"right_children":[2,4,6,8,10,12,14,-1,-1,-1,-1,-1,-1,-1,-1],"split_conditions":[1.3900129E0,1.5856715E0,7.215982E-1,1.4421042E0,2.7551122E0,1.1556181E0,4.593985E-1,-2.9075092E-2,9.3957596E-2,-1.3513976E-1,1.8750845E-2,7.480253E-1,3.7023616E-1,3.2469E-1,-1.6068019E-3],"split_indices":[120,127,159,147,86,130,132,0,0,0,0,0,0,0,0],"split_type":[0,0,0,0,0,0,0,0,0,0,0,0,0,0,0],"sum_hessian":[1.257E3,8.23E2,4.34E2,6.29E2,1.94E2,1.8E1,4.16E2,4.75E2,1.54E2,1.41E2,5.3E1,8E0,1E1,3.9E1,3.77E2],"tree_param":{"num_deleted":"0","num_feature":"174","num_nodes":"15","size_leaf_vector":"1"}},{"base_weights":[-9.994146E-3,2.4500011E-1,-4.8259175E-1,1.1119635E-1,3.59834E0,-1.3084807E0,1.1001678E-1,-2.2354001E-2,6.360577E-2,9.4174373E-1,-1.216908E-2,-3.294533E-1,-8.582623E-2,-2.7982133E-2,1.8119097E-1],"categories":[],"categories_nodes":[],"categories_segments":[],"categories_sizes":[],"default_left":[0,0,0,0,0,0,0,0,0,0,0,0,0,0,0],"id":82,"left_children":[1,3,5,7,9,11,13,-1,-1,-1,-1,-1,-1,-1,-1],"loss_changes":[1.547353E2,3.741933E2,2.2024745E2,2.1699425E2,9.90874E2,1.2180142E2,2.6280875E2,0E0,0E0,0E0,0E0,0E0,0E0,0E0,0E0],"parents":[2147483647,0,0,1,1,2,2,3,3,4,4,5,5,6,6],"right_children":[2,4,6,8,10,12,14,-1,-1,-1,-1,-1,-1,-1,-1],"split_conditions":[1.3837205E0,2.083703E0,-3.032683E-2,1.3900129E0,-3.032683E-2,-5.5934113E-1,2.7370293E0,-2.2354001E-2,6.360577E-2,9.4174373E-1,-1.216908E-2,-3.294533E-1,-8.582623E-2,-2.7982133E-2,1.8119097E-1],"split_indices":[113,62,0,120,0,1,76,0,0,0,0,0,0,0,0],"split_type":[0,0,0,0,0,0,0,0,0,0,0,0,0,0,0],"sum_hessian":[1.284E3,8.34E2,4.5E2,8.02E2,3.2E1,1.88E2,2.62E2,5.11E2,2.91E2,1E1,2.2E1,1.4E1,1.74E2,2.16E2,4.6E1],"tree_param":{"num_deleted":"0","num_feature":"174","num_nodes":"15","size_leaf_vector":"1"}},{"base_weights":[-7.748109E-3,-1.8266484E0,9.396367E-2,-3.1322844E-2,-2.4665983E0,-1.752268E-1,6.6410476E-1,-2.948963E-1,-8.358906E-2,-3.8677197E-2,8.911292E-2,-6.5950036E-2,1.24587804E-1],