{"learner":{"attributes":{"scikit_learn":"{\"_estimator_type\": \"regressor\"}"},"feature_names":[],"feature_types":[],"gradient_booster":{"model":{"gbtree_model_param":{"num_parallel_tree":"1","num_trees":"1200"},"iteration_indptr":[0,1,2,3,4,5,6,7,8,9,10,11,12,13,14,15,16,17,18,19,20,21,22,23,24,25,26,27,28,29,30,31,32,33,34,35,36,37,38,39,40,41,42,43,44,45,46,47,48,49,50,51,52,53,54,55,56,57,58,59,60,61,62,63,64,65,66,67,68,69,70,71,72,73,74,75,76,77,78,79,80,81,82,83,84,85,86,87,88,89,90,91,92,93,94,95,96,97,98,99,100,101,102,103,104,105,106,107,108,109,110,111,112,113,114,115,116,117,118,119,120,121,122,123,124,125,126,127,128,129,130,131,132,133,134,135,136,137,138,139,140,141,142,143,144,145,146,147,148,149,150,151,152,153,154,155,156,157,158,159,160,161,162,163,164,165,166,167,168,169,170,171,172,173,174,175,176,177,178,179,180,181,182,183,184,185,186,187,188,189,190,191,192,193,194,195,196,197,198,199,200,201,202,203,204,205,206,207,208,209,210,211,212,213,214,215,216,217,218,219,220,221,222,223,224,225,226,227,228,229,230,231,232,233,234,235,236,237,238,239,240,241,242,243,244,245,246,247,248,249,250,251,252,253,254,255,256,257,258,259,260,261,262,263,264,265,266,267,268,269,270,271,272,273,274,275,276,277,278,279,280,281,282,283,284,285,286,287,288,289,290,291,292,293,294,295,296,297,298,299,300,301,302,303,304,305,306,307,308,309,310,311,312,313,314,315,316,317,318,319,320,321,322,323,324,325,326,327,328,329,330,331,332,333,334,335,336,337,338,339,340,341,342,343,344,345,346,347,348,349,350,351,352,353,354,355,356,357,358,359,360,361,362,363,364,365,366,367,368,369,370,371,372,373,374,375,376,377,378,379,380,381,382,383,384,385,386,387,388,389,390,391,392,393,394,395,396,397,398,399,400,401,402,403,404,405,406,407,408,409,410,411,412,413,414,415,416,417,418,419,420,421,422,423,424,425,426,427,428,429,430,431,432,433,434,435,436,437,438,439,440,441,442,443,444,445,446,447,448,449,450,451,452,453,454,455,456,457,458,459,460,461,462,463,464,465,466,467,468,469,470,471,472,473,474,475,476,477,478,479,480,481,482,483,484,485,486,487,488,489,490,491,492,493,494,495,496,497,498,499,500,501,502,503,504,505,506,507,508,509,510,511,512,513,514,515,516,517,518,519,520,521,522,523,524,525,526,527,528,529,530,531,532,533,534,535,536,537,538,539,540,541,542,543,544,545,546,547,548,549,550,551,552,553,554,555,556,557,558,559,560,561,562,563,564,565,566,567,568,569,570,571,572,573,574,575,576,577,578,579,580,581,582,583,584,585,586,587,588,589,590,591,592,593,594,595,596,597,598,599,600,601,602,603,604,605,606,607,608,609,610,611,612,613,614,615,616,617,618,619,620,621,622,623,624,625,626,627,628,629,630,631,632,633,634,635,636,637,638,639,640,641,642,643,644,645,646,647,648,649,650,651,652,653,654,655,656,657,658,659,660,661,662,663,664,665,666,667,668,669,670,671,672,673,674,675,676,677,678,679,680,681,682,683,684,685,686,687,688,689,690,691,692,693,694,695,696,697,698,699,700,701,702,703,704,705,706,707,708,709,710,711,712,713,714,715,716,717,718,719,720,721,722,723,724,725,726,727,728,729,730,731,732,733,734,735,736,737,738,739,740,741,742,743,744,745,746,747,748,749,750,751,752,753,754,755,756,757,758,759,760,761,762,763,764,765,766,767,768,769,770,771,772,773,774,775,776,777,778,779,780,781,782,783,784,785,786,787,788,789,790,791,792,793,794,795,796,797,798,799,800,801,802,803,804,805,806,807,808,809,810,811,812,813,814,815,816,817,818,819,820,821,822,823,824,825,826,827,828,829,830,831,832,833,834,835,836,837,838,839,840,841,842,843,844,845,846,847,848,849,850,851,852,853,854,855,856,857,858,859,860,861,862,863,864,865,866,867,868,869,870,871,872,873,874,875,876,877,878,879,880,881,882,883,884,885,886,887,888,889,890,891,892,893,894,895,896,897,898,899,900,901,902,903,904,905,906,907,908,909,910,911,912,913,914,915,916,917,918,919,920,921,922,923,924,925,926,927,928,929,930,931,932,933,934,935,936,937,938,939,940,941,942,943,944,945,946,947,948,949,950,951,952,953,954,955,956,957,958,959,960,961,962,963,964,965,966,967,968,969,970,971,972,973,974,975,976,977,978,979,980,981,982,983,984,985,986,987,988,989,990,991,992,993,994,995,996,997,998,999,1000,1001,1002,1003,1004,1005,1006,1007,1008,1009,1010,1011,1012,1013,1014,1015,1016,1017,1018,1019,1020,1021,1022,1023,1024,1025,1026,1027,1028,1029,1030,1031,1032,1033,1034,1035,1036,1037,1038,1039,1040,1041,1042,1043,1044,1045,1046,1047,1048,1049,1050,1051,1052,1053,1054,1055,1056,1057,1058,1059,1060,1061,1062,1063,1064,1065,1066,1067,1068,1069,1070,1071,1072,1073,1074,1075,1076,1077,1078,1079,1080,1081,1082,1083,1084,1085,1086,1087,1088,1089,1090,1091,1092,1093,1094,1095,1096,1097,1098,1099,1100,1101,1102,1103,1104,1105,1106,1107,1108,1109,1110,1111,1112,1113,1114,1115,1116,1117,1118,1119,1120,1121,1122,1123,1124,1125,1126,1127,1128,1129,1130,1131,1132,1133,1134,1135,1136,1137,1138,1139,1140,1141,1142,1143,1144,1145,1146,1147,1148,1149,1150,1151,1152,1153,1154,1155,1156,1157,1158,1159,1160,1161,1162,1163,1164,1165,1166,1167,1168,1169,1170,1171,1172,1173,1174,1175,1176,1177,1178,1179,1180,1181,1182,1183,1184,1185,1186,1187,1188,1189,1190,1191,1192,1193,1194,1195,1196,1197,1198,1199,1200],"tree_info":[0,0,0,0,0,0,0,0,0,0,0,0,0,0,0,0,0,0,0,0,0,0,0,0,0,0,0,0,0,0,0,0,0,0,0,0,0,0,0,0,0,0,0,0,0,0,0,0,0,0,0,0,0,0,0,0,0,0,0,0,0,0,0,0,0,0,0,0,0,0,0,0,0,0,0,0,0,0,0,0,0,0,0,0,0,0,0,0,0,0,0,0,0,0,0,0,0,0,0,0,0,0,0,0,0,0,0,0,0,0,0,0,0,0,0,0,0,0,0,0,0,0,0,0,0,0,0,0,0,0,0,0,0,0,0,0,0,0,0,0,0,0,0,0,0,0,0,0,0,0,0,0,0,0,0,0,0,0,0,0,0,0,0,0,0,0,0,0,0,0,0,0,0,0,0,0,0,0,0,0,0,0,0,0,0,0,0,0,0,0,0,0,0,0,0,0,0,0,0,0,0,0,0,0,0,0,0,0,0,0,0,0,0,0,0,0,0,0,0,0,0,0,0,0,0,0,0,0,0,0,0,0,0,0,0,0,0,0,0,0,0,0,0,0,0,0,0,0,0,0,0,0,0,0,0,0,0,0,0,0,0,0,0,0,0,0,0,0,0,0,0,0,0,0,0,0,0,0,0,0,0,0,0,0,0,0,0,0,0,0,0,0,0,0,0,0,0,0,0,0,0,0,0,0,0,0,0,0,0,0,0,0,0,0,0,0,0,0,0,0,0,0,0,0,0,0,0,0,0,0,0,0,0,0,0,0,0,0,0,0,0,0,0,0,0,0,0,0,0,0,0,0,0,0,0,0,0,0,0,0,0,0,0,0,0,0,0,0,0,0,0,0,0,0,0,0,0,0,0,0,0,0,0,0,0,0,0,0,0,0,0,0,0,0,0,0,0,0,0,0,0,0,0,0,0,0,0,0,0,0,0,0,0,0,0,0,0,0,0,0,0,0,0,0,0,0,0,0,0,0,0,0,0,0,0,0,0,0,0,0,0,0,0,0,0,0,0,0,0,0,0,0,0,0,0,0,0,0,0,0,0,0,0,0,0,0,0,0,0,0,0,0,0,0,0,0,0,0,0,0,0,0,0,0,0,0,0,0,0,0,0,0,0,0,0,0,0,0,0,0,0,0,0,0,0,0,0,0,0,0,0,0,0,0,0,0,0,0,0,0,0,0,0,0,0,0,0,0,0,0,0,0,0,0,0,0,0,0,0,0,0,0,0,0,0,0,0,0,0,0,0,0,0,0,0,0,0,0,0,0,0,0,0,0,0,0,0,0,0,0,0,0,0,0,0,0,0,0,0,0,0,0,0,0,0,0,0,0,0,0,0,0,0,0,0,0,0,0,0,0,0,0,0,0,0,0,0,0,0,0,0,0,0,0,0,0,0,0,0,0,0,0,0,0,0,0,0,0,0,0,0,0,0,0,0,0,0,0,0,0,0,0,0,0,0,0,0,0,0,0,0,0,0,0,0,0,0,0,0,0,0,0,0,0,0,0,0,0,0,0,0,0,0,0,0,0,0,0,0,0,0,0,0,0,0,0,0,0,0,0,0,0,0,0,0,0,0,0,0,0,0,0,0,0,0,0,0,0,0,0,0,0,0,0,0,0,0,0,0,0,0,0,0,0,0,0,0,0,0,0,0,0,0,0,0,0,0,0,0,0,0,0,0,0,0,0,0,0,0,0,0,0,0,0,0,0,0,0,0,0,0,0,0,0,0,0,0,0,0,0,0,0,0,0,0,0,0,0,0,0,0,0,0,0,0,0,0,0,0,0,0,0,0,0,0,0,0,0,0,0,0,0,0,0,0,0,0,0,0,0,0,0,0,0,0,0,0,0,0,0,0,0,0,0,0,0,0,0,0,0,0,0,0,0,0,0,0,0,0,0,0,0,0,0,0,0,0,0,0,0,0,0,0,0,0,0,0,0,0,0,0,0,0,0,0,0,0,0,0,0,0,0,0,0,0,0,0,0,0,0,0,0,0,0,0,0,0,0,0,0,0,0,0,0,0,0,0,0,0,0,0,0,0,0,0,0,0,0,0,0,0,0,0,0,0,0,0,0,0,0,0,0,0,0,0,0,0,0,0,0,0,0,0,0,0,0,0,0,0,0,0,0,0,0,0,0,0,0,0,0,0,0,0,0,0,0,0,0,0,0,0,0,0,0,0,0,0,0,0,0,0,0,0,0,0,0,0,0,0,0,0,0,0,0,0,0,0,0,0,0,0,0,0,0,0,0,0,0,0,0,0,0,0,0,0,0,0,0,0,0,0,0,0,0,0,0,0,0,0,0,0,0,0,0,0,0,0,0,0,0,0,0,0,0,0,0,0,0,0,0,0,0,0,0,0,0,0,0,0,0,0,0,0,0,0,0,0,0,0,0,0,0,0,0,0,0,0,0,0,0,0,0,0,0,0,0,0,0,0,0,0,0,0,0,0,0,0,0,0,0,0,0,0,0,0,0,0,0,0,0,0,0,0,0,0,0,0,0,0,0,0,0,0,0,0,0,0,0,0,0,0,0,0,0,0,0,0,0,0,0,0,0,0,0,0,0,0,0,0,0,0,0,0,0,0,0,0,0,0,0,0,0,0,0,0,0,0,0,0,0,0,0,0,0,0,0,0,0,0,0,0,0,0,0,0,0,0,0,0,0,0,0,0,0,0,0,0,0,0,0,0,0,0,0,0,0,0,0,0,0],"trees":[{"base_weights":[1.1070971E-1,8.309071E0,-1.7915939E0,3.033148E1,7.095235E0,6.0560746E0,-2.0065262E0,9.150419E0,8.467919E0,4.008098E0,1.3933827E1,-2.5493054E0,5.1501155E0,1.7179899E0,8.8729435E-1,5.000927E-1,4.5770636E0,-2.7875248E-1,2.4945319E0,1.3068315E-1,-4.6022105E-1,5.114428E-1,2.7860413E0],"categories":[],"categories_nodes":[],"categories_segments":[],"categories_sizes":[],"default_left":[0,0,0,0,0,0,0,0,0,0,0,0,0,0,0,0,0,0,0,0,0,0,0],"id":0,"left_children":[1,3,5,7,9,-1,11,-1,13,15,17,19,21,-1,-1,-1,-1,-1,-1,-1,-1,-1,-1],"loss_changes":[2.2192785E4,7.1640586E3,1.0217696E4,8.922915E3,5.3623623E3,0E0,4.463263E3,0E0,5.8317505E1,3.411598E3,2.8386514E3,1.6058335E3,1.9163894E3,0E0,0E0,0E0,0E0,0E0,0E0,0E0,0E0,0E0,0E0],"parents":[2147483647,0,0,1,1,2,2,3,3,4,4,6,6,8,8,9,9,10,10,11,11,12,12],"right_children":[2,4,6,8,10,-1,12,-1,14,16,18,20,22,-1,-1,-1,-1,-1,-1,-1,-1,-1,-1],"split_conditions":[-4.105014E-1,-3.9238825E-2,-7.89032E-1,1.5909903E0,1.6575431E0,6.0560746E0,3.6417215E0,9.150419E0,1.0610864E0,3.6417215E0,4.691478E-1,-1.1833737E-1,-1.9627805E-1,1.7179899E0,8.8729435E-1,5.000927E-1,4.5770636E0,-2.7875248E-1,2.4945319E0,1.3068315E-1,-4.6022105E-1,5.114428E-1,2.7860413E0],"split_indices":[1,190,174,109,64,0,63,0,156,63,2,1,174,0,0,0,0,0,0,0,0,0,0],"split_type":[0,0,0,0,0,0,0,0,0,0,0,0,0,0,0,0,0,0,0,0,0,0,0],"sum_hessian":[1.423E3,2.68E2,1.155E3,1.4E1,2.54E2,6E0,1.149E3,6E0,8E0,1.75E2,7.9E1,1.068E3,8.1E1,4E0,4E0,1.7E2,5E0,1E1,6.9E1,1.23E2,9.45E2,7.1E1,1E1],"tree_param":{"num_deleted":"0","num_feature":"608","num_nodes":"23","size_leaf_vector":"1"}},{"base_weights":[-1.4788565E-2,6.734861E0,-1.5844747E0,2.807612E1,5.65534E0,5.3967333E0,-1.7430661E0,9.465861E0,7.16528E0,2.84293E0,1.1346333E1,-3.1546943E0,8.351397E-1,1.4099184E0,7.945884E-1,2.652976E-1,2.955358E0,-3.708788E-1,2.1989384E0,-5.81922E-1,-1.6227427E-1,1.6008517E0,-2.2337696E-2],"categories":[],"categories_nodes":[],"categories_segments":[],"categories_sizes":[],"default_left":[0,0,0,0,0,0,0,0,0,0,0,0,0,0,0,0,0,0,0,0,0,0,0],"id":1,"left_children":[1,3,5,7,9,-1,11,-1,13,15,17,19,21,-1,-1,-1,-1,-1,-1,-1,-1,-1,-1],"loss_changes":[1.5161204E4,6.2203447E3,6.7511562E3,9.095039E3,4.1133867E3,0E0,4.2072256E3,0E0,3.1998047E1,3.148584E3,3.4472744E3,9.8524854E2,3.837721E3,0E0,0E0,0E0,0E0,0E0,0E0,0E0,0E0,0E0,0E0],"parents":[2147483647,0,0,1,1,2,2,3,3,4,4,6,6,8,8,9,9,10,10,11,11,12,12],"right_children":[2,4,6,8,10,-1,12,-1,14,16,18,20,22,-1,-1,-1,-1,-1,-1,-1,-1,-1,-1],"split_conditions":[-4.105014E-1,-3.9238825E-2,-7.89032E-1,1.5909903E0,1.3630762E0,5.3967333E0,1.3630762E0,9.465861E0,4.3730183E0,4.5390463E0,-5.794272E-1,1.7328372E0,6.2222E-1,1.4099184E0,7.945884E-1,2.652976E-1,2.955358E0,-3.708788E-1,2.1989384E0,-5.81922E-1,-1.6227427E-1,1.6008517E0,-2.2337696E-2],"split_indices":[1,190,174,109,147,0,147,0,43,59,0,99,164,0,0,0,0,0,0,0,0,0,0],"split_type":[0,0,0,0,0,0,0,0,0,0,0,0,0,0,0,0,0,0,0,0,0,0,0],"sum_hessian":[1.431E3,2.7E2,1.161E3,1.3E1,2.57E2,5E0,1.156E3,5E0,8E0,1.72E2,8.5E1,7.47E2,4.09E2,4E0,4E0,1.61E2,1.1E1,1.5E1,7E1,5.75E2,1.72E2,3.8E1,3.71E2],"tree_param":{"num_deleted":"0","num_feature":"608","num_nodes":"23","size_leaf_vector":"1"}},{"base_weights":[-3.906627E-2,6.1143885E0,-2.3602699E-1,-1.6462705E0,2.3659716E0,-2.5728762E0,1.12146E0,4.3528274E-2,7.2576165E0,-2.532288E-1,-7.7979803E-1,-1.456551E-1,1.1160643E0,1.4604597E-1,-1.277011E0,1.8211449E0,5.3990185E-1],"categories":[],"categories_nodes":[],"categories_segments":[],"categories_sizes":[],"default_left":[0,0,0,0,0,0,0,0,0,0,0,0,0,0,0,0,0],"id":2,"left_children":[1,-1,3,5,7,9,11,13,15,-1,-1,-1,-1,-1,-1,-1,-1],"loss_changes":[1.1135343E4,0E0,5.188605E3,2.3517336E3,5.646202E3,1.5892988E3,2.917796E3,2.5474343E3,2.746999E3,0E0,0E0,0E0,0E0,0E0,0E0,0E0,0E0],"parents":[2147483647,0,0,2,2,3,3,4,4,5,5,6,6,7,7,8,8],"right_children":[2,-1,4,6,8,10,12,14,16,-1,-1,-1,-1,-1,-1,-1,-1],"split_conditions":[-7.89032E-1,6.1143885E0,1.3630762E0,1.5963424E0,2.0119915E0,1.640413E0,1.3900129E0,4.421992E0,1.0452715E0,-2.532288E-1,-7.7979803E-1,-1.456551E-1,1.1160643E0,1.4604597E-1,-1.277011E0,1.8211449E0,5.3990185E-1],"split_indices":[174,0,147,82,58,136,120,174,133,0,0,0,0,0,0,0,0],"split_type":[0,0,0,0,0,0,0,0,0,0,0,0,0,0,0,0,0],"sum_hessian":[1.421E3,7E0,1.414E3,9.17E2,4.97E2,6.87E2,2.3E2,3.37E2,1.6E2,5.01E2,1.86E2,1.72E2,5.8E1,3.04E2,3.3E1,7.2E1,8.8E1],"tree_param":{"num_deleted":"0","num_feature":"608","num_nodes":"17","size_leaf_vector":"1"}},{"base_weights":[2.5144342E-2,4.116944E0,-1.6236695E0,3.84122E0,4.0604773E0,3.3536656E0,-1.7629623E0,2.052557E0,7.485788E0,-2.054353E0,2.9289212E0,1.9394686E-2,1.2362518E0,1.4041E0,-4.6187624E-1,-5.425943E-1,-1.838634E-1,3.4687325E-2,1.2031043E0],"categories":[],"categories_nodes":[],"categories_segments":[],"categories_sizes":[],"default_left":[0,0,0,0,0,0,0,0,0,0,0,0,0,0,0,0,0,0,0],"id":3,"left_children":[1,3,5,7,-1,-1,9,11,13,15,17,-1,-1,-1,-1,-1,-1,-1,-1],"loss_changes":[9.607182E3,2.512357E3,3.3117878E3,2.6336357E3,0E0,0E0,1.3794761E3,3.1239805E3,2.28998E3,1.2020808E3,7.8027405E2,0E0,0E0,0E0,0E0,0E0,0E0,0E0,0E0],"parents":[2147483647,0,0,1,1,2,2,3,3,6,6,7,7,8,8,9,9,10,10],"right_children":[2,4,6,8,-1,-1,10,12,14,16,18,-1,-1,-1,-1,-1,-1,-1,-1],"split_conditions":[1.7382665E-1,7.7604145E-1,-7.89032E-1,1.3795514E0,4.0604773E0,3.3536656E0,3.6417215E0,1.4786991E0,1.9455118E0,7.259663E-1,2.0076907E0,1.9394686E-2,1.2362518E0,1.4041E0,-4.6187624E-1,-5.425943E-1,-1.838634E-1,3.4687325E-2,1.2031043E0],"split_indices":[1,418,174,131,0,0,63,105,81,161,71,0,0,0,0,0,0,0,0],"split_type":[0,0,0,0,0,0,0,0,0,0,0,0,0,0,0,0,0,0,0],"sum_hessian":[1.424E3,4.09E2,1.015E3,4.04E2,5E0,6E0,1.009E3,2.71E2,1.33E2,9.5E2,5.9E1,2.05E2,6.6E1,1.15E2,1.8E1,3.5E2,6E2,3.8E1,2.1E1],"tree_param":{"num_deleted":"0","num_feature":"608","num_nodes":"19","size_leaf_vector":"1"}},{"base_weights":[-4.77193E-3,3.5817358E0,-1.414882E0,1.7080848E0,8.635435E0,2.8377626E0,-1.5318316E0,4.033743E0,1.3699664E0,7.3834953E0,6.38387E0,-9.8858786E-1,-3.5997448E0,1.7024826E-1,3.1063304E0,1.7752897E0,5.762942E-1,-2.7729863E-1,1.0403513E-1,-6.1065364E-1,-2.0860292E-1],"categories":[],"categories_nodes":[],"categories_segments":[],"categories_sizes":[],"default_left":[0,0,0,0,0,0,0,0,0,0,0,0,0,0,0,0,0,0,0,0,0],"id":4,"left_children":[1,3,5,7,9,-1,11,-1,13,15,-1,17,19,-1,-1,-1,-1,-1,-1,-1,-1],"loss_changes":[7.221925E3,3.8159531E3,2.3809155E3,2.4368044E3,4.48456E3,0E0,1.1447246E3,0E0,1.4370322E3,1.58756E3,0E0,1.0936614E3,1.759209E2,0E0,0E0,0E0,0E0,0E0,0E0,0E0,0E0],"parents":[2147483647,0,0,1,1,2,2,3,3,4,4,6,6,8,8,9,9,11,11,12,12],"right_children":[2,4,6,8,10,-1,12,-1,14,16,-1,18,20,-1,-1,-1,-1,-1,-1,-1,-1],"split_conditions":[1.7382665E-1,1.6575431E0,-7.89032E-1,-3.4179573E0,2.6344905E0,2.8377626E0,1.9455118E0,4.033743E0,1.3513882E1,8.15802E-1,6.38387E0,1.3630762E0,2.30909E0,1.7024826E-1,3.1063304E0,1.7752897E0,5.762942E-1,-2.7729863E-1,1.0403513E-1,-6.1065364E-1,-2.0860292E-1],"split_indices":[1,64,174,181,122,0,81,0,44,157,0,147,40,0,0,0,0,0,0,0,0],"split_type":[0,0,0,0,0,0,0,0,0,0,0,0,0,0,0,0,0,0,0,0,0],"sum_hessian":[1.428E3,4.03E2,1.025E3,2.94E2,1.09E2,6E0,1.019E3,4E0,2.9E2,1.05E2,4E0,8.07E2,2.12E2,2.86E2,4E0,4.9E1,5.6E1,5.42E2,2.65E2,1.82E2,3E1],"tree_param":{"num_deleted":"0","num_feature":"608","num_nodes":"21","size_leaf_vector":"1"}},{"base_weights":[1.7834503E-2,5.2402186E0,-7.859329E-1,-4.1721287E0,6.465495E0,2.4467703E1,-9.497849E-1,2.6742988E0,-8.911966E0,4.4848404E0,1.5642521E1,2.2781525E0,5.249714E0,-3.2267475E-1,-3.2966235E0,9.2559737E-1,-2.3135471E-1,-1.0387596E0,-1.7585112E0,1.7320552E-1,1.5544138E0,1.7158079E0,6.8947496E0,-1.0901507E-1,6.5116686E-1,-5.535372E-1,-1.6431245E-1],"categories":[],"categories_nodes":[],"categories_segments":[],"categories_sizes":[],"default_left":[0,0,0,0,0,0,0,0,0,0,0,0,0,0,0,0,0,0,0,0,0,0,0,0,0,0,0],"id":5,"left_children":[1,3,5,7,9,11,13,15,17,19,21,-1,-1,23,25,-1,-1,-1,-1,-1,-1,-1,-1,-1,-1,-1,-1],"loss_changes":[6.010938E3,2.2027524E3,5.135081E3,7.1392224E2,3.0718296E3,7.462676E2,1.8146385E3,1.2569596E2,7.0722534E1,2.6237754E3,3.929122E3,0E0,0E0,1.7109175E3,1.7479272E2,0E0,0E0,0E0,0E0,0E0,0E0,0E0,0E0,0E0,0E0,0E0,0E0],"parents":[2147483647,0,0,1,1,2,2,3,3,4,4,5,5,6,6,7,7,8,8,9,9,10,10,13,13,14,14],"right_children":[2,4,6,8,10,12,14,16,18,20,22,-1,-1,24,26,-1,-1,-1,-1,-1,-1,-1,-1,-1,-1,-1,-1],"split_conditions":[-9.948294E-1,-3.455655E-1,-7.89032E-1,1.3409307E0,1.4786991E0,1.3900129E0,1.9455118E0,1.5963424E0,1.5673132E0,1.3630762E0,2.4350042E0,2.2781525E0,5.249714E0,3.6417215E0,2.30909E0,9.2559737E-1,-2.3135471E-1,-1.0387596E0,-1.7585112E0,1.7320552E-1,1.5544138E0,1.7158079E0,6.8947496E0,-1.0901507E-1,6.5116686E-1,-5.535372E-1,-1.6431245E-1],"split_indices":[1,0,174,158,105,120,81,82,127,147,146,0,0,63,40,0,0,0,0,0,0,0,0,0,0,0,0],"split_type":[0,0,0,0,0,0,0,0,0,0,0,0,0,0,0,0,0,0,0,0,0,0,0,0,0,0,0],"sum_hessian":[1.432E3,1.91E2,1.241E3,2.2E1,1.69E2,8E0,1.233E3,9E0,1.3E1,1.39E2,3E1,4E0,4E0,9.73E2,2.6E2,5E0,4E0,7E0,6E0,8.7E1,5.2E1,2.6E1,4E0,8.97E2,7.6E1,2.29E2,3.1E1],"tree_param":{"num_deleted":"0","num_feature":"608","num_nodes":"27","size_leaf_vector":"1"}},{"base_weights":[-1.4193759E-2,3.6183708E0,-8.519971E-1,1.5405301E1,2.9686964E0,2.1412444E0,-1.1744341E0,6.0604544E0,2.0769155E0,5.2179666E0,-2.7544323E-1,7.468116E0,-1.6521331E0,-1.4808095E0,1.9749728E0,-1.0513172E0,2.033018E0,-2.9828593E-1,1.1132292E0,-3.0722588E-1,5.5354786E-1,9.193202E-1,2.717241E0,-8.136648E-1,2.1210721E-1,-2.5219297E-1,6.448108E-1,1.6256746E0,1.4455566E-1],"categories":[],"categories_nodes":[],"categories_segments":[],"categories_sizes":[],"default_left":[0,0,0,0,0,0,0,0,0,0,0,0,0,0,0,0,0,0,0,0,0,0,0,0,0,0,0,0,0],"id":6,"left_children":[1,3,5,7,9,11,13,-1,15,17,19,21,23,25,27,-1,-1,-1,-1,-1,-1,-1,-1,-1,-1,-1,-1,-1,-1],"loss_changes":[4.352026E3,2.052253E3,1.1214832E3,4.476659E3,1.8534253E3,2.283373E3,1.01218115E3,0E0,8.93332E2,2.1671074E3,6.9363025E2,7.149553E2,7.275829E2,8.5997925E2,8.273249E2,0E0,0E0,0E0,0E0,0E0,0E0,0E0,0E0,0E0,0E0,0E0,0E0,0E0,0E0],"parents":[2147483647,0,0,1,1,2,2,3,3,4,4,5,5,6,6,8,8,9,9,10,10,11,11,12,12,13,13,14,14],"right_children":[2,4,6,8,10,12,14,-1,16,18,20,22,24,26,28,-1,-1,-1,-1,-1,-1,-1,-1,-1,-1,-1,-1,-1,-1],"split_conditions":[-4.105014E-1,-3.9238825E-2,-3.9238825E-2,9.724687E-1,8.4972745E-1,4.166503E-1,3.093274E0,6.0604544E0,1.4579204E0,-3.455655E-1,1.637591E0,2.4019961E0,1.0890417E0,5.901633E0,1.5909903E0,-1.0513172E0,2.033018E0,-2.9828593E-1,1.1132292E0,-3.0722588E-1,5.5354786E-1,9.193202E-1,2.717241E0,-8.136648E-1,2.1210721E-1,-2.5219297E-1,6.448108E-1,1.6256746E0,1.4455566E-1],"split_indices":[1,190,190,143,0,0,77,0,100,0,83,79,103,5,109,0,0,0,0,0,0,0,0,0,0,0,0,0,0],"split_type":[0,0,0,0,0,0,0,0,0,0,0,0,0,0,0,0,0,0,0,0,0,0,0,0,0,0,0,0,0],"sum_hessian":[1.43E3,2.68E2,1.162E3,1.4E1,2.54E2,1.13E2,1.049E3,5E0,9E0,1.5E2,1.04E2,4.7E1,6.6E1,9.56E2,9.3E1,5E0,4E0,3.3E1,1.17E2,7.2E1,3.2E1,4.1E1,6E0,3E1,3.6E1,9.3E2,2.6E1,1E1,8.3E1],"tree_param":{"num_deleted":"0","num_feature":"608","num_nodes":"29","size_leaf_vector":"1"}},{"base_weights":[-9.828516E-3,3.5881248E0,-5.5822635E-1,3.1081278E0,3.2692497E0,1.8499176E1,-6.8197596E-1,5.274978E0,-1.8667145E-1,1.7862773E0,3.9052794E0,-1.3052366E0,5.0574684E-1,-5.000155E-1,1.1174786E0,9.886482E-1,-1.7178349E-1,-7.982181E-2,-3.843112E-1,1.7379487E-1,-8.972987E-1],"categories":[],"categories_nodes":[],"categories_segments":[],"categories_sizes":[],"default_left":[0,0,0,0,0,0,0,0,0,0,0,0,0,0,0,0,0,0,0,0,0],"id":7,"left_children":[1,3,5,7,-1,9,11,13,15,-1,-1,17,19,-1,-1,-1,-1,-1,-1,-1,-1],"loss_changes":[2.8195737E3,1.6024475E3,2.9243494E3,1.3136387E3,0E0,3.7947754E2,9.120015E2,1.8824575E3,4.4899353E2,0E0,0E0,7.579968E2,1.6771063E3,0E0,0E0,0E0,0E0,0E0,0E0,0E0,0E0],"parents":[2147483647,0,0,1,1,2,2,3,3,5,5,6,6,7,7,8,8,11,11,12,12],"right_children":[2,4,6,8,-1,10,12,14,16,-1,-1,18,20,-1,-1,-1,-1,-1,-1,-1,-1],"split_conditions":[-9.948294E-1,5.9770393E0,-7.89032E-1,8.4972745E-1,3.2692497E0,1.4579204E0,1.3630762E0,-3.455655E-1,-1.5791575E0,1.7862773E0,3.9052794E0,1.0610864E0,7.581547E-1,-5.000155E-1,1.1174786E0,9.886482E-1,-1.7178349E-1,-7.982181E-2,-3.843112E-1,1.7379487E-1,-8.972987E-1],"split_indices":[1,89,174,0,0,100,147,0,1,0,0,156,1,0,0,0,0,0,0,0,0],"split_type":[0,0,0,0,0,0,0,0,0,0,0,0,0,0,0,0,0,0,0,0,0],"sum_hessian":[1.429E3,1.89E2,1.24E3,1.84E2,5E0,8E0,1.232E3,1.11E2,7.3E1,4E0,4E0,8.08E2,4.24E2,2.1E1,9E1,9E0,6.4E1,4.87E2,3.21E2,3.86E2,3.8E1],"tree_param":{"num_deleted":"0","num_feature":"608","num_nodes":"21","size_leaf_vector":"1"}},{"base_weights":[-4.208389E-3,2.1079793E0,-8.408409E-1,9.8930454E-1,5.044499E0,-2.5443336E-1,-2.0222793E0,2.099524E0,-2.5633967E0,3.0835104E0,1.8771397E1,-5.9421974E-1,3.15987E0,-2.6816998E0,2.3002625E-1,5.299242E-1,-4.3583268E-1,-5.4438317E-1,1.5584023E-1,2.1382564E-1,1.5575597E0,4.168595E0,1.1797429E0,6.44611E-1,-1.2604699E-1,2.2308454E-1,1.8537301E0,-6.382957E-1,-2.0489915E-1,-2.6382786E-1,1.0914334E0],"categories":[],"categories_nodes":[],"categories_segments":[],"categories_sizes":[],"default_left":[0,0,0,0,0,0,0,0,0,0,0,0,0,0,0,0,0,0,0,0,0,0,0,0,0,0,0,0,0,0,0],"id":8,"left_children":[1,3,5,7,9,11,13,15,17,19,21,23,25,27,29,-1,-1,-1,-1,-1,-1,-1,-1,-1,-1,-1,-1,-1,-1,-1,-1],"loss_changes":[2.5287554E3,1.333714E3,7.1012415E2,1.1596179E3,3.0148464E3,7.9469147E2,5.04974E2,1.4864226E3,2.4419153E2,1.1686432E3,1.2942573E3,6.711371E2,9.4239215E2,5.209625E2,1.0281499E3,0E0,0E0,0E0,0E0,0E0,0E0,0E0,0E0,0E0,0E0,0E0,0E0,0E0,0E0,0E0,0E0],"parents":[2147483647,0,0,1,1,2,2,3,3,4,4,5,5,6,6,7,7,8,8,9,9,10,10,11,11,12,12,13,13,14,14],"right_children":[2,4,6,8,10,12,14,16,18,20,22,24,26,28,30,-1,-1,-1,-1,-1,-1,-1,-1,-1,-1,-1,-1,-1,-1,-1,-1],"split_conditions":[1.7382665E-1,1.6575431E0,1.52926E0,1.9455118E0,-1.9627805E-1,3.093274E0,6.7649657E-1,1.640413E0,1.0013045E0,1.66333E0,1.52926E0,-3.9238825E-2,1.3020802E0,1.0905365E0,1.1866746E0,5.299242E-1,-4.3583268E-1,-5.4438317E-1,1.5584023E-1,2.1382564E-1,1.5575597E0,4.168595E0,1.1797429E0,6.44611E-1,-1.2604699E-1,2.2308454E-1,1.8537301E0,-6.382957E-1,-2.0489915E-1,-2.6382786E-1,1.0914334E0],"split_indices":[1,64,125,81,174,77,0,136,0,92,125,190,139,128,90,0,0,0,0,0,0,0,0,0,0,0,0,0,0,0,0],"split_type":[0,0,0,0,0,0,0,0,0,0,0,0,0,0,0,0,0,0,0,0,0,0,0,0,0,0,0,0,0,0,0],"sum_hessian":[1.431E3,4.06E2,1.025E3,2.94E2,1.12E2,6.85E2,3.4E2,2.24E2,7E1,9.8E1,1.4E1,6.23E2,6.2E1,2.63E2,7.7E1,1.76E2,4.8E1,5.5E1,1.5E1,7.9E1,1.9E1,8E0,6E0,2.8E1,5.95E2,5.2E1,1E1,1.26E2,1.37E2,6E1,1.7E1],"tree_param":{"num_deleted":"0","num_feature":"608","num_nodes":"31","size_leaf_vector":"1"}},{"base_weights":[1.3971469E-2,2.438668E0,-5.3595966E-1,1.4594003E0,7.614793E0,-1.9001682E-1,-2.3784807E0,9.3107617E-1,9.953209E0,4.3002625E0,4.8662276E0,-8.848185E-1,1.546987E0,-4.083477E0,-6.3601077E-1,4.284966E-1,-1.7373216E-1,1.9786402E0,5.242343E-1,1.2129805E0,-9.348386E-1,1.0276132E0,-1.5813541E-1,6.02207E-2,8.6299413E-1,-7.433667E-1,-5.2473474E-1,1.3358552E0,-1.9904181E-1],"categories":[],"categories_nodes":[],"categories_segments":[],"categories_sizes":[],"default_left":[0,0,0,0,0,0,0,0,0,0,0,0,0,0,0,0,0,0,0,0,0,0,0,0,0,0,0,0,0],"id":9,"left_children":[1,3,5,7,9,11,13,15,17,-1,19,21,23,25,27,-1,-1,-1,-1,-1,-1,-1,-1,-1,-1,-1,-1,-1,-1],"loss_changes":[1.9041183E3,1.3381653E3,7.419415E2,9.962206E2,2.3479587E3,1.1827358E3,5.46646E2,7.985559E2,2.4752954E2,0E0,1.222315E3,7.5803375E2,1.3145488E3,4.6825806E1,5.5794196E2,0E0,0E0,0E0,0E0,0E0,0E0,0E0,0E0,0E0,0E0,0E0,0E0,0E0,0E0],"parents":[2147483647,0,0,1,1,2,2,3,3,4,4,5,5,6,6,7,7,8,8,10,10,11,11,12,12,13,13,14,14],"right_children":[2,4,6,8,10,12,14,16,18,-1,20,22,24,26,28,-1,-1,-1,-1,-1,-1,-1,-1,-1,-1,-1,-1,-1,-1],"split_conditions":[-4.105014E-1,2.4019961E0,2.3763542E0,4.5390463E0,4.5613506E-1,1.5830245E0,7.259663E-1,1.0610864E0,1.3001832E0,4.3002625E0,1.3020802E0,4.691478E-1,1.3020802E0,1.3409307E0,4.5613506E-1,4.284966E-1,-1.7373216E-1,1.9786402E0,5.242343E-1,1.2129805E0,-9.348386E-1,1.0276132E0,-1.5813541E-1,6.02207E-2,8.6299413E-1,-7.433667E-1,-5.2473474E-1,1.3358552E0,-1.9904181E-1],"split_indices":[1,79,3,59,132,101,161,156,114,0,139,2,139,158,132,0,0,0,0,0,0,0,0,0,0,0,0,0,0],"split_type":[0,0,0,0,0,0,0,0,0,0,0,0,0,0,0,0,0,0,0,0,0,0,0,0,0,0,0,0,0],"sum_hessian":[1.428E3,2.64E2,1.164E3,2.22E2,4.2E1,9.8E2,1.84E2,2.09E2,1.3E1,5E0,3.7E1,7E2,2.8E2,9.3E1,9.1E1,1.1E2,9.9E1,9E0,4E0,2.9E1,8E0,1.3E1,6.87E2,2.18E2,6.2E1,4.4E1,4.9E1,6E0,8.5E1],"tree_param":{"num_deleted":"0","num_feature":"608","num_nodes":"29","size_leaf_vector":"1"}},{"base_weights":[-3.5715783E-3,1.5048941E1,-8.867433E-2,1.4366536E0,3.1933842E0,2.6486478E0,-5.1323867E-1,-3.5770948E0,3.4639242E0,-8.1543714E-2,-2.1717658E0,2.610361E-1,-1.1119533E0,3.1344002E-1,1.5845968E0,-1.1508395E-1,2.0539421E-1,-7.488435E-1,-3.06089E-1],"categories":[],"categories_nodes":[],"categories_segments":[],"categories_sizes":[],"default_left":[0,0,0,0,0,0,0,0,0,0,0,0,0,0,0,0,0,0,0],"id":10,"left_children":[1,3,5,-1,-1,7,9,11,13,15,17,-1,-1,-1,-1,-1,-1,-1,-1],"loss_changes":[1.8228765E3,2.6081543E2,1.6444694E3,0E0,0E0,9.6438367E2,8.770726E2,4.2364215E2,1.6383333E3,9.178952E2,1.2415759E2,0E0,0E0,0E0,0E0,0E0,0E0,0E0,0E0],"parents":[2147483647,0,0,1,1,2,2,5,5,6,6,7,7,8,8,9,9,10,10],"right_children":[2,4,6,-1,-1,8,10,12,14,16,18,-1,-1,-1,-1,-1,-1,-1,-1],"split_conditions":[-7.89032E-1,1.4579204E0,-9.948294E-1,1.4366536E0,3.1933842E0,-3.455655E-1,1.9455118E0,1.3409307E0,1.4786991E0,1.4647902E0,-5.565834E-1,2.610361E-1,-1.1119533E0,3.1344002E-1,1.5845968E0,-1.1508395E-1,2.0539421E-1,-7.488435E-1,-3.06089E-1],"split_indices":[174,100,1,0,0,0,81,158,105,117,1,0,0,0,0,0,0,0,0],"split_type":[0,0,0,0,0,0,0,0,0,0,0,0,0,0,0,0,0,0,0],"sum_hessian":[1.423E3,8E0,1.415E3,4E0,4E0,1.9E2,1.225E3,2.2E1,1.68E2,9.72E2,2.53E2,9E0,1.3E1,1.39E2,2.9E1,6.61E2,3.11E2,1.6E1,2.37E2],"tree_param":{"num_deleted":"0","num_feature":"608","num_nodes":"19","size_leaf_vector":"1"}},{"base_weights":[-1.8088982E-2,1.2733926E1,-8.988094E-2,1.2156498E0,2.7021377E0,-2.4978192E0,2.593768E-1,-3.548417E0,-6.390677E-1,-2.8449547E-1,3.159104E0,-4.4300744E-1,-8.2457095E-1,-2.0939434E-1,9.94018E-1,1.0884365E0,-6.3608676E-2,-1.9942402E0,5.7783467E-1],"categories":[],"categories_nodes":[],"categories_segments":[],"categories_sizes":[],"default_left":[0,0,0,0,0,0,0,0,0,0,0,0,0,0,0,0,0,0,0],"id":11,"left_children":[1,3,5,-1,-1,7,9,11,13,15,17,-1,-1,-1,-1,-1,-1,-1,-1],"loss_changes":[1.3082373E3,1.8674329E2,1.1950486E3,0E0,0E0,3.5150378E2,1.9571581E3,1.3930762E2,3.332887E2,9.921256E2,1.8870027E3,0E0,0E0,0E0,0E0,0E0,0E0,0E0,0E0],"parents":[2147483647,0,0,1,1,2,2,5,5,6,6,7,7,8,8,9,9,10,10],"right_children":[2,4,6,-1,-1,8,10,12,14,16,18,-1,-1,-1,-1,-1,-1,-1,-1],"split_conditions":[-7.89032E-1,1.4579204E0,-1.1424274E0,1.2156498E0,2.7021377E0,1.5963424E0,2.0076907E0,2.1217618E0,3.4476027E0,-1.2869935E0,-1.7252395E0,-4.4300744E-1,-8.2457095E-1,-2.0939434E-1,9.94018E-1,1.0884365E0,-6.3608676E-2,-1.9942402E0,5.7783467E-1],"split_indices":[174,100,0,0,0,82,71,115,70,1,1,0,0,0,0,0,0,0,0],"split_type":[0,0,0,0,0,0,0,0,0,0,0,0,0,0,0,0,0,0,0],"sum_hessian":[1.429E3,8E0,1.421E3,4E0,4E0,1.8E2,1.241E3,1.15E2,6.5E1,1.045E3,1.96E2,8.4E1,3.1E1,5.9E1,6E0,1.8E1,1.027E3,7E0,1.89E2],"tree_param":{"num_deleted":"0","num_feature":"608","num_nodes":"19","size_leaf_vector":"1"}},{"base_weights":[-5.5855233E-2,1.0775035E1,-1.1704687E-1,1.0286435E0,2.2864609E0,-1.7342173E-1,9.8049E0,-2.1450565E0,1.0641284E-1,1.8833174E0,1.1333098E0,-9.6939325E-2,-5.047614E-1,-1.0439713E-1,1.5233676E-1],"categories":[],"categories_nodes":[],"categories_segments":[],"categories_sizes":[],"default_left":[0,0,0,0,0,0,0,0,0,0,0,0,0,0,0],"id":12,"left_children":[1,3,5,-1,-1,7,9,11,13,-1,-1,-1,-1,-1,-1],"loss_changes":[9.4376935E2,1.337077E2,7.920365E2,0E0,0E0,7.7683813E2,4.7537598E1,3.012068E2,8.555496E2,0E0,0E0,0E0,0E0,0E0,0E0],"parents":[2147483647,0,0,1,1,2,2,5,5,6,6,7,7,8,8],"right_children":[2,4,6,-1,-1,8,10,12,14,-1,-1,-1,-1,-1,-1],"split_conditions":[-7.89032E-1,1.4579204E0,1.3513882E1,1.0286435E0,2.2864609E0,-1.1424274E0,-9.948294E-1,6.2222E-1,9.724687E-1,1.8833174E0,1.1333098E0,-9.6939325E-2,-5.047614E-1,-1.0439713E-1,1.5233676E-1],"split_indices":[174,100,44,0,0,0,1,164,143,0,0,0,0,0,0],"split_type":[0,0,0,0,0,0,0,0,0,0,0,0,0,0,0],"sum_hessian":[1.424E3,8E0,1.416E3,4E0,4E0,1.408E3,8E0,1.75E2,1.233E3,4E0,4E0,7.5E1,1E2,6.53E2,5.8E2],"tree_param":{"num_deleted":"0","num_feature":"608","num_nodes":"15","size_leaf_vector":"1"}},{"base_weights":[5.5897932E-2,2.1390693E0,-2.622713E-1,1.758119E0,2.4973521E0,1.426644E-1,-1.7726971E0,7.8579986E-1,6.0763555E0,2.562613E-1,-6.2989373E0,-1.6041675E0,-4.374364E0,-9.4739175E-1,2.474924E-1,3.1239438E0,4.656284E-1,-4.9432386E-2,2.4491508E-1,-1.0135485E0,-9.1884744E-1,-2.1917425E-1,-6.736486E-1,-7.7719754E-1,-3.6008987E-1],"categories":[],"categories_nodes":[],"categories_segments":[],"categories_sizes":[],"default_left":[0,0,0,0,0,0,0,0,0,0,0,0,0,0,0,0,0,0,0,0,0,0,0,0,0],"id":13,"left_children":[1,3,5,7,-1,9,11,13,15,17,19,21,23,-1,-1,-1,-1,-1,-1,-1,-1,-1,-1,-1,-1],"loss_changes":[9.5045685E2,1.02020996E3,7.6086206E2,7.767597E2,0E0,7.178422E2,1.1531384E2,8.6303705E2,1.4755183E3,7.4379333E2,1.6036377E0,1.2297052E2,2.2054718E1,0E0,0E0,0E0,0E0,0E0,0E0,0E0,0E0,0E0,0E0,0E0,0E0],"parents":[2147483647,0,0,1,1,2,2,3,3,5,5,6,6,7,7,8,8,9,9,10,10,11,11,12,12],"right_children":[2,4,6,8,-1,10,12,14,16,18,20,22,24,-1,-1,-1,-1,-1,-1,-1,-1,-1,-1,-1,-1],"split_conditions":[-9.948294E-1,5.9770393E0,1.9455118E0,1.4647902E0,2.4973521E0,6.017107E0,8.735891E0,-1.7252395E0,-1.4330754E0,1.4647902E0,3.6296162E-1,3.1181128E0,1.6779703E0,-9.4739175E-1,2.474924E-1,3.1239438E0,4.656284E-1,-4.9432386E-2,2.4491508E-1,-1.0135485E0,-9.1884744E-1,-2.1917425E-1,-6.736486E-1,-7.7719754E-1,-3.6008987E-1],"split_indices":[1,89,81,117,0,1,25,1,1,117,152,56,116,0,0,0,0,0,0,0,0,0,0,0,0],"split_type":[0,0,0,0,0,0,0,0,0,0,0,0,0,0,0,0,0,0,0,0,0,0,0,0,0],"sum_hessian":[1.434E3,1.9E2,1.244E3,1.85E2,5E0,9.81E2,2.63E2,1.51E2,3.4E1,9.64E2,1.7E1,2.47E2,1.6E1,1.6E1,1.35E2,6E0,2.8E1,6.73E2,2.91E2,9E0,8E0,2.32E2,1.5E1,1.2E1,4E0],"tree_param":{"num_deleted":"0","num_feature":"608","num_nodes":"25","size_leaf_vector":"1"}},{"base_weights":[-2.495958E-2,1.6631052E0,-7.883222E-2,2.3340037E-1,-1.8209153E0,6.471624E-1,-2.0524645E0,-3.198691E0,-5.182902E-1,1.9393712E-1,-1.5304592E-1,4.474442E-2,-4.6270242E-1,-3.9854974E-1,-7.024717E-1,2.2006492E-1,-3.7952545E-1],"categories":[],"categories_nodes":[],"categories_segments":[],"categories_sizes":[],"default_left":[0,0,0,0,0,0,0,0,0,0,0,0,0,0,0,0,0],"id":14,"left_children":[1,-1,3,5,7,9,11,13,15,-1,-1,-1,-1,-1,-1,-1,-1],"loss_changes":[8.2603E2,0E0,7.658608E2,1.1292899E3,3.8407086E2,1.0185364E3,4.0968518E2,8.647095E1,4.177754E2,0E0,0E0,0E0,0E0,0E0,0E0,0E0,0E0],"parents":[2147483647,0,0,2,2,3,3,4,4,5,5,6,6,7,7,8,8],"right_children":[2,-1,4,6,8,10,12,14,16,-1,-1,-1,-1,-1,-1,-1,-1],"split_conditions":[-7.89032E-1,1.6631052E0,2.3763542E0,2.2915199E0,7.259663E-1,1.8187683E0,8.15802E-1,1.6575431E0,1.1653092E0,1.9393712E-1,-1.5304592E-1,4.474442E-2,-4.6270242E-1,-3.9854974E-1,-7.024717E-1,2.2006492E-1,-3.7952545E-1],"split_indices":[174,0,3,121,161,49,157,64,129,0,0,0,0,0,0,0,0],"split_type":[0,0,0,0,0,0,0,0,0,0,0,0,0,0,0,0,0],"sum_hessian":[1.415E3,7E0,1.408E3,1.194E3,2.14E2,1.011E3,1.83E2,1.04E2,1.1E2,7.36E2,2.75E2,5.3E1,1.3E2,7.2E1,3.2E1,5.5E1,5.5E1],"tree_param":{"num_deleted":"0","num_feature":"608","num_nodes":"17","size_leaf_vector":"1"}},{"base_weights":[-1.7030405E-2,4.5751342E-1,-1.1324303E0,1.2274635E0,-5.409605E-1,1.28925E0,-1.2676905E0,7.818736E-1,4.616645E0,-1.5729018E-1,-3.8104959E0,-2.2201548E0,-4.0142182E-1,7.152734E-1,4.4065077E-2,3.2930222E-1,2.843174E0,-7.936485E-2,5.5669403E-1,-3.4222972E-1,-8.098007E-1,-4.2457163E-1,-1.8267682E-1,-1.7892064E-1,4.3760952E-1],"categories":[],"categories_nodes":[],"categories_segments":[],"categories_sizes":[],"default_left":[0,0,0,0,0,0,0,0,0,0,0,0,0,0,0,0,0,0,0,0,0,0,0,0,0],"id":15,"left_children":[1,3,5,7,9,-1,11,13,15,17,19,21,23,-1,-1,-1,-1,-1,-1,-1,-1,-1,-1,-1,-1],"loss_changes":[7.5902515E2,7.7338776E2,5.507357E2,8.577847E2,5.494373E2,0E0,3.481878E2,9.619365E2,2.2658513E3,5.308494E2,1.06039734E2,1.12041565E2,5.464111E2,0E0,0E0,0E0,0E0,0E0,0E0,0E0,0E0,0E0,0E0,0E0,0E0],"parents":[2147483647,0,0,1,1,2,2,3,3,4,4,6,6,7,7,8,8,9,9,10,10,11,11,12,12],"right_children":[2,4,6,8,10,-1,12,14,16,18,20,22,24,-1,-1,-1,-1,-1,-1,-1,-1,-1,-1,-1,-1],"split_conditions":[1.52926E0,1.2522707E0,-1.4330754E0,2.773501E0,2.6760252E0,1.28925E0,8.8229835E-1,-3.9238825E-2,3.3003485E-1,3.0689476E0,1.8578254E0,1.9495265E0,1.6575431E0,7.152734E-1,4.4065077E-2,3.2930222E-1,2.843174E0,-7.936485E-2,5.5669403E-1,-3.4222972E-1,-8.098007E-1,-4.2457163E-1,-1.8267682E-1,-1.7892064E-1,4.3760952E-1],"split_indices":[125,141,1,86,87,0,134,190,0,78,96,98,64,0,0,0,0,0,0,0,0,0,0,0,0],"split_type":[0,0,0,0,0,0,0,0,0,0,0,0,0,0,0,0,0,0,0,0,0,0,0,0,0],"sum_hessian":[1.434E3,1.006E3,4.28E2,5.68E2,4.38E2,6E0,4.22E2,5.02E2,6.6E1,3.92E2,4.6E1,2.01E2,2.21E2,5.7E1,4.45E2,5.6E1,1E1,3.58E2,3.4E1,2.2E1,2.4E1,1.32E2,6.9E1,1.79E2,4.2E1],"tree_param":{"num_deleted":"0","num_feature":"608","num_nodes":"25","size_leaf_vector":"1"}},{"base_weights":[-2.5817372E-2,2.9782143E-1,-1.2228525E0,-6.92946E-2,1.6831355E0,5.3063197E0,-1.4464548E0,1.2818491E0,-1.3643429E-1,-3.6902586E-1,4.1612177E0,-4.3217424E-2,2.1055431E0,-1.6815583E0,5.1834474E0,-7.2680175E-2,2.2328219E-1,-2.209472E-1,5.573814E-1,-1.5768766E0,7.968914E-1,-2.8779507E-1,2.595816E-1,-5.703534E-1,2.8489916E0],"categories":[],"categories_nodes":[],"categories_segments":[],"categories_sizes":[],"default_left":[0,0,0,0,0,0,0,0,0,0,0,0,0,0,0,0,0,0,0,0,0,0,0,0,0],"id":16,"left_children":[1,3,5,7,9,11,13,-1,15,17,19,-1,-1,21,23,-1,-1,-1,-1,-1,-1,-1,-1,-1,-1],"loss_changes":[5.497306E2,5.68074E2,4.4090112E2,4.9810785E2,1.1899897E3,4.6826285E2,4.5514404E2,0E0,4.6741132E2,5.453836E2,1.5567023E3,0E0,0E0,1.7981573E2,1.1857667E3,0E0,0E0,0E0,0E0,0E0,0E0,0E0,0E0,0E0,0E0],"parents":[2147483647,0,0,1,1,2,2,3,3,4,4,5,5,6,6,8,8,9,9,10,10,13,13,14,14],"right_children":[2,4,6,8,10,12,14,-1,16,18,20,-1,-1,22,24,-1,-1,-1,-1,-1,-1,-1,-1,-1,-1],"split_conditions":[1.9455118E0,2.0076907E0,-1.5791575E0,-7.89032E-1,-2.7627316E-1,1.4647902E0,5.9770393E0,1.2818491E0,2.2188706E0,1.3020802E0,-1.7252395E0,-4.3217424E-2,2.1055431E0,2.9327986E0,1.4579204E0,-7.2680175E-2,2.2328219E-1,-2.209472E-1,5.573814E-1,-1.5768766E0,7.968914E-1,-2.8779507E-1,2.595816E-1,-5.703534E-1,2.8489916E0],"split_indices":[81,71,1,174,0,117,89,0,72,139,1,0,0,110,100,0,0,0,0,0,0,0,0,0,0],"split_type":[0,0,0,0,0,0,0,0,0,0,0,0,0,0,0,0,0,0,0,0,0,0,0,0,0],"sum_hessian":[1.419E3,1.117E3,3.02E2,8.83E2,2.34E2,1E1,2.92E2,7E0,8.76E2,1.28E2,1.06E2,6E0,4E0,2.82E2,1E1,7.23E2,1.53E2,1.01E2,2.7E1,7E0,9.9E1,2.67E2,1.5E1,6E0,4E0],"tree_param":{"num_deleted":"0","num_feature":"608","num_nodes":"25","size_leaf_vector":"1"}},{"base_weights":[9.974842E-3,9.730305E-1,-3.7315583E-1,4.200837E0,3.9731023E-1,-1.0300127E0,1.7541479E-1,2.2848313E0,3.9473598E0,-2.6402974E-1,2.7120006E0,-1.3889533E0,1.9204763E0,-8.8198535E-2,4.321334E0,-2.8714815E-2,1.301976E0,-1.9390084E-1,2.1383536E-1,9.32221E-1,-1.2566933E-1,-1.7303501E-1,-5.441395E-1,-3.972053E-1,8.854581E-1,4.0480283E-1,-9.550685E-2,-2.4640744E-3,1.373694E0],"categories":[],"categories_nodes":[],"categories_segments":[],"categories_sizes":[],"default_left":[0,0,0,0,0,0,0,0,0,0,0,0,0,0,0,0,0,0,0,0,0,0,0,0,0,0,0,0,0],"id":17,"left_children":[1,3,5,7,9,11,13,15,-1,17,19,21,23,25,27,-1,-1,-1,-1,-1,-1,-1,-1,-1,-1,-1,-1,-1,-1],"loss_changes":[5.2247034E2,7.4890015E2,3.6501685E2,2.5080693E3,5.235329E2,4.8822214E2,6.032919E2,8.551599E2,0E0,4.384153E2,8.979145E2,2.3320856E2,8.6347156E2,7.5183026E2,6.596186E2,0E0,0E0,0E0,0E0,0E0,0E0,0E0,0E0,0E0,0E0,0E0,0E0,0E0,0E0],"parents":[2147483647,0,0,1,1,2,2,3,3,4,4,5,5,6,6,7,7,9,9,10,10,11,11,12,12,13,13,14,14],"right_children":[2,4,6,8,10,12,14,16,-1,18,20,22,24,26,28,-1,-1,-1,-1,-1,-1,-1,-1,-1,-1,-1,-1,-1,-1],"split_conditions":[1.7382665E-1,-3.9238825E-2,8.8229835E-1,2.0883758E0,2.0076907E0,3.033379E0,3.093274E0,1.4786991E0,3.9473598E0,1.66333E0,8.15802E-1,1.8578254E0,9.724687E-1,5.445712E-1,1.5963424E0,-2.8714815E-2,1.301976E0,-1.9390084E-1,2.1383536E-1,9.32221E-1,-1.2566933E-1,-1.7303501E-1,-5.441395E-1,-3.972053E-1,8.854581E-1,4.0480283E-1,-9.550685E-2,-2.4640744E-3,1.373694E0],"split_indices":[1,190,134,97,71,138,77,105,0,92,157,96,143,167,82,0,0,0,0,0,0,0,0,0,0,0,0,0,0],"split_type":[0,0,0,0,0,0,0,0,0,0,0,0,0,0,0,0,0,0,0,0,0,0,0,0,0,0,0,0,0],"sum_hessian":[1.416E3,4.03E2,1.013E3,6.1E1,3.42E2,4.61E2,5.52E2,5.6E1,5E0,2.66E2,7.6E1,4.11E2,5E1,5.19E2,3.3E1,4E1,1.6E1,1.66E2,1E2,3.9E1,3.7E1,3.66E2,4.5E1,2.3E1,2.7E1,8.5E1,4.34E2,1.7E1,1.6E1],"tree_param":{"num_deleted":"0","num_feature":"608","num_nodes":"29","size_leaf_vector":"1"}},{"base_weights":[-6.101204E-2,1.9353424E-1,-1.4761962E0,4.9690083E-1,-1.458845E0,-1.9130231E0,4.676816E-1,3.3509867E0,2.9068926E-1,-5.4986703E-1,-3.3513055E0,-3.0478644E0,-5.2284116E-1,-1.0068681E0,5.5466886E0,2.5698807E0,2.4606384E-1,-1.15243725E-1,1.3315155E-1,-2.1481416E-1,4.7429997E-1,-4.0498295E-1,-9.2375624E-1,-4.1201442E-1,-7.6020646E-1,2.0200987E0,-1.9098492E-1,6.8442863E-1,-3.5632676E-1,7.772905E-1,9.4822484E-1],"categories":[],"categories_nodes":[],"categories_segments":[],"categories_sizes":[],"default_left":[0,0,0,0,0,0,0,0,0,0,0,0,0,0,0,0,0,0,0,0,0,0,0,0,0,0,0,0,0,0,0],"id":18,"left_children":[1,3,5,7,9,11,13,15,17,19,21,23,25,27,29,-1,-1,-1,-1,-1,-1,-1,-1,-1,-1,-1,-1,-1,-1,-1,-1],"loss_changes":[5.1512885E2,6.0754724E2,1.8511227E2,6.0267035E2,3.2339822E2,2.8081885E2,2.9957047E2,1.6138967E3,5.70871E2,3.905962E2,1.1633447E2,6.85871E1,7.850478E2,2.2147705E2,2.7424927E0,0E0,0E0,0E0,0E0,0E0,0E0,0E0,0E0,0E0,0E0,0E0,0E0,0E0,0E0,0E0,0E0],"parents":[2147483647,0,0,1,1,2,2,3,3,4,4,5,5,6,6,7,7,8,8,9,9,10,10,11,11,12,12,13,13,14,14],"right_children":[2,4,6,8,10,12,14,16,18,20,22,24,26,28,30,-1,-1,-1,-1,-1,-1,-1,-1,-1,-1,-1,-1,-1,-1,-1,-1],"split_conditions":[2.3763542E0,2.2915199E0,2.2915199E0,-3.9238825E-2,1.6720842E0,1.3409307E0,1.3001832E0,4.5613506E-1,7.259663E-1,2.0883758E0,1.6153442E0,1.9455118E0,4.5613506E-1,6.912794E-1,9.593026E-1,2.5698807E0,2.4606384E-1,-1.15243725E-1,1.3315155E-1,-2.1481416E-1,4.7429997E-1,-4.0498295E-1,-9.2375624E-1,-4.1201442E-1,-7.6020646E-1,2.0200987E0,-1.9098492E-1,6.8442863E-1,-3.5632676E-1,7.772905E-1,9.4822484E-1],"split_indices":[3,121,121,190,140,158,114,132,161,97,137,81,132,163,108,0,0,0,0,0,0,0,0,0,0,0,0,0,0,0,0],"split_type":[0,0,0,0,0,0,0,0,0,0,0,0,0,0,0,0,0,0,0,0,0,0,0,0,0,0,0,0,0,0,0],"sum_hessian":[1.43E3,1.212E3,2.18E2,1.024E3,1.88E2,1.78E2,4E1,6.9E1,9.55E2,1.27E2,6.1E1,9.8E1,8E1,3.1E1,9E0,8E0,6.1E1,3.4E2,6.15E2,1.03E2,2.4E1,4.8E1,1.3E1,8.2E1,1.6E1,4E0,7.6E1,6E0,2.5E1,5E0,4E0],"tree_param":{"num_deleted":"0","num_feature":"608","num_nodes":"31","size_leaf_vector":"1"}},{"base_weights":[1.4505486E-2,1.4451406E0,-2.0899484E-1,-3.6800797E0,2.0745544E0,2.9757354E-1,-7.795417E-1,-5.7001095E0,4.282709E-1,1.7354579E0,2.4969807E0,1.6480371E-1,6.3385887E0,-1.3850694E0,3.7369916E-1,-5.323687E-1,-1.3197857E0,2.1595817E0,2.0855662E-1,-2.0484317E-2,4.5044968E-1,2.8354518E0,2.3093347E-1,-1.8607841E-1,-6.123114E-1,3.8745996E-1,-5.923769E-2],"categories":[],"categories_nodes":[],"categories_segments":[],"categories_sizes":[],"default_left":[0,0,0,0,0,0,0,0,0,0,0,0,0,0,0,0,0,0,0,0,0,0,0,0,0,0,0],"id":19,"left_children":[1,3,5,7,9,11,13,15,-1,17,-1,19,21,23,25,-1,-1,-1,-1,-1,-1,-1,-1,-1,-1,-1,-1],"loss_changes":[4.5436118E2,6.1936975E2,3.5520685E2,2.7421088E2,8.2091077E2,5.2214355E2,4.036287E2,1.0316345E2,0E0,7.8018207E2,0E0,5.2449445E2,8.1900745E2,1.7258167E2,3.238887E2,0E0,0E0,0E0,0E0,0E0,0E0,0E0,0E0,0E0,0E0,0E0,0E0],"parents":[2147483647,0,0,1,1,2,2,3,3,4,4,5,5,6,6,7,7,9,9,11,11,12,12,13,13,14,14],"right_children":[2,4,6,8,10,12,14,16,-1,18,-1,20,22,24,26,-1,-1,-1,-1,-1,-1,-1,-1,-1,-1,-1,-1],"split_conditions":[-9.948294E-1,-3.455655E-1,1.0610864E0,2.4019961E0,5.9770393E0,5.901633E0,1.3900129E0,1.7880557E0,4.282709E-1,-1.6426861E-2,2.4969807E0,3.6417215E0,1.7880557E0,3.1181128E0,7.23781E-1,-5.323687E-1,-1.3197857E0,2.1595817E0,2.0855662E-1,-2.0484317E-2,4.5044968E-1,2.8354518E0,2.3093347E-1,-1.8607841E-1,-6.123114E-1,3.8745996E-1,-5.923769E-2],"split_indices":[1,0,156,79,89,5,120,104,0,0,0,63,104,56,119,0,0,0,0,0,0,0,0,0,0,0,0],"split_type":[0,0,0,0,0,0,0,0,0,0,0,0,0,0,0,0,0,0,0,0,0,0,0,0,0,0,0],"sum_hessian":[1.421E3,1.92E2,1.229E3,2.1E1,1.71E2,6.51E2,5.78E2,1.6E1,5E0,1.67E2,4E0,6.37E2,1.4E1,3.79E2,1.99E2,9E0,7E0,5E0,1.62E2,5.75E2,6.2E1,4E0,1E1,3.55E2,2.4E1,5.2E1,1.47E2],"tree_param":{"num_deleted":"0","num_feature":"608","num_nodes":"27","size_leaf_vector":"1"}},{"base_weights":[-1.1625131E-2,2.032989E-1,-1.2368932E0,-9.303571E-2,1.5354701E0,2.720151E0,-1.4308666E0,-2.4240274E0,6.1367534E-2,-1.4939196E0,1.9016451E0,1.9058273E0,-5.7313645E-1,-1.8860152E0,5.57412E-1,8.3347715E-2,-6.2382954E-1,-5.8247093E-2,1.7382419E-1,1.0143193E0,1.325951E-1,-6.375212E-1,-2.3141758E-1,-1.0748451E-1,8.103722E-1],"categories":[],"categories_nodes":[],"categories_segments":[],"categories_sizes":[],"default_left":[0,0,0,0,0,0,0,0,0,0,0,0,0,0,0,0,0,0,0,0,0,0,0,0,0],"id":20,"left_children":[1,3,5,7,9,11,13,15,17,-1,19,-1,-1,21,23,-1,-1,-1,-1,-1,-1,-1,-1,-1,-1],"loss_changes":[3.7762903E2,4.8161755E2,1.6425806E2,3.5919305E2,9.142596E2,6.232378E2,1.846124E2,2.9995004E2,4.4009238E2,0E0,1.0488296E3,0E0,0E0,1.4307538E2,2.2484273E2,0E0,0E0,0E0,0E0,0E0,0E0,0E0,0E0,0E0,0E0],"parents":[2147483647,0,0,1,1,2,2,3,3,4,4,5,5,6,6,7,7,8,8,10,10,13,13,14,14],"right_children":[2,4,6,8,10,12,14,16,18,-1,20,-1,-1,22,24,-1,-1,-1,-1,-1,-1,-1,-1,-1,-1],"split_conditions":[2.3763542E0,2.0076907E0,3.6296162E-1,-5.9775966E-1,-1.7252395E0,8.2976246E-1,2.2915199E0,1.4134918E0,1.5673132E0,-1.4939196E0,-9.948294E-1,1.9058273E0,-5.7313645E-1,-9.948294E-1,1.3001832E0,8.3347715E-2,-6.2382954E-1,-5.8247093E-2,1.7382419E-1,1.0143193E0,1.325951E-1,-6.375212E-1,-2.3141758E-1,-1.0748451E-1,8.103722E-1],"split_indices":[3,71,152,418,1,162,121,149,127,0,1,0,0,1,114,0,0,0,0,0,0,0,0,0,0],"split_type":[0,0,0,0,0,0,0,0,0,0,0,0,0,0,0,0,0,0,0,0,0,0,0,0,0],"sum_hessian":[1.434E3,1.22E3,2.14E2,9.98E2,2.22E2,1E1,2.04E2,6.2E1,9.36E2,7E0,2.15E2,4E0,6E0,1.66E2,3.8E1,2.2E1,4E1,6.63E2,2.73E2,3.9E1,1.76E2,2.4E1,1.42E2,3E1,8E0],"tree_param":{"num_deleted":"0","num_feature":"608","num_nodes":"25","size_leaf_vector":"1"}},{"base_weights":[1.3603385E-2,-7.862759E-1,3.277861E-1,3.1108367E0,-1.0440218E0,5.0425597E-2,2.142865E0,5.8544183E0,-1.7666348E0,-3.2337255E0,-6.7907083E-1,-4.937664E-2,3.9880786E0,-1.2641058E0,2.7050507E0,1.642147E0,-3.353025E-1,3.463841E-1,-7.662896E-1,-2.829449E-1,-7.4628353E-1,5.4992236E-2,-2.3689298E-1,7.1809006E-1,-2.1223687E-2,-2.595502E-1,3.581858E0,1.3034494E-2,6.79686E-1],"categories":[],"categories_nodes":[],"categories_segments":[],"categories_sizes":[],"default_left":[0,0,0,0,0,0,0,0,0,0,0,0,0,0,0,0,0,0,0,0,0,0,0,0,0,0,0,0,0],"id":21,"left_children":[1,3,5,7,9,11,13,15,17,19,21,23,25,-1,27,-1,-1,-1,-1,-1,-1,-1,-1,-1,-1,-1,-1,-1,-1],"loss_changes":[3.5911948E2,4.0479913E2,5.1652026E2,3.345442E2,3.020725E2,3.4975836E2,7.921164E2,6.196464E2,1.1625885E2,1.2179785E2,2.89115E2,3.6274246E2,2.409234E3,0E0,5.7912616E2,0E0,0E0,0E0,0E0,0E0,0E0,0E0,0E0,0E0,0E0,0E0,0E0,0E0,0E0],"parents":[2147483647,0,0,1,1,2,2,3,3,4,4,5,5,6,6,7,7,8,8,9,9,10,10,11,11,12,12,14,14],"right_children":[2,4,6,8,10,12,14,16,18,20,22,24,26,-1,28,-1,-1,-1,-1,-1,-1,-1,-1,-1,-1,-1,-1,-1,-1],"split_conditions":[-2.7627316E-1,-3.9238825E-2,2.0076907E0,-1.1833737E-1,5.0552505E-1,5.9770393E0,-1.7252395E0,3.1056283E0,7.12891E-1,1.6928643E0,1.3509256E0,-1.2869935E0,2.0698242E0,-1.2641058E0,1.3630762E0,1.642147E0,-3.353025E-1,3.463841E-1,-7.662896E-1,-2.829449E-1,-7.4628353E-1,5.4992236E-2,-2.3689298E-1,7.1809006E-1,-2.1223687E-2,-2.595502E-1,3.581858E0,1.3034494E-2,6.79686E-1],"split_indices":[0,190,71,1,166,89,1,41,159,118,113,1,145,0,147,0,0,0,0,0,0,0,0,0,0,0,0,0,0],"split_type":[0,0,0,0,0,0,0,0,0,0,0,0,0,0,0,0,0,0,0,0,0,0,0,0,0,0,0,0,0],"sum_hessian":[1.429E3,4.03E2,1.026E3,2.5E1,3.78E2,8.9E2,1.36E2,1.6E1,9E0,5.4E1,3.24E2,8.68E2,2.2E1,7E0,1.29E2,1E1,6E0,4E0,5E0,2.9E1,2.5E1,1.47E2,1.77E2,1.6E1,8.52E2,1.7E1,5E0,5.1E1,7.8E1],"tree_param":{"num_deleted":"0","num_feature":"608","num_nodes":"29","size_leaf_vector":"1"}},{"base_weights":[-2.2676475E-2,2.2061084E-1,-8.2852024E-1,5.5444226E0,1.4224732E-1,-1.0523695E0,4.6816034E0,-2.682452E0,2.962189E0,4.6359053E-1,-1.1027771E0,-1.4804245E0,5.3395116E-1,2.4954555E0,1.2582632E0,-6.5968186E-1,-4.209765E-2,1.2407628E-1,-1.5558788E-1,-2.0169011E-1,9.89368E-1,-2.7815494E-1,2.3004468E-1,-1.8143024E-1,6.720334E-1,9.261539E-2,6.7514735E-1],"categories":[],"categories_nodes":[],"categories_segments":[],"categories_sizes":[],"default_left":[0,0,0,0,0,0,0,0,0,0,0,0,0,0,0,0,0,0,0,0,0,0,0,0,0,0,0],"id":22,"left_children":[1,3,5,7,9,11,13,15,-1,17,19,21,23,25,-1,-1,-1,-1,-1,-1,-1,-1,-1,-1,-1,-1,-1],"loss_changes":[2.815301E2,4.6016296E2,4.107343E2,1.8048411E3,4.348871E2,2.1729059E2,9.940634E1,3.868119E1,0E0,4.3708536E2,3.5000467E2,2.457735E2,4.4676517E2,2.8679035E1,0E0,0E0,0E0,0E0,0E0,0E0,0E0,0E0,0E0,0E0,0E0,0E0,0E0],"parents":[2147483647,0,0,1,1,2,2,3,3,4,4,5,5,6,6,7,7,9,9,10,10,11,11,12,12,13,13],"right_children":[2,4,6,8,10,12,14,16,-1,18,20,22,24,26,-1,-1,-1,-1,-1,-1,-1,-1,-1,-1,-1,-1,-1],"split_conditions":[1.8187683E0,-1.4330754E0,9.883121E-1,1.1428572E0,1.9455118E0,1.66333E0,1.1349722E0,1.4579204E0,2.962189E0,2.2915199E0,5.9770393E0,2.4350042E0,1.4786991E0,8.303757E0,1.2582632E0,-6.5968186E-1,-4.209765E-2,1.2407628E-1,-1.5558788E-1,-2.0169011E-1,9.89368E-1,-2.7815494E-1,2.3004468E-1,-1.8143024E-1,6.720334E-1,9.261539E-2,6.7514735E-1],"split_indices":[49,1,0,124,81,92,160,100,0,121,89,146,105,15,0,0,0,0,0,0,0,0,0,0,0,0,0],"split_type":[0,0,0,0,0,0,0,0,0,0,0,0,0,0,0,0,0,0,0,0,0,0,0,0,0,0,0],"sum_hessian":[1.436E3,1.103E3,3.33E2,1.6E1,1.087E3,3.2E2,1.3E1,1E1,6E0,8.64E2,2.23E2,2.52E2,6.8E1,8E0,5E0,6E0,4E0,7.01E2,1.63E2,2.17E2,6E0,2.27E2,2.5E1,4.7E1,2.1E1,4E0,4E0],"tree_param":{"num_deleted":"0","num_feature":"608","num_nodes":"27","size_leaf_vector":"1"}},{"base_weights":[-1.0209572E-2,9.953662E-1,-4.2314775E-2,-7.99927E-1,2.526846E-1,-1.4370306E0,6.480351E-1,5.537558E-1,-7.220332E-1,-1.6281164E-1,-4.3900228E-1,-2.12551E-1,5.282544E-1,1.0020816E-2,3.19033E-1,-1.999378E-1,1.8783748E-1],"categories":[],"categories_nodes":[],"categories_segments":[],"categories_sizes":[],"default_left":[0,0,0,0,0,0,0,0,0,0,0,0,0,0,0,0,0],"id":23,"left_children":[1,-1,3,5,7,9,11,13,15,-1,-1,-1,-1,-1,-1,-1,-1],"loss_changes":[2.9544797E2,0E0,3.1579865E2,3.6531085E2,2.984483E2,1.475274E2,6.842139E2,5.771249E2,2.693918E2,0E0,0E0,0E0,0E0,0E0,0E0,0E0,0E0],"parents":[2147483647,0,0,2,2,3,3,4,4,5,5,6,6,7,7,8,8],"right_children":[2,-1,4,6,8,10,12,14,16,-1,-1,-1,-1,-1,-1,-1,-1],"split_conditions":[-4.446392E0,9.953662E-1,-2.7627316E-1,1.3020802E0,1.640413E0,2.0698242E0,1.5963424E0,1.4134918E0,1.6575431E0,-1.6281164E-1,-4.3900228E-1,-2.12551E-1,5.282544E-1,1.0020816E-2,3.19033E-1,-1.999378E-1,1.8783748E-1],"split_indices":[176,0,0,139,136,145,82,149,64,0,0,0,0,0,0,0,0],"split_type":[0,0,0,0,0,0,0,0,0,0,0,0,0,0,0,0,0],"sum_hessian":[1.42E3,7E0,1.413E3,3.96E2,1.017E3,2.75E2,1.21E2,7.77E2,2.4E2,2.17E2,5.8E1,7E1,5.1E1,5.88E2,1.89E2,1.85E2,5.5E1],"tree_param":{"num_deleted":"0","num_feature":"608","num_nodes":"17","size_leaf_vector":"1"}},{"base_weights":[-3.2462836E-3,-7.131936E-2,2.55961E0,-2.7353378E-2,-3.6299696E0,6.672764E-1,2.7953439E0,-4.4716555E-1,3.7454352E-1,-8.564595E-1,-3.0338073E0,4.631043E0,-8.191347E-1,-1.291506E-1,1.3810895E-1,-1.5876274E-1,1.1781015E-1,-5.381114E-1,-4.054873E-1,-1.5363416E-1,1.4052416E0,1.9982825E-1,-5.110924E-1],"categories":[],"categories_nodes":[],"categories_segments":[],"categories_sizes":[],"default_left":[0,0,0,0,0,0,0,0,0,0,0,0,0,0,0,0,0,0,0,0,0,0,0],"id":24,"left_children":[1,3,5,7,9,11,-1,13,15,-1,17,19,21,-1,-1,-1,-1,-1,-1,-1,-1,-1,-1],"loss_changes":[2.494797E2,2.1794786E2,1.0930708E3,2.3216039E2,1.9635132E1,1.9442938E2,0E0,3.5516772E2,3.8691782E2,0E0,2.4007263E0,2.2819884E2,1.2725318E2,0E0,0E0,0E0,0E0,0E0,0E0,0E0,0E0,0E0,0E0],"parents":[2147483647,0,0,1,1,2,2,3,3,4,4,5,5,7,7,8,8,10,10,11,11,12,12],"right_children":[2,4,6,8,10,12,-1,14,16,-1,18,20,22,-1,-1,-1,-1,-1,-1,-1,-1,-1,-1],"split_conditions":[5.901633E0,6.017107E0,2.2188706E0,9.724687E-1,2.2915199E0,-9.948294E-1,2.7953439E0,2.4350042E0,-1.1424274E0,-8.564595E-1,3.6296162E-1,-1.7252395E0,1.0610864E0,-1.291506E-1,1.3810895E-1,-1.5876274E-1,1.1781015E-1,-5.381114E-1,-4.054873E-1,-1.5363416E-1,1.4052416E0,1.9982825E-1,-5.110924E-1],"split_indices":[5,1,72,143,121,1,0,146,0,0,152,1,156,0,0,0,0,0,0,0,0,0,0],"split_type":[0,0,0,0,0,0,0,0,0,0,0,0,0,0,0,0,0,0,0,0,0,0,0],"sum_hessian":[1.43E3,1.393E3,3.7E1,1.376E3,1.7E1,3.3E1,4E0,6.73E2,7.03E2,4E0,1.3E1,9E0,2.4E1,5.21E2,1.52E2,1.53E2,5.5E2,6E0,7E0,4E0,5E0,1.3E1,1.1E1],"tree_param":{"num_deleted":"0","num_feature":"608","num_nodes":"23","size_leaf_vector":"1"}},{"base_weights":[6.830178E-3,3.0116212E-1,-4.5253778E-1,8.213393E-1,-6.643952E-1,-2.3377809E-1,-2.1783068E0,1.8582641E0,6.1465907E-3,4.5057196E-2,-1.4730723E0,-4.6553445E-1,2.343802E0,-2.5605316E0,5.3218204E-1,1.0042358E-1,6.7276555E-1,-1.4212911E-1,2.3701882E-1,-6.952191E-2,4.7229886E-1,-3.6203906E-1,-1.1052257E-1,-1.0697806E-1,2.9616508E-1,1.2476505E0,-9.942154E-2,-2.0288163E-1,-5.7853955E-1],"categories":[],"categories_nodes":[],"categories_segments":[],"categories_sizes":[],"default_left":[0,0,0,0,0,0,0,0,0,0,0,0,0,0,0,0,0,0,0,0,0,0,0,0,0,0,0,0,0],"id":25,"left_children":[1,3,5,7,9,11,13,15,17,19,21,23,25,27,-1,-1,-1,-1,-1,-1,-1,-1,-1,-1,-1,-1,-1,-1,-1],"loss_changes":[1.9388637E2,4.3897604E2,2.1141586E2,4.801266E2,1.7555775E2,2.9689307E2,1.3575885E2,7.5795496E2,4.5387616E2,2.4506451E2,9.500165E1,2.5061551E2,7.0695337E2,8.793277E1,0E0,0E0,0E0,0E0,0E0,0E0,0E0,0E0,0E0,0E0,0E0,0E0,0E0,0E0,0E0],"parents":[2147483647,0,0,1,1,2,2,3,3,4,4,5,5,6,6,7,7,8,8,9,9,10,10,11,11,12,12,13,13],"right_children":[2,4,6,8,10,12,14,16,18,20,22,24,26,28,-1,-1,-1,-1,-1,-1,-1,-1,-1,-1,-1,-1,-1,-1,-1],"split_conditions":[1.2522707E0,1.52926E0,2.6760252E0,1.0610864E0,8.15802E-1,3.0689476E0,8.978369E0,1.4134918E0,1.3900129E0,1.4647902E0,1.6928643E0,2.0698242E0,5.445712E-1,7.12891E-1,5.3218204E-1,1.0042358E-1,6.7276555E-1,-1.4212911E-1,2.3701882E-1,-6.952191E-2,4.7229886E-1,-3.6203906E-1,-1.1052257E-1,-1.0697806E-1,2.9616508E-1,1.2476505E0,-9.942154E-2,-2.0288163E-1,-5.7853955E-1],"split_indices":[141,125,87,156,157,78,91,149,120,117,118,145,167,159,0,0,0,0,0,0,0,0,0,0,0,0,0,0,0],"split_type":[0,0,0,0,0,0,0,0,0,0,0,0,0,0,0,0,0,0,0,0,0,0,0,0,0,0,0,0,0],"sum_hessian":[1.434E3,8.74E2,5.6E2,5.68E2,3.06E2,4.97E2,6.3E1,2.5E2,3.18E2,1.63E2,1.43E2,4.56E2,4.1E1,5.9E1,4E0,1.69E2,8.1E1,1.98E2,1.2E2,1.4E2,2.3E1,6.6E1,7.7E1,4.16E2,4E1,1.4E1,2.7E1,2.9E1,3E1],"tree_param":{"num_deleted":"0","num_feature":"608","num_nodes":"29","size_leaf_vector":"1"}},{"base_weights":[-4.9739694E-3,-4.1220343E-1,4.7714102E-1,-6.407102E0,-3.3424613E-1,7.048019E-1,-2.291213E0,-1.5677167E0,-1.1247965E-1,-8.9543545E-1,4.489711E-1,-1.9574694E-3,1.7663954E0,-7.8598166E-1,-4.9671726E0,6.3834584E-1,-1.518584E-1,6.6038716E-1,-3.2977988E-3,-3.2927047E-2,1.6682768E0,1.0763509E-1,7.306828E-1,-2.6917216E-1,6.7970204E-1,-1.2225122E0,-5.878069E-1],"categories":[],"categories_nodes":[],"categories_segments":[],"categories_sizes":[],"default_left":[0,0,0,0,0,0,0,0,0,0,0,0,0,0,0,0,0,0,0,0,0,0,0,0,0,0,0],"id":26,"left_children":[1,3,5,7,9,11,13,-1,-1,15,17,19,21,23,25,-1,-1,-1,-1,-1,-1,-1,-1,-1,-1,-1,-1],"loss_changes":[2.8212827E2,3.64062E2,4.1470172E2,2.1477194E2,3.3800104E2,4.5617715E2,2.0139645E2,0E0,0E0,2.0732184E2,5.804353E2,8.39658E2,7.7333875E2,1.6051038E2,6.147229E1,0E0,0E0,0E0,0E0,0E0,0E0,0E0,0E0,0E0,0E0,0E0,0E0],"parents":[2147483647,0,0,1,1,2,2,3,3,4,4,5,5,6,6,9,9,10,10,11,11,12,12,13,13,14,14],"right_children":[2,4,6,8,10,12,14,-1,-1,16,18,20,22,24,26,-1,-1,-1,-1,-1,-1,-1,-1,-1,-1,-1,-1],"split_conditions":[3.3003485E-1,-1.7252395E0,2.8907936E0,1.4579204E0,1.3630762E0,1.1866746E0,1.0452715E0,-1.5677167E0,-1.1247965E-1,-7.89032E-1,6.2222E-1,5.9770393E0,1.3900129E0,9.724687E-1,-5.565834E-1,6.3834584E-1,-1.518584E-1,6.6038716E-1,-3.2977988E-3,-3.2927047E-2,1.6682768E0,1.0763509E-1,7.306828E-1,-2.6917216E-1,6.7970204E-1,-1.2225122E0,-5.878069E-1],"split_indices":[0,1,126,100,147,90,133,0,0,174,164,89,120,143,1,0,0,0,0,0,0,0,0,0,0,0,0],"split_type":[0,0,0,0,0,0,0,0,0,0,0,0,0,0,0,0,0,0,0,0,0,0,0,0,0,0,0],"sum_hessian":[1.437E3,7.79E2,6.58E2,1E1,7.69E2,6.08E2,5E1,6E0,4E0,4.48E2,3.21E2,3.65E2,2.43E2,3.2E1,1.8E1,8E0,4.4E2,3.5E1,2.86E2,3.58E2,7E0,1.79E2,6.4E1,2.7E1,5E0,5E0,1.3E1],"tree_param":{"num_deleted":"0","num_feature":"608","num_nodes":"27","size_leaf_vector":"1"}},{"base_weights":[-2.7123654E-2,-1.0858162E-1,1.9335821E0,2.214149E-1,-6.217048E-1,-8.4064746E-1,3.6773853E0,-2.417155E-1,8.8245296E-1,-2.8971868E0,-5.1988345E-1,-1.7609404E0,2.4820237E-1,8.055953E0,1.6705348E0,-4.651283E-2,1.0986143E0,3.306737E-1,-1.01930104E-1,-9.6322966E-1,-3.0191883E-1,-1.3081744E-1,5.5845913E-2,-4.1563675E-1,1.6334376E-1,3.9036354E-1,1.7243589E0,2.5821567E-2,9.504656E-1],"categories":[],"categories_nodes":[],"categories_segments":[],"categories_sizes":[],"default_left":[0,0,0,0,0,0,0,0,0,0,0,0,0,0,0,0,0,0,0,0,0,0,0,0,0,0,0,0,0],"id":27,"left_children":[1,3,5,7,9,11,13,15,17,19,21,23,-1,25,27,-1,-1,-1,-1,-1,-1,-1,-1,-1,-1,-1,-1,-1,-1],"loss_changes":[2.2823274E2,2.3231924E2,2.7574988E2,2.5563266E2,1.2441875E2,4.968689E1,3.075487E2,2.1984528E2,6.734673E2,7.2314316E1,1.4998767E2,4.249652E1,0E0,1.9141278E2,1.6257823E2,0E0,0E0,0E0,0E0,0E0,0E0,0E0,0E0,0E0,0E0,0E0,0E0,0E0,0E0],"parents":[2147483647,0,0,1,1,2,2,3,3,4,4,5,5,6,6,7,7,8,8,9,9,10,10,11,11,13,13,14,14],"right_children":[2,4,6,8,10,12,14,16,18,20,22,24,-1,26,28,-1,-1,-1,-1,-1,-1,-1,-1,-1,-1,-1,-1,-1,-1],"split_conditions":[1.0056353E0,1.2522707E0,4.5613506E-1,3.3003485E-1,-2.268428E0,1.1349722E0,1.9455118E0,1.3513882E1,1.1800458E0,1.1428572E0,1.4579204E0,1.1866746E0,2.4820237E-1,7.23781E-1,1.637591E0,-4.651283E-2,1.0986143E0,3.306737E-1,-1.01930104E-1,-9.6322966E-1,-3.0191883E-1,-1.3081744E-1,5.5845913E-2,-4.1563675E-1,1.6334376E-1,3.9036354E-1,1.7243589E0,2.5821567E-2,9.504656E-1],"split_indices":[0,141,132,0,0,160,81,44,106,124,100,90,0,119,83,0,0,0,0,0,0,0,0,0,0,0,0,0,0],"split_type":[0,0,0,0,0,0,0,0,0,0,0,0,0,0,0,0,0,0,0,0,0,0,0,0,0,0,0,0,0],"sum_hessian":[1.429E3,1.372E3,5.7E1,8.35E2,5.37E2,2.2E1,3.5E1,4.91E2,3.44E2,2.3E1,5.14E2,1.6E1,6E0,1.1E1,2.4E1,4.87E2,4E0,1.89E2,1.55E2,5E0,1.8E1,3.74E2,1.4E2,1.2E1,4E0,4E0,7E0,1.8E1,6E0],"tree_param":{"num_deleted":"0","num_feature":"608","num_nodes":"29","size_leaf_vector":"1"}},{"base_weights":[3.371418E-2,1.0851698E-1,-2.3738897E0,2.783258E-1,-8.046941E-1,-2.900823E0,-1.0126369E0,1.3135E-1,1.8295745E0,4.148956E0,-1.06921E0,-3.60851E0,-1.9209402E0,-6.9973975E-2,-3.2737932E-1,2.0996334E-1,-1.0146937E-2,9.1105556E-1,-2.4095245E-2,1.9116511E0,-4.2292404E-1,-1.06902875E-1,-3.9619175E-1,-7.010944E-1,-4.8211324E-1,-3.517157E-1,-2.0556241E-1],"categories":[],"categories_nodes":[],"categories_segments":[],"categories_sizes":[],"default_left":[0,0,0,0,0,0,0,0,0,0,0,0,0,0,0,0,0,0,0,0,0,0,0,0,0,0,0],"id":28,"left_children":[1,3,5,7,9,11,13,15,17,19,21,23,25,-1,-1,-1,-1,-1,-1,-1,-1,-1,-1,-1,-1,-1,-1],"loss_changes":[2.5699612E2,2.1461867E2,3.084311E1,2.6607123E2,2.8433917E2,2.149646E1,7.466135E0,2.5945197E2,8.210426E2,6.281254E2,1.16135284E2,8.10466E0,2.777031E0,0E0,0E0,0E0,0E0,0E0,0E0,0E0,0E0,0E0,0E0,0E0,0E0,0E0,0E0],"parents":[2147483647,0,0,1,1,2,2,3,3,4,4,5,5,6,6,7,7,8,8,9,9,10,10,11,11,12,12],"right_children":[2,4,6,8,10,12,14,16,18,20,22,24,26,-1,-1,-1,-1,-1,-1,-1,-1,-1,-1,-1,-1,-1,-1],"split_conditions":[5.6909018E0,2.3763542E0,1.5673132E0,2.773501E0,3.6296162E-1,1.3001832E0,1.8187683E0,-9.948294E-1,1.6750222E0,8.995072E-1,1.6575431E0,6.2222E-1,4.574426E0,-6.9973975E-2,-3.2737932E-1,2.0996334E-1,-1.0146937E-2,9.1105556E-1,-2.4095245E-2,1.9116511E0,-4.2292404E-1,-1.06902875E-1,-3.9619175E-1,-7.010944E-1,-4.8211324E-1,-3.517157E-1,-2.0556241E-1],"split_indices":[61,3,127,86,152,114,49,1,102,151,64,164,52,0,0,0,0,0,0,0,0,0,0,0,0,0,0],"split_type":[0,0,0,0,0,0,0,0,0,0,0,0,0,0,0,0,0,0,0,0,0,0,0,0,0,0,0],"sum_hessian":[1.427E3,1.384E3,4.3E1,1.167E3,2.17E2,3.1E1,1.2E1,1.066E3,1.01E2,1.1E1,2.06E2,1.8E1,1.3E1,8E0,4E0,1.47E2,9.19E2,3.3E1,6.8E1,5E0,6E0,1.65E2,4.1E1,6E0,1.2E1,8E0,5E0],"tree_param":{"num_deleted":"0","num_feature":"608","num_nodes":"27","size_leaf_vector":"1"}},{"base_weights":[1.1300769E-2,-5.534657E-1,2.3291807E-1,-1.0299313E0,5.9731925E-1,1.005531E0,-3.304675E-2,3.6825056E0,-1.166031E0,-3.5020113E-1,7.6360407E0,3.273427E0,6.924244E-1,-5.3374577E-1,7.122932E-1,9.452961E-2,1.0384475E0,-4.8911184E-1,-1.2556368E-1,3.983674E-1,-1.4852756E-1,4.948868E-1,2.8741362E0,-1.8243223E-2,6.280188E-1,2.5276804E-2,-1.87168E-1,8.2302354E-2,2.1754098E0],"categories":[],"categories_nodes":[],"categories_segments":[],"categories_sizes":[],"default_left":[0,0,0,0,0,0,0,0,0,0,0,0,0,0,0,0,0,0,0,0,0,0,0,0,0,0,0,0,0],"id":29,"left_children":[1,3,5,7,9,11,13,15,17,19,21,-1,23,25,27,-1,-1,-1,-1,-1,-1,-1,-1,-1,-1,-1,-1,-1,-1],"loss_changes":[1.7898167E2,2.2096878E2,2.110361E2,1.8278784E2,7.869819E2,1.6694653E3,2.8511792E2,7.5300224E1,1.9509238E2,1.8812498E2,6.834592E2,0E0,7.120895E2,2.1786992E2,7.308855E2,0E0,0E0,0E0,0E0,0E0,0E0,0E0,0E0,0E0,0E0,0E0,0E0,0E0,0E0],"parents":[2147483647,0,0,1,1,2,2,3,3,4,4,5,5,6,6,7,7,8,8,9,9,10,10,12,12,13,13,14,14],"right_children":[2,4,6,8,10,12,14,16,18,20,22,-1,24,26,28,-1,-1,-1,-1,-1,-1,-1,-1,-1,-1,-1,-1,-1,-1],"split_conditions":[-2.7627316E-1,1.3020802E0,5.445712E-1,-7.89032E-1,3.093274E0,-1.4330754E0,1.4579204E0,1.4579204E0,5.445712E-1,7.23781E-1,1.1800458E0,3.273427E0,1.4647902E0,1.1349722E0,5.9770393E0,9.452961E-2,1.0384475E0,-4.8911184E-1,-1.2556368E-1,3.983674E-1,-1.4852756E-1,4.948868E-1,2.8741362E0,-1.8243223E-2,6.280188E-1,2.5276804E-2,-1.87168E-1,8.2302354E-2,2.1754098E0],"split_indices":[0,139,167,174,77,1,100,100,167,119,106,0,117,73,89,0,0,0,0,0,0,0,0,0,0,0,0,0,0],"split_type":[0,0,0,0,0,0,0,0,0,0,0,0,0,0,0,0,0,0,0,0,0,0,0,0,0,0,0,0,0],"sum_hessian":[1.43E3,4.03E2,1.027E3,2.85E2,1.18E2,2.63E2,7.64E2,8E0,2.77E2,1.04E2,1.4E1,4E0,2.59E2,4.57E2,3.07E2,4E0,4E0,4.1E1,2.36E2,1.8E1,8.6E1,1E1,4E0,2.09E2,5E1,2.26E2,2.31E2,3.03E2,4E0],"tree_param":{"num_deleted":"0","num_feature":"608","num_nodes":"29","size_leaf_vector":"1"}},{"base_weights":[-2.4207944E-2,1.618019E-1,-7.332927E-1,-1.14502765E-1,8.337818E-1,-1.1539224E0,1.517816E-1,-4.5441917E-1,7.09975E-1,1.0520278E-1,2.8771515E0,-1.473849E0,5.456847E-1,5.8956957E0,-7.478675E-1,7.3120547E-3,-2.9415065E-1,6.9318295E-2,1.4087913E0,-1.9124877E-2,1.7039295E0,2.8907008E0,3.2461968E-1,-2.9178566E-1,-2.8451456E-2,-1.1420336E-1,5.1987004E-1,-6.348691E-2,3.090438E0,6.810147E-2,-3.541572E-1],"categories":[],"categories_nodes":[],"categories_segments":[],"categories_sizes":[],"default_left":[0,0,0,0,0,0,0,0,0,0,0,0,0,0,0,0,0,0,0,0,0,0,0,0,0,0,0,0,0,0,0],"id":30,"left_children":[1,3,5,7,9,11,13,15,17,19,21,23,25,27,29,-1,-1,-1,-1,-1,-1,-1,-1,-1,-1,-1,-1,-1,-1,-1,-1],"loss_changes":[1.8914001E2,2.1092253E2,1.1094208E2,2.2560408E2,4.9277814E2,1.0983746E2,4.9608124E2,4.170727E2,5.149137E2,6.144378E2,1.061846E3,9.266684E1,1.16802795E2,1.1640292E3,1.5359619E2,0E0,0E0,0E0,0E0,0E0,0E0,0E0,0E0,0E0,0E0,0E0,0E0,0E0,0E0,0E0,0E0],"parents":[2147483647,0,0,1,1,2,2,3,3,4,4,5,5,6,6,7,7,8,8,9,9,10,10,11,11,12,12,13,13,14,14],"right_children":[2,4,6,8,10,12,14,16,18,20,22,24,26,28,30,-1,-1,-1,-1,-1,-1,-1,-1,-1,-1,-1,-1,-1,-1,-1,-1],"split_conditions":[1.9455118E0,1.4647902E0,1.66333E0,1.4579204E0,1.3900129E0,1.0013045E0,8.15802E-1,1.3900129E0,4.5390463E0,7.3080373E0,6.2222E-1,1.8187683E0,1.3001832E0,2.6344905E0,1.3509256E0,7.3120547E-3,-2.9415065E-1,6.9318295E-2,1.4087913E0,-1.9124877E-2,1.7039295E0,2.8907008E0,3.2461968E-1,-2.9178566E-1,-2.8451456E-2,-1.1420336E-1,5.1987004E-1,-6.348691E-2,3.090438E0,6.810147E-2,-3.541572E-1],"split_indices":[81,117,92,100,120,0,157,120,59,60,164,49,114,122,113,0,0,0,0,0,0,0,0,0,0,0,0,0,0,0,0],"split_type":[0,0,0,0,0,0,0,0,0,0,0,0,0,0,0,0,0,0,0,0,0,0,0,0,0,0,0,0,0,0,0],"sum_hessian":[1.434E3,1.136E3,2.98E2,8.05E2,3.31E2,2.02E2,9.6E1,5.7E2,2.35E2,2.44E2,8.7E1,1.7E2,3.2E1,1.3E1,8.3E1,4.24E2,1.46E2,2.28E2,7E0,2.39E2,5E0,4E0,8.3E1,1.28E2,4.2E1,2.2E1,1E1,9E0,4E0,4.7E1,3.6E1],"tree_param":{"num_deleted":"0","num_feature":"608","num_nodes":"31","size_leaf_vector":"1"}},{"base_weights":[-6.2417135E-2,-2.6145568E-2,-3.0857515E0,-5.3430766E-1,1.7581621E-1,-7.159435E-1,-2.603194E0,-7.607678E-1,1.2673067E0,1.1054171E0,1.4805363E-1,-4.5678294E-1,-3.103329E-1,-4.9306296E-2,-3.1574053E-1,1.4096265E0,-2.880199E-2,-1.8323985E-3,1.7958389E-1],"categories":[],"categories_nodes":[],"categories_segments":[],"categories_sizes":[],"default_left":[0,0,0,0,0,0,0,0,0,0,0,0,0,0,0,0,0,0,0],"id":31,"left_children":[1,3,5,7,9,-1,11,13,15,-1,17,-1,-1,-1,-1,-1,-1,-1,-1],"loss_changes":[1.5725372E2,1.4542578E2,1.2864624E1,1.6442154E2,1.9733997E2,0E0,2.7881699E0,2.03587E2,5.168294E2,0E0,1.646898E2,0E0,0E0,0E0,0E0,0E0,0E0,0E0,0E0],"parents":[2147483647,0,0,1,1,2,2,3,3,4,4,6,6,7,7,8,8,10,10],"right_children":[2,4,6,8,10,-1,12,14,16,-1,18,-1,-1,-1,-1,-1,-1,-1,-1],"split_conditions":[6.017107E0,-2.7627316E-1,1.3001832E0,2.2188706E0,-1.8713216E0,-7.159435E-1,3.6296162E-1,2.0698242E0,1.1428572E0,1.1054171E0,2.0076907E0,-4.5678294E-1,-3.103329E-1,-4.9306296E-2,-3.1574053E-1,1.4096265E0,-2.880199E-2,-1.8323985E-3,1.7958389E-1],"split_indices":[1,0,114,123,1,0,152,145,124,0,71,0,0,0,0,0,0,0,0],"split_type":[0,0,0,0,0,0,0,0,0,0,0,0,0,0,0,0,0,0,0],"sum_hessian":[1.434E3,1.417E3,1.7E1,4.03E2,1.014E3,4E0,1.3E1,3.58E2,4.5E1,4E0,1.01E3,8E0,5E0,2.67E2,9.1E1,7E0,3.8E1,8.73E2,1.37E2],"tree_param":{"num_deleted":"0","num_feature":"608","num_nodes":"19","size_leaf_vector":"1"}},{"base_weights":[1.0184793E-2,8.251318E-1,-1.622493E-2,-8.0149785E-2,1.5396587E0,-3.1712234E-1,4.087058E-1,9.9901867E-1,1.3180311E0,-8.694082E-2,1.21559404E-1,1.875804E0,4.2270884E-2,3.1385627E-1,-1.7608753E-1],"categories":[],"categories_nodes":[],"categories_segments":[],"categories_sizes":[],"default_left":[0,0,0,0,0,0,0,0,0,0,0,0,0,0,0],"id":32,"left_children":[1,-1,3,5,7,9,11,13,-1,-1,-1,-1,-1,-1,-1],"loss_changes":[2.0161948E2,0E0,1.4113312E2,1.5789723E2,2.1278609E2,2.5213995E2,7.0233136E2,1.160667E2,0E0,0E0,0E0,0E0,0E0,0E0,0E0],"parents":[2147483647,0,0,2,2,3,3,4,4,5,5,6,6,7,7],"right_children":[2,-1,4,6,8,10,12,14,-1,-1,-1,-1,-1,-1,-1],"split_conditions":[-7.89032E-1,8.251318E-1,1.0056353E0,1.4488465E0,2.9327986E0,2.0883758E0,-1.4330754E0,1.0186275E0,1.3180311E0,-8.694082E-2,1.21559404E-1,1.875804E0,4.2270884E-2,3.1385627E-1,-1.7608753E-1],"split_indices":[174,0,0,142,110,97,1,0,0,0,0,0,0,0,0],"split_type":[0,0,0,0,0,0,0,0,0,0,0,0,0,0,0],"sum_hessian":[1.426E3,7E0,1.419E3,1.363E3,5.6E1,9.18E2,4.45E2,5.2E1,4E0,7.5E2,1.68E2,5E0,4.4E2,3.5E1,1.7E1],"tree_param":{"num_deleted":"0","num_feature":"608","num_nodes":"15","size_leaf_vector":"1"}},{"base_weights":[-9.829353E-3,4.852679E-2,-1.9272467E0,1.8328828E-1,-7.3282385E-1,1.8557209E-1,-2.5539627E0,3.6605024E-1,-7.781559E-1,-2.7344143E-1,-2.547942E0,-1.7076098E0,-3.6824255E0,8.624204E-3,1.8794687E-1,-6.62733E-2,-6.2434816E-1,7.7189815E-1,-1.1906094E-1,-1.052248E0,-2.787644E-1,-3.6236867E-1,-7.756137E-2,-4.3353543E-1,-9.320671E-1],"categories":[],"categories_nodes":[],"categories_segments":[],"categories_sizes":[],"default_left":[0,0,0,0,0,0,0,0,0,0,0,0,0,0,0,0,0,0,0,0,0,0,0,0,0],"id":33,"left_children":[1,3,5,7,9,-1,11,13,15,17,19,21,23,-1,-1,-1,-1,-1,-1,-1,-1,-1,-1,-1,-1],"loss_changes":[1.591121E2,1.4530841E2,8.248216E1,2.0681705E2,1.6926794E2,0E0,3.3427246E1,2.6234155E2,2.1421465E2,4.2903363E2,1.2949039E2,1.5595764E1,3.0806213E1,0E0,0E0,0E0,0E0,0E0,0E0,0E0,0E0,0E0,0E0,0E0,0E0],"parents":[2147483647,0,0,1,1,2,2,3,3,4,4,6,6,7,7,8,8,9,9,10,10,11,11,12,12],"right_children":[2,4,6,8,10,-1,12,14,16,18,20,22,24,-1,-1,-1,-1,-1,-1,-1,-1,-1,-1,-1,-1],"split_conditions":[5.6909018E0,2.3763542E0,1.3020802E0,2.2915199E0,2.0561512E0,1.8557209E-1,5.445712E-1,1.5963424E0,2.8907936E0,5.445712E-1,1.0905365E0,2.0698242E0,7.23781E-1,8.624204E-3,1.8794687E-1,-6.62733E-2,-6.2434816E-1,7.7189815E-1,-1.1906094E-1,-1.052248E0,-2.787644E-1,-3.6236867E-1,-7.756137E-2,-4.3353543E-1,-9.320671E-1],"split_indices":[35,3,139,121,107,0,167,82,126,167,128,145,119,0,0,0,0,0,0,0,0,0,0,0,0],"split_type":[0,0,0,0,0,0,0,0,0,0,0,0,0,0,0,0,0,0,0,0,0,0,0,0,0],"sum_hessian":[1.422E3,1.38E3,4.2E1,1.177E3,2.03E2,7E0,3.5E1,9.89E2,1.88E2,1.62E2,4.1E1,2E1,1.5E1,7.26E2,2.63E2,1.7E2,1.8E1,1.4E1,1.48E2,6E0,3.5E1,1.3E1,7E0,1.1E1,4E0],"tree_param":{"num_deleted":"0","num_feature":"608","num_nodes":"25","size_leaf_vector":"1"}},{"base_weights":[-1.6282251E-2,6.718799E-2,-1.8102307E0,-1.5262267E-1,6.144487E-1,-2.675161E0,9.575408E-1,1.2134118E-1,-1.1696302E0,-1.5447597E-1,2.3111672E0,-2.4960198E0,-7.146587E-1,-1.802176E0,1.3147744E0,4.2537088E-3,5.2653706E-1,-3.4403253E-2,-3.00765E-1,-5.3614837E-1,8.898452E-3,7.41613E-2,9.471374E-1,-4.3847784E-1,-2.7858818E-1,-5.610213E-1,6.3308515E-2],"categories":[],"categories_nodes":[],"categories_segments":[],"categories_sizes":[],"default_left":[0,0,0,0,0,0,0,0,0,0,0,0,0,0,0,0,0,0,0,0,0,0,0,0,0,0,0],"id":34,"left_children":[1,3,5,7,9,11,13,15,17,19,21,23,-1,25,-1,-1,-1,-1,-1,-1,-1,-1,-1,-1,-1,-1,-1],"loss_changes":[2.1218355E2,1.6287776E2,1.5081773E2,2.691502E2,5.0620386E2,1.6943298E1,3.1416254E2,2.3538545E2,1.5233191E2,1.8882135E2,8.5113477E2,1.06796875E1,0E0,4.4922184E1,0E0,0E0,0E0,0E0,0E0,0E0,0E0,0E0,0E0,0E0,0E0,0E0,0E0],"parents":[2147483647,0,0,1,1,2,2,3,3,4,4,5,5,6,6,7,7,8,8,9,9,10,10,11,11,13,13],"right_children":[2,4,6,8,10,12,14,16,18,20,22,24,-1,26,-1,-1,-1,-1,-1,-1,-1,-1,-1,-1,-1,-1,-1],"split_conditions":[4.574426E0,1.4786991E0,1.3900129E0,1.6750222E0,1.66333E0,5.758714E0,2.0698242E0,2.773501E0,1.4488465E0,-9.948294E-1,1.3900129E0,2.30909E0,-7.146587E-1,-5.794272E-1,1.3147744E0,4.2537088E-3,5.2653706E-1,-3.4403253E-2,-3.00765E-1,-5.3614837E-1,8.898452E-3,7.41613E-2,9.471374E-1,-4.3847784E-1,-2.7858818E-1,-5.610213E-1,6.3308515E-2],"split_indices":[52,105,120,102,92,33,145,86,142,1,120,40,0,0,0,0,0,0,0,0,0,0,0,0,0,0,0],"split_type":[0,0,0,0,0,0,0,0,0,0,0,0,0,0,0,0,0,0,0,0,0,0,0,0,0,0,0],"sum_hessian":[1.417E3,1.354E3,6.3E1,9.66E2,3.88E2,4.8E1,1.5E1,7.61E2,2.05E2,2.67E2,1.21E2,4.4E1,4E0,1.1E1,4E0,7.4E2,2.1E1,9.3E1,1.12E2,1.6E1,2.51E2,8.2E1,3.9E1,2.9E1,1.5E1,6E0,5E0],"tree_param":{"num_deleted":"0","num_feature":"608","num_nodes":"27","size_leaf_vector":"1"}},{"base_weights":[-1.0531517E-2,-4.9840358E-1,1.8047714E-1,-6.9766885E-1,1.1837636E0,3.8565135E-1,-4.863387E-1,-4.6522018E-1,-2.6287777E0,-6.332943E-1,8.048203E0,4.985199E-1,-1.8568658E0,-1.105399E0,2.8038672E-1,-3.942883E-1,-3.6199387E-2,-6.266292E-1,-2.3266408E-1,-2.2184224E-1,2.4818976E-1,-3.4095484E-1,2.501307E0,-8.3370507E-1,8.52086E-2,-3.96502E-2,-3.7350297E-1,-7.435103E-1,-1.140991E-1,-3.4116913E-2,1.3692508E0],"categories":[],"categories_nodes":[],"categories_segments":[],"categories_sizes":[],"default_left":[0,0,0,0,0,0,0,0,0,0,0,0,0,0,0,0,0,0,0,0,0,0,0,0,0,0,0,0,0,0,0],"id":35,"left_children":[1,3,5,7,9,11,13,15,17,19,21,23,25,27,29,-1,-1,-1,-1,-1,-1,-1,-1,-1,-1,-1,-1,-1,-1,-1,-1],"loss_changes":[1.3447002E2,1.3609015E2,1.4187552E2,1.6294452E2,5.363435E2,2.0071588E2,1.15814514E2,1.5626802E2,6.289554E1,6.1781776E1,7.586089E2,2.4745932E2,3.4704147E1,1.8302995E2,4.7185284E2,0E0,0E0,0E0,0E0,0E0,0E0,0E0,0E0,0E0,0E0,0E0,0E0,0E0,0E0,0E0,0E0],"parents":[2147483647,0,0,1,1,2,2,3,3,4,4,5,5,6,6,7,7,8,8,9,9,10,10,11,11,12,12,13,13,14,14],"right_children":[2,4,6,8,10,12,14,16,18,20,22,24,26,28,30,-1,-1,-1,-1,-1,-1,-1,-1,-1,-1,-1,-1,-1,-1,-1,-1],"split_conditions":[-2.7627316E-1,2.2188706E0,1.9455118E0,2.4350042E0,1.3900129E0,4.5390463E0,8.4972745E-1,7.792439E-1,1.6720842E0,1.6779703E0,1.5673132E0,-1.7252395E0,5.898812E-1,-7.026654E-1,1.7880557E0,-3.942883E-1,-3.6199387E-2,-6.266292E-1,-2.3266408E-1,-2.2184224E-1,2.4818976E-1,-3.4095484E-1,2.501307E0,-8.3370507E-1,8.52086E-2,-3.96502E-2,-3.7350297E-1,-7.435103E-1,-1.140991E-1,-3.4116913E-2,1.3692508E0],"split_indices":[0,123,81,146,120,26,0,165,140,116,127,1,0,1,104,0,0,0,0,0,0,0,0,0,0,0,0,0,0,0,0],"split_type":[0,0,0,0,0,0,0,0,0,0,0,0,0,0,0,0,0,0,0,0,0,0,0,0,0,0,0,0,0,0,0],"sum_hessian":[1.443E3,4.06E2,1.037E3,3.63E2,4.3E1,7.93E2,2.44E2,3.24E2,3.9E1,3.4E1,9E0,7.55E2,3.8E1,1.35E2,1.09E2,3.2E1,2.92E2,1.7E1,2.2E1,2.5E1,9E0,4E0,5E0,7E0,7.48E2,1E1,2.8E1,1.2E1,1.23E2,1.03E2,6E0],"tree_param":{"num_deleted":"0","num_feature":"608","num_nodes":"31","size_leaf_vector":"1"}},{"base_weights":[-3.675182E-3,1.4147246E-1,-5.465276E-1,3.4713855E-1,-5.2036995E-1,-1.1952484E-1,-1.558859E0,3.3961933E-2,1.3878968E0,-7.499395E-1,1.9050776E0,-3.1323236E-1,1.2093105E0,-1.8585237E0,5.66029E-1,4.5374088E-2,-2.61817E-1,1.10365234E-1,8.3970565E-1,-1.586207E-1,3.4190315E-1,8.424887E-2,1.2849284E0,-2.1394825E-1,2.8229894E-2,-2.5535306E-1,-7.3191816E-1,5.635448E-1,-3.099835E-1],"categories":[],"categories_nodes":[],"categories_segments":[],"categories_sizes":[],"default_left":[0,0,0,0,0,0,0,0,0,0,0,0,0,0,0,0,0,0,0,0,0,0,0,0,0,0,0,0,0],"id":36,"left_children":[1,3,5,7,9,11,13,15,17,19,21,23,-1,25,27,-1,-1,-1,-1,-1,-1,-1,-1,-1,-1,-1,-1,-1,-1],"loss_changes":[1.12044754E2,1.5272499E2,1.2968036E2,2.7900546E2,1.4811107E2,3.2618945E2,5.6671234E1,2.9811688E2,5.4038464E2,2.0310316E2,2.0129883E2,1.1026459E2,0E0,4.490985E1,8.793966E1,0E0,0E0,0E0,0E0,0E0,0E0,0E0,0E0,0E0,0E0,0E0,0E0,0E0,0E0],"parents":[2147483647,0,0,1,1,2,2,3,3,4,4,5,5,6,6,7,7,8,8,9,9,10,10,11,11,13,13,14,14],"right_children":[2,4,6,8,10,12,14,16,18,20,22,24,-1,26,28,-1,-1,-1,-1,-1,-1,-1,-1,-1,-1,-1,-1,-1,-1],"split_conditions":[1.9455118E0,1.8187683E0,1.4134918E0,2.0076907E0,2.0883758E0,5.9770393E0,1.8578254E0,2.6344905E0,2.6344905E0,2.1217618E0,2.4350042E0,-1.1833737E-1,1.2093105E0,5.9770393E0,2.6760252E0,4.5374088E-2,-2.61817E-1,1.10365234E-1,8.3970565E-1,-1.586207E-1,3.4190315E-1,8.424887E-2,1.2849284E0,-2.1394825E-1,2.8229894E-2,-2.5535306E-1,-7.3191816E-1,5.635448E-1,-3.099835E-1],"split_indices":[81,49,149,71,97,89,96,122,122,115,146,1,0,89,87,0,0,0,0,0,0,0,0,0,0,0,0,0,0],"split_type":[0,0,0,0,0,0,0,0,0,0,0,0,0,0,0,0,0,0,0,0,0,0,0,0,0,0,0,0,0],"sum_hessian":[1.422E3,1.122E3,3E2,8.56E2,2.66E2,2.11E2,8.9E1,6.58E2,1.98E2,2.43E2,2.3E1,2.06E2,5E0,7.8E1,1.1E1,5.72E2,8.6E1,1.7E2,2.8E1,2.22E2,2.1E1,1.9E1,4E0,6.5E1,1.41E2,7.3E1,5E0,5E0,6E0],"tree_param":{"num_deleted":"0","num_feature":"608","num_nodes":"29","size_leaf_vector":"1"}},{"base_weights":[1.8656718E-2,-1.3208588E0,1.046257E-1,-1.822207E0,2.9684398E0,2.1708447E-1,-9.245417E-1,-2.1074338E0,2.3889688E-1,-2.1839572E-1,1.3004447E0,4.9724147E-1,-2.400779E-1,-2.12666E0,4.3268758E-1,-7.1678334E-1,-2.9445097E-1,5.316363E-2,5.385265E-1,1.5632704E0,-6.1713886E-2,-7.936863E-1,-2.8341255E-1,3.00311E-1,-3.898054E-1],"categories":[],"categories_nodes":[],"categories_segments":[],"categories_sizes":[],"default_left":[0,0,0,0,0,0,0,0,0,0,0,0,0,0,0,0,0,0,0,0,0,0,0,0,0],"id":37,"left_children":[1,3,5,7,9,11,13,15,-1,-1,-1,17,19,21,23,-1,-1,-1,-1,-1,-1,-1,-1,-1,-1],"loss_changes":[1.642135E2,1.8493715E2,1.5509007E2,7.412715E1,2.1662799E2,1.5471732E2,2.153648E2,3.5031708E1,0E0,0E0,0E0,3.4114886E2,7.691724E2,6.035846E1,2.7948413E2,0E0,0E0,0E0,0E0,0E0,0E0,0E0,0E0,0E0,0E0],"parents":[2147483647,0,0,1,1,2,2,3,3,4,4,5,5,6,6,7,7,11,11,12,12,13,13,14,14],"right_children":[2,4,6,8,10,12,14,16,-1,-1,-1,18,20,22,24,-1,-1,-1,-1,-1,-1,-1,-1,-1,-1],"split_conditions":[2.5243205E-1,2.2188706E0,3.1056283E0,3.2367518E0,1.7172433E0,1.3509256E0,1.3020802E0,-9.948294E-1,2.3889688E-1,-2.1839572E-1,1.3004447E0,2.0119915E0,-1.4330754E0,-5.565834E-1,1.4786991E0,-7.1678334E-1,-2.9445097E-1,5.316363E-2,5.385265E-1,1.5632704E0,-6.1713886E-2,-7.936863E-1,-2.8341255E-1,3.00311E-1,-3.898054E-1],"split_indices":[171,123,41,53,88,113,139,1,0,0,0,62,1,1,105,0,0,0,0,0,0,0,0,0,0],"split_type":[0,0,0,0,0,0,0,0,0,0,0,0,0,0,0,0,0,0,0,0,0,0,0,0,0],"sum_hessian":[1.426E3,8.6E1,1.34E3,7.7E1,9E0,1.208E3,1.32E2,7.1E1,6E0,5E0,4E0,7.49E2,4.59E2,7E1,6.2E1,5E0,6.6E1,7.13E2,3.6E1,7E0,4.52E2,6E0,6.4E1,4.1E1,2.1E1],"tree_param":{"num_deleted":"0","num_feature":"608","num_nodes":"25","size_leaf_vector":"1"}},{"base_weights":[-1.8701054E-2,1.7730482E-1,-4.8311985E-1,9.907478E-2,2.7249928E0,-2.6834297E-1,-2.2526925E0,-3.3814844E-2,1.2267019E0,4.7797272E-1,2.1475163E0,-6.4216924E-1,8.491999E-1,-2.6290538E0,3.9438367E-2,1.0912118E-1,-4.5073777E-2,-5.3845193E-2,1.0817415E0,-4.7481906E-2,7.088309E-1,-1.1242269E-1,3.716474E-1,6.274633E-1,-1.9093968E-2,-5.4386777E-1,-2.9035354E-1],"categories":[],"categories_nodes":[],"categories_segments":[],"categories_sizes":[],"default_left":[0,0,0,0,0,0,0,0,0,0,0,0,0,0,0,0,0,0,0,0,0,0,0,0,0,0,0],"id":38,"left_children":[1,3,5,7,9,11,13,15,17,19,-1,21,23,25,-1,-1,-1,-1,-1,-1,-1,-1,-1,-1,-1,-1,-1],"loss_changes":[1.3035329E2,2.0070064E2,1.6152669E2,1.464035E2,7.573607E2,1.5833365E2,4.3438675E1,1.6834995E2,9.4278357E2,8.121655E1,0E0,7.698376E1,2.986324E2,2.6886383E1,0E0,0E0,0E0,0E0,0E0,0E0,0E0,0E0,0E0,0E0,0E0,0E0,0E0],"parents":[2147483647,0,0,1,1,2,2,3,3,4,4,5,5,6,6,7,7,8,8,9,9,11,11,12,12,13,13],"right_children":[2,4,6,8,10,12,14,16,18,20,-1,22,24,26,-1,-1,-1,-1,-1,-1,-1,-1,-1,-1,-1,-1,-1],"split_conditions":[1.52926E0,5.901633E0,2.773501E0,2.0883758E0,1.6720842E0,6.7649657E-1,1.6720842E0,6.2222E-1,1.7880557E0,2.9327986E0,2.1475163E0,8.978369E0,1.6291804E0,6.2222E-1,3.9438367E-2,1.0912118E-1,-4.5073777E-2,-5.3845193E-2,1.0817415E0,-4.7481906E-2,7.088309E-1,-1.1242269E-1,3.716474E-1,6.274633E-1,-1.9093968E-2,-5.4386777E-1,-2.9035354E-1],"split_indices":[125,5,86,97,95,0,95,164,104,110,0,91,135,164,0,0,0,0,0,0,0,0,0,0,0,0,0],"split_type":[0,0,0,0,0,0,0,0,0,0,0,0,0,0,0,0,0,0,0,0,0,0,0,0,0,0,0],"sum_hessian":[1.432E3,1.007E3,4.25E2,9.77E2,3E1,3.79E2,4.6E1,8.74E2,1.03E2,2.5E1,5E0,2.84E2,9.5E1,4E1,6E0,2.26E2,6.48E2,8.1E1,2.2E1,2.1E1,4E0,2.76E2,8E0,2.2E1,7.3E1,1.8E1,2.2E1],"tree_param":{"num_deleted":"0","num_feature":"608","num_nodes":"27","size_leaf_vector":"1"}},{"base_weights":[1.2867066E-2,-2.4077715E-1,3.3546713E-1,-5.448095E0,-1.7486154E-1,4.3365274E-2,1.7604865E0,-1.275162E0,-1.8249455E-1,-8.8979197E-1,1.4463107E-1,-7.3294544E-1,1.2342112E0,6.932485E-1,4.498347E0,-2.3058064E-1,1.7931163E-2,1.2601633E-1,-6.41076E-2,4.7413456E-1,-1.3591786E-1,6.633634E-1,6.1257184E-2,2.8234473E-1,-2.831898E-1],"categories":[],"categories_nodes":[],"categories_segments":[],"categories_sizes":[],"default_left":[0,0,0,0,0,0,0,0,0,0,0,0,0,0,0,0,0,0,0,0,0,0,0,0,0],"id":39,"left_children":[1,3,5,7,9,11,13,-1,-1,15,17,19,21,23,-1,-1,-1,-1,-1,-1,-1,-1,-1,-1,-1],"loss_changes":[1.1692885E2,2.7459436E2,2.6182166E2,1.21083405E2,1.804479E2,4.8257156E2,3.1382056E3,0E0,0E0,1.495673E2,2.0675194E2,1.81553E2,5.3008716E2,2.9811945E2,0E0,0E0,0E0,0E0,0E0,0E0,0E0,0E0,0E0,0E0,0E0],"parents":[2147483647,0,0,1,1,2,2,3,3,4,4,5,5,6,6,9,9,10,10,11,11,12,12,13,13],"right_children":[2,4,6,8,10,12,14,-1,-1,16,18,20,22,24,-1,-1,-1,-1,-1,-1,-1,-1,-1,-1,-1],"split_conditions":[4.166503E-1,-1.7252395E0,2.4350042E0,1.4579204E0,9.724687E-1,1.1866746E0,1.7880557E0,-1.275162E0,-1.8249455E-1,1.4579204E0,1.3509256E0,-9.9582386E-1,5.445712E-1,7.792439E-1,4.498347E0,-2.3058064E-1,1.7931163E-2,1.2601633E-1,-6.41076E-2,4.7413456E-1,-1.3591786E-1,6.633634E-1,6.1257184E-2,2.8234473E-1,-2.831898E-1],"split_indices":[0,1,146,100,143,90,104,0,0,100,113,391,167,165,0,0,0,0,0,0,0,0,0,0,0],"split_type":[0,0,0,0,0,0,0,0,0,0,0,0,0,0,0,0,0,0,0,0,0,0,0,0,0],"sum_hessian":[1.429E3,8E2,6.29E2,1E1,7.9E2,5.22E2,1.07E2,6E0,4E0,2.44E2,5.46E2,3.16E2,2.06E2,1.03E2,4E0,1.52E2,9.2E1,2.48E2,2.98E2,1.2E1,3.04E2,4.4E1,1.62E2,7.1E1,3.2E1],"tree_param":{"num_deleted":"0","num_feature":"608","num_nodes":"25","size_leaf_vector":"1"}},{"base_weights":[-1.8437896E-2,-1.1610656E0,4.7629487E-2,-3.7361112E-1,-3.4446778E0,1.0362095E0,2.2747267E-2,-9.89272E-1,2.5815506E0,-5.4230328E0,-1.0266749E0,-1.6475822E-1,4.4248864E-1,-6.0435206E-1,-9.960445E-2,-6.6605486E-2,1.0927285E0,-5.650119E-1,-1.058596E0,-4.6089977E-1,8.443228E-2,-3.8873505E-2,3.2020426E-1,1.6817204E0,5.2364662E-2],"categories":[],"categories_nodes":[],"categories_segments":[],"categories_sizes":[],"default_left":[0,0,0,0,0,0,0,0,0,0,0,0,0,0,0,0,0,0,0,0,0,0,0,0,0],"id":40,"left_children":[1,3,5,7,9,-1,11,13,15,17,19,21,23,-1,-1,-1,-1,-1,-1,-1,-1,-1,-1,-1,-1],"loss_changes":[1.07724915E2,1.4026247E2,2.244999E2,1.05523834E2,9.567288E1,0E0,1.0577795E2,4.822209E1,1.3631114E2,2.8075836E1,2.7926327E1,1.8351337E2,4.4441394E2,0E0,0E0,0E0,0E0,0E0,0E0,0E0,0E0,0E0,0E0,0E0,0E0],"parents":[2147483647,0,0,1,1,2,2,3,3,4,4,6,6,7,7,8,8,9,9,10,10,11,11,12,12],"right_children":[2,4,6,8,10,-1,12,14,16,18,20,22,24,-1,-1,-1,-1,-1,-1,-1,-1,-1,-1,-1,-1],"split_conditions":[-2.268428E0,1.3900129E0,-2.7708313E0,3.033379E0,1.1428572E0,1.0362095E0,1.4488465E0,-2.441659E0,1.1349722E0,-2.441659E0,2.0561512E0,3.961462E0,-1.4330754E0,-6.0435206E-1,-9.960445E-2,-6.6605486E-2,1.0927285E0,-5.650119E-1,-1.058596E0,-4.6089977E-1,8.443228E-2,-3.8873505E-2,3.2020426E-1,1.6817204E0,5.2364662E-2],"split_indices":[0,120,186,138,124,0,142,0,160,0,107,84,1,0,0,0,0,0,0,0,0,0,0,0,0],"split_type":[0,0,0,0,0,0,0,0,0,0,0,0,0,0,0,0,0,0,0,0,0,0,0,0,0],"sum_hessian":[1.427E3,7.8E1,1.349E3,5.8E1,2E1,5E0,1.344E3,4.8E1,1E1,1.1E1,9E0,9.29E2,4.15E2,5E0,4.3E1,6E0,4E0,5E0,6E0,4E0,5E0,8.94E2,3.5E1,4E0,4.11E2],"tree_param":{"num_deleted":"0","num_feature":"608","num_nodes":"25","size_leaf_vector":"1"}},{"base_weights":[4.7502846E-2,2.9719254E-1,-2.3134214E-1,2.3021586E-1,4.3939214E0,-4.4104752E-1,1.267283E0,7.931334E-1,-2.80065E-1,9.426847E-2,1.8392466E0,-3.08902E-1,-2.1976132E0,7.043402E0,-8.5062724E-1,2.1532278E-1,-7.034478E-2,-1.7082635E-1,8.39979E-2,-5.6092825E-2,7.226618E-1,-5.8176583E-1,-1.05969265E-1,3.1359184E0,6.2741405E-1,-2.6295898E-3,-6.43753E-1],"categories":[],"categories_nodes":[],"categories_segments":[],"categories_sizes":[],"default_left":[0,0,0,0,0,0,0,0,0,0,0,0,0,0,0,0,0,0,0,0,0,0,0,0,0,0,0],"id":41,"left_children":[1,3,5,7,9,11,13,15,17,-1,-1,19,21,23,25,-1,-1,-1,-1,-1,-1,-1,-1,-1,-1,-1,-1],"loss_changes":[9.844936E1,2.0469106E2,2.0993213E2,2.1083864E2,3.4312268E2,1.3602347E2,1.0031315E3,2.647098E2,2.6410706E2,0E0,0E0,1.5207104E2,9.799573E1,8.7024316E2,1.6674591E2,0E0,0E0,0E0,0E0,0E0,0E0,0E0,0E0,0E0,0E0,0E0,0E0],"parents":[2147483647,0,0,1,1,2,2,3,3,4,4,5,5,6,6,7,7,8,8,11,11,12,12,13,13,14,14],"right_children":[2,4,6,8,10,12,14,16,18,-1,-1,20,22,24,26,-1,-1,-1,-1,-1,-1,-1,-1,-1,-1,-1,-1],"split_conditions":[1.0610864E0,5.901633E0,2.4019961E0,8.995072E-1,1.0905365E0,2.8907936E0,8.15802E-1,1.6291804E0,9.724687E-1,9.426847E-2,1.8392466E0,8.978369E0,7.12891E-1,1.0452715E0,1.7328372E0,2.1532278E-1,-7.034478E-2,-1.7082635E-1,8.39979E-2,-5.6092825E-2,7.226618E-1,-5.8176583E-1,-1.05969265E-1,3.1359184E0,6.2741405E-1,-2.6295898E-3,-6.43753E-1],"split_indices":[156,5,79,151,128,126,157,135,143,0,0,91,159,133,99,0,0,0,0,0,0,0,0,0,0,0,0],"split_type":[0,0,0,0,0,0,0,0,0,0,0,0,0,0,0,0,0,0,0,0,0,0,0,0,0,0,0],"sum_hessian":[1.414E3,7.46E2,6.68E2,7.34E2,1.2E1,5.86E2,8.2E1,3.49E2,3.85E2,8E0,4E0,5.45E2,4.1E1,2.2E1,6E1,2.35E2,1.14E2,1.92E2,1.93E2,5.39E2,6E0,2E1,2.1E1,4E0,1.8E1,4.8E1,1.2E1],"tree_param":{"num_deleted":"0","num_feature":"608","num_nodes":"27","size_leaf_vector":"1"}},{"base_weights":[1.8428152E-2,-3.1990898E-1,3.1912255E-1,2.6581423E0,-3.9265543E-1,2.3377736E-1,3.6251194E0,-2.455493E-1,1.7489597E0,-3.1565973E-1,-3.117441E0,-4.635441E0,2.8728545E-1,4.955838E0,-2.0999084E-1,-9.52588E-1,4.1963303E-1,-8.8491045E-2,9.583331E-2,-1.2019575E0,-1.183675E-1,-3.0711126E-1,-1.1190513E0,-5.407762E-2,8.6475916E-2,1.0704484E0,-8.4836975E-2],"categories":[],"categories_nodes":[],"categories_segments":[],"categories_sizes":[],"default_left":[0,0,0,0,0,0,0,0,0,0,0,0,0,0,0,0,0,0,0,0,0,0,0,0,0,0,0],"id":42,"left_children":[1,3,5,7,9,11,13,15,-1,17,19,21,23,25,-1,-1,-1,-1,-1,-1,-1,-1,-1,-1,-1,-1,-1],"loss_changes":[1.4507567E2,1.453671E2,2.1302365E2,4.047091E2,1.374166E2,1.9175902E2,1.2617038E2,2.1218707E2,0E0,1.5520526E2,1.9846785E2,5.5714996E1,1.2782475E2,1.6544098E2,0E0,0E0,0E0,0E0,0E0,0E0,0E0,0E0,0E0,0E0,0E0,0E0,0E0],"parents":[2147483647,0,0,1,1,2,2,3,3,4,4,5,5,6,6,7,7,9,9,10,10,11,11,12,12,13,13],"right_children":[2,4,6,8,10,12,14,16,-1,18,20,22,24,26,-1,-1,-1,-1,-1,-1,-1,-1,-1,-1,-1,-1,-1],"split_conditions":[9.3985814E-1,-1.2869935E0,9.450044E-1,1.7172433E0,4.5390463E0,-1.7252395E0,1.3020802E0,1.9455118E0,1.7489597E0,1.0890417E0,2.0698242E0,1.8187683E0,7.259663E-1,3.1694026E0,-2.0999084E-1,-9.52588E-1,4.1963303E-1,-8.8491045E-2,9.583331E-2,-1.2019575E0,-1.183675E-1,-3.0711126E-1,-1.1190513E0,-5.407762E-2,8.6475916E-2,1.0704484E0,-8.4836975E-2],"split_indices":[112,1,0,88,59,1,139,81,0,103,145,49,161,24,0,0,0,0,0,0,0,0,0,0,0,0,0],"split_type":[0,0,0,0,0,0,0,0,0,0,0,0,0,0,0,0,0,0,0,0,0,0,0,0,0,0,0],"sum_hessian":[1.426E3,6.71E2,7.55E2,1.6E1,6.55E2,7.36E2,1.9E1,1.2E1,4E0,6.37E2,1.8E1,8E0,7.28E2,1.5E1,4E0,4E0,8E0,4.99E2,1.38E2,6E0,1.2E1,4E0,4E0,2.19E2,5.09E2,1.1E1,4E0],"tree_param":{"num_deleted":"0","num_feature":"608","num_nodes":"27","size_leaf_vector":"1"}},{"base_weights":[1.8084425E-2,5.1644348E-2,-2.6051764E0,-1.0311432E0,1.1433212E-1,-6.1772454E-1,-2.2022028E0,-3.9491826E-1,-2.8443787E0,7.42562E-2,4.9197855E0,-3.9831567E-1,-2.7922514E-1,-2.4445427E-3,-6.671396E-1,-6.7773795E-1,-1.4400613E-1,4.0777635E-2,-4.1080028E-2,1.7758726E0,1.7450894E-1],"categories":[],"categories_nodes":[],"categories_segments":[],"categories_sizes":[],"default_left":[0,0,0,0,0,0,0,0,0,0,0,0,0,0,0,0,0,0,0,0,0],"id":43,"left_children":[1,3,5,7,9,-1,11,13,15,17,19,-1,-1,-1,-1,-1,-1,-1,-1,-1,-1],"loss_changes":[1.25451706E2,9.5503624E1,1.0229599E1,8.8828926E1,2.5613495E2,0E0,2.0971985E0,8.51618E1,5.958661E1,8.5902565E1,2.7583255E2,0E0,0E0,0E0,0E0,0E0,0E0,0E0,0E0,0E0,0E0],"parents":[2147483647,0,0,1,1,2,2,3,3,4,4,6,6,7,7,8,8,9,9,10,10],"right_children":[2,4,6,8,10,-1,12,14,16,18,20,-1,-1,-1,-1,-1,-1,-1,-1,-1,-1],"split_conditions":[6.017107E0,-2.268428E0,2.2915199E0,1.3900129E0,5.167263E0,-6.1772454E-1,3.6296162E-1,1.6928643E0,1.1428572E0,1.3509256E0,4.504426E0,-3.9831567E-1,-2.7922514E-1,-2.4445427E-3,-6.671396E-1,-6.7773795E-1,-1.4400613E-1,4.0777635E-2,-4.1080028E-2,1.7758726E0,1.7450894E-1],"split_indices":[1,0,121,120,393,0,152,118,124,113,27,0,0,0,0,0,0,0,0,0,0],"split_type":[0,0,0,0,0,0,0,0,0,0,0,0,0,0,0,0,0,0,0,0,0],"sum_hessian":[1.425E3,1.407E3,1.8E1,7.7E1,1.33E3,4E0,1.4E1,5.7E1,2E1,1.319E3,1.1E1,7E0,7E0,5.2E1,5E0,1.1E1,9E0,8.46E2,4.73E2,4E0,7E0],"tree_param":{"num_deleted":"0","num_feature":"608","num_nodes":"21","size_leaf_vector":"1"}},{"base_weights":[2.9493261E-2,7.34875E-1,1.27526745E-2,3.878867E-2,-2.2686446E0,-2.4005081E-1,2.853968E-1,-5.3215915E-1,-1.8717396E0,-4.3023024E-2,7.5911075E-1,-2.7575163E-2,1.5643905E-1,-3.3888525E-1,-2.1660252E-1],"categories":[],"categories_nodes":[],"categories_segments":[],"categories_sizes":[],"default_left":[0,0,0,0,0,0,0,0,0,0,0,0,0,0,0],"id":44,"left_children":[1,-1,3,5,7,9,11,-1,13,-1,-1,-1,-1,-1,-1],"loss_changes":[1.130963E2,0E0,8.422683E1,9.640725E1,7.5609207E0,1.3491273E2,2.5289474E2,0E0,1.8426361E0,0E0,0E0,0E0,0E0,0E0,0E0],"parents":[2147483647,0,0,2,2,3,3,4,4,5,5,6,6,8,8],"right_children":[2,-1,4,6,8,10,12,-1,14,-1,-1,-1,-1,-1,-1],"split_conditions":[-1.8713216E0,7.34875E-1,6.017107E0,9.3985814E-1,1.6779703E0,8.303757E0,4.166503E-1,-5.3215915E-1,1.6720842E0,-4.3023024E-2,7.5911075E-1,-2.7575163E-2,1.5643905E-1,-3.3888525E-1,-2.1660252E-1],"split_indices":[1,0,1,112,94,54,0,0,140,0,0,0,0,0,0],"split_type":[0,0,0,0,0,0,0,0,0,0,0,0,0,0,0],"sum_hessian":[1.423E3,5E0,1.418E3,1.402E3,1.6E1,6.58E2,7.44E2,4E0,1.2E1,6.53E2,5E0,4.55E2,2.89E2,7E0,5E0],"tree_param":{"num_deleted":"0","num_feature":"608","num_nodes":"15","size_leaf_vector":"1"}},{"base_weights":[-2.0415653E-2,1.5784651E-1,-4.380347E-1,9.185259E-2,2.36295E0,-2.1058114E0,-2.0105813E-1,2.079124E-1,-8.94655E-1,5.068375E-1,1.7340443E0,-2.592577E0,6.322364E-1,-5.8463925E-1,1.1186426E0,-1.6194662E-2,1.2784237E-1,-2.1458235E-1,3.460875E-1,-2.6621545E-2,6.0091907E-1,-3.1699267E-1,-7.2614723E-1,-2.780079E-1,4.7252822E-1,-2.1941784E-1,-1.2677387E-2,9.569322E-2,1.1651624E0],"categories":[],"categories_nodes":[],"categories_segments":[],"categories_sizes":[],"default_left":[0,0,0,0,0,0,0,0,0,0,0,0,0,0,0,0,0,0,0,0,0,0,0,0,0,0,0,0,0],"id":45,"left_children":[1,3,5,7,9,11,13,15,17,19,-1,21,23,25,27,-1,-1,-1,-1,-1,-1,-1,-1,-1,-1,-1,-1,-1,-1],"loss_changes":[1.0601067E2,1.452322E2,1.6836523E2,1.1094453E2,4.7956232E2,7.0637955E1,1.8881715E2,1.6920134E2,1.6044504E2,5.547087E1,0E0,5.0933563E1,4.76076E1,1.2216753E2,2.6928024E2,0E0,0E0,0E0,0E0,0E0,0E0,0E0,0E0,0E0,0E0,0E0,0E0,0E0,0E0],"parents":[2147483647,0,0,1,1,2,2,3,3,4,4,5,5,6,6,7,7,8,8,9,9,11,11,12,12,13,13,14,14],"right_children":[2,4,6,8,10,12,14,16,18,20,-1,22,24,26,28,-1,-1,-1,-1,-1,-1,-1,-1,-1,-1,-1,-1,-1,-1],"split_conditions":[1.52926E0,5.901633E0,-5.565834E-1,3.1056283E0,1.6720842E0,1.5673132E0,6.7649657E-1,1.4579204E0,1.9495265E0,2.9327986E0,1.7340443E0,2.0561512E0,4.691478E-1,1.1428572E0,1.7172433E0,-1.6194662E-2,1.2784237E-1,-2.1458235E-1,3.460875E-1,-2.6621545E-2,6.0091907E-1,-3.1699267E-1,-7.2614723E-1,-2.780079E-1,4.7252822E-1,-2.1941784E-1,-1.2677387E-2,9.569322E-2,1.1651624E0],"split_indices":[125,5,1,41,95,127,0,100,98,110,0,107,2,124,88,0,0,0,0,0,0,0,0,0,0,0,0,0,0],"split_type":[0,0,0,0,0,0,0,0,0,0,0,0,0,0,0,0,0,0,0,0,0,0,0,0,0,0,0,0,0],"sum_hessian":[1.424E3,9.98E2,4.26E2,9.69E2,2.9E1,5.3E1,3.73E2,8.67E2,1.02E2,2.4E1,5E0,4.5E1,8E0,2.89E2,8.4E1,5.77E2,2.9E2,8.8E1,1.4E1,2E1,4E0,3.6E1,9E0,4E0,4E0,1.08E2,1.81E2,7.8E1,6E0],"tree_param":{"num_deleted":"0","num_feature":"608","num_nodes":"29","size_leaf_vector":"1"}},{"base_weights":[2.2726646E-2,3.1528986E-1,-1.7186183E-1,1.717113E-1,5.304636E0,-4.0771883E-2,-2.053937E0,-6.1426286E-2,1.3175583E0,1.8268036E0,1.3622577E0,-2.1309963E-1,8.953118E-1,-1.005106E0,-4.920733E0,-5.349841E-2,1.8592079E-1,-4.1940566E-2,2.257529E0,-4.288201E-1,8.479425E-1,6.886289E-2,-7.6130256E-2,8.507456E-3,1.0853482E0,3.756855E-2,-4.001914E-1,-9.240284E-1,-2.9756016E-1],"categories":[],"categories_nodes":[],"categories_segments":[],"categories_sizes":[],"default_left":[0,0,0,0,0,0,0,0,0,0,0,0,0,0,0,0,0,0,0,0,0,0,0,0,0,0,0,0,0],"id":46,"left_children":[1,3,5,7,9,11,13,15,17,-1,19,21,23,25,27,-1,-1,-1,-1,-1,-1,-1,-1,-1,-1,-1,-1,-1,-1],"loss_changes":[8.152296E1,4.097593E2,2.1218001E2,1.4852994E2,4.1445966E2,1.2969574E2,1.6837947E2,1.6801073E2,1.9966779E3,0E0,1.7221167E2,1.2642383E2,6.468116E2,8.176928E1,4.8646515E1,0E0,0E0,0E0,0E0,0E0,0E0,0E0,0E0,0E0,0E0,0E0,0E0,0E0,0E0],"parents":[2147483647,0,0,1,1,2,2,3,3,4,4,5,5,6,6,7,7,8,8,10,10,11,11,12,12,13,13,14,14],"right_children":[2,4,6,8,10,12,14,16,18,-1,20,22,24,26,28,-1,-1,-1,-1,-1,-1,-1,-1,-1,-1,-1,-1,-1,-1],"split_conditions":[8.15802E-1,3.6417215E0,3.1694026E0,2.1217618E0,5.445712E-1,2.773501E0,1.3509256E0,2.0883758E0,2.4019961E0,1.8268036E0,8.8229835E-1,8.995072E-1,3.3003485E-1,2.3763542E0,9.593026E-1,-5.349841E-2,1.8592079E-1,-4.1940566E-2,2.257529E0,-4.288201E-1,8.479425E-1,6.886289E-2,-7.6130256E-2,8.507456E-3,1.0853482E0,3.756855E-2,-4.001914E-1,-9.240284E-1,-2.9756016E-1],"split_indices":[157,63,24,115,167,86,113,97,79,0,134,151,0,3,108,0,0,0,0,0,0,0,0,0,0,0,0,0,0],"split_type":[0,0,0,0,0,0,0,0,0,0,0,0,0,0,0,0,0,0,0,0,0,0,0,0,0,0,0,0,0],"sum_hessian":[1.432E3,5.72E2,8.6E2,5.56E2,1.6E1,8.04E2,5.6E1,4.62E2,9.4E1,6E0,1E1,6.79E2,1.25E2,4.1E1,1.5E1,3.77E2,8.5E1,8.4E1,1E1,5E0,5E0,2.03E2,4.76E2,1.1E2,1.5E1,2.3E1,1.8E1,1.1E1,4E0],"tree_param":{"num_deleted":"0","num_feature":"608","num_nodes":"29","size_leaf_vector":"1"}},{"base_weights":[-1.7093271E-2,8.929763E-3,-1.9496486E0,3.4660853E-2,-1.9823648E0,4.7240548E-2,-3.2660844E0,-1.5733513E-1,2.914073E-1,-4.673068E-1,-1.680817E0,-6.1115545E-1,-2.8498006E-1,-6.2478983E-1,-1.6571976E-2,6.881079E-2,-3.1750494E-1,-3.125322E-1,-2.0459603E-1],"categories":[],"categories_nodes":[],"categories_segments":[],"categories_sizes":[],"default_left":[0,0,0,0,0,0,0,0,0,0,0,0,0,0,0,0,0,0,0],"id":47,"left_children":[1,3,5,7,9,-1,11,13,15,-1,17,-1,-1,-1,-1,-1,-1,-1,-1],"loss_changes":[7.1916214E1,7.229692E1,5.6446465E1,6.866695E1,5.7280655E0,0E0,1.1988052E1,1.5436043E2,2.188532E2,0E0,1.7227745E0,0E0,0E0,0E0,0E0,0E0,0E0,0E0,0E0],"parents":[2147483647,0,0,1,1,2,2,3,3,4,4,6,6,7,7,8,8,10,10],"right_children":[2,4,6,8,10,-1,12,14,16,-1,18,-1,-1,-1,-1,-1,-1,-1,-1],"split_conditions":[8.735891E0,6.017107E0,2.1217618E0,4.166503E-1,2.2915199E0,4.7240548E-2,1.52926E0,-1.7252395E0,3.1181128E0,-4.673068E-1,3.6296162E-1,-6.1115545E-1,-2.8498006E-1,-6.2478983E-1,-1.6571976E-2,6.881079E-2,-3.1750494E-1,-3.125322E-1,-2.0459603E-1],"split_indices":[25,1,115,0,121,0,125,1,56,0,152,0,0,0,0,0,0,0,0],"split_type":[0,0,0,0,0,0,0,0,0,0,0,0,0,0,0,0,0,0,0],"sum_hessian":[1.43E3,1.411E3,1.9E1,1.393E3,1.8E1,7E0,1.2E1,7.97E2,5.96E2,4E0,1.4E1,8E0,4E0,1E1,7.87E2,5.59E2,3.7E1,7E0,7E0],"tree_param":{"num_deleted":"0","num_feature":"608","num_nodes":"19","size_leaf_vector":"1"}},{"base_weights":[-1.4090025E-2,-2.355423E-1,1.8026339E-1,-4.538947E-1,5.7174593E-1,-1.7479742E-1,7.30727E-1,-3.4504756E-1,-1.8102947E0,1.4635627E0,-2.2610812E0,-3.7059826E-1,1.1370667E0,4.7700655E-1,4.2574344E0,-6.402641E-2,6.009822E-1,-2.1554974E-1,-8.291451E-1,1.17962666E-1,8.4143764E-1,-8.578763E-1,-1.3530847E-1,-1.0053859E-1,9.175124E-2,5.037986E-2,1.295761E0,3.0407252E-2,6.5915626E-1,1.41579E-1,2.7083437E0],"categories":[],"categories_nodes":[],"categories_segments":[],"categories_sizes":[],"default_left":[0,0,0,0,0,0,0,0,0,0,0,0,0,0,0,0,0,0,0,0,0,0,0,0,0,0,0,0,0,0,0],"id":48,"left_children":[1,3,5,7,9,11,13,15,17,19,21,23,25,27,29,-1,-1,-1,-1,-1,-1,-1,-1,-1,-1,-1,-1,-1,-1,-1,-1],"loss_changes":[6.1418087E1,1.17574295E2,1.4854059E2,7.751097E1,3.5874356E2,1.1867117E2,2.666493E2,1.4704076E2,5.711197E1,3.014613E2,1.5573618E2,1.0999913E2,3.539156E2,2.9570862E2,8.9088916E2,0E0,0E0,0E0,0E0,0E0,0E0,0E0,0E0,0E0,0E0,0E0,0E0,0E0,0E0,0E0,0E0],"parents":[2147483647,0,0,1,1,2,2,3,3,4,4,5,5,6,6,7,7,8,8,9,9,10,10,11,11,12,12,13,13,14,14],"right_children":[2,4,6,8,10,12,14,16,18,20,22,24,26,28,30,-1,-1,-1,-1,-1,-1,-1,-1,-1,-1,-1,-1,-1,-1,-1,-1],"split_conditions":[9.3985814E-1,1.0890417E0,4.166503E-1,2.773501E0,2.4019961E0,3.033379E0,2.4019961E0,6.4966054E0,2.6344905E0,1.7328372E0,1.1349722E0,1.6291804E0,1.6928643E0,2.773501E0,8.930352E-1,-6.402641E-2,6.009822E-1,-2.1554974E-1,-8.291451E-1,1.17962666E-1,8.4143764E-1,-8.578763E-1,-1.3530847E-1,-1.0053859E-1,9.175124E-2,5.037986E-2,1.295761E0,3.0407252E-2,6.5915626E-1,1.41579E-1,2.7083437E0],"split_indices":[112,103,0,86,79,138,79,48,122,99,160,135,118,86,0,0,0,0,0,0,0,0,0,0,0,0,0,0,0,0,0],"split_type":[0,0,0,0,0,0,0,0,0,0,0,0,0,0,0,0,0,0,0,0,0,0,0,0,0,0,0,0,0,0,0],"sum_hessian":[1.427E3,6.67E2,7.6E2,5.25E2,1.42E2,4.62E2,2.98E2,4.86E2,3.9E1,1.08E2,3.4E1,4.02E2,6E1,2.78E2,2E1,4.78E2,8E0,3.5E1,4E0,9.2E1,1.6E1,1E1,2.4E1,3.11E2,9.1E1,5.4E1,6E0,2.59E2,1.9E1,1.6E1,4E0],"tree_param":{"num_deleted":"0","num_feature":"608","num_nodes":"31","size_leaf_vector":"1"}},{"base_weights":[3.705049E-2,1.3378492E-1,-4.6337184E-1,-9.871164E-1,2.1098483E-1,-3.1693527E-1,-4.075459E0,-1.3354409E0,2.0171697E0,-1.8760963E-1,4.8554546E-1,5.62888E-2,-1.5683348E0,-9.736254E-1,-1.9357905E-1,-6.7039365E-1,-1.6115284E-1,6.008555E-1,1.9755151E-2,-6.907641E-3,-8.411167E-1,1.1692439E0,5.9607204E-2,2.6782143E-1,-7.04744E-2,-1.5025699E-1,-6.6594833E-1],"categories":[],"categories_nodes":[],"categories_segments":[],"categories_sizes":[],"default_left":[0,0,0,0,0,0,0,0,0,0,0,0,0,0,0,0,0,0,0,0,0,0,0,0,0,0,0],"id":49,"left_children":[1,3,5,7,9,11,13,15,17,19,21,23,25,-1,-1,-1,-1,-1,-1,-1,-1,-1,-1,-1,-1,-1,-1],"loss_changes":[6.902988E1,1.0340744E2,1.2218518E2,8.057791E1,1.223521E2,1.0368576E2,5.7137833E1,6.003286E1,2.8538357E1,3.4359772E2,4.6191345E2,1.4819356E2,8.3291595E1,0E0,0E0,0E0,0E0,0E0,0E0,0E0,0E0,0E0,0E0,0E0,0E0,0E0,0E0],"parents":[2147483647,0,0,1,1,2,2,3,3,4,4,5,5,6,6,7,7,8,8,9,9,10,10,11,11,12,12],"right_children":[2,4,6,8,10,12,14,16,18,20,22,24,26,-1,-1,-1,-1,-1,-1,-1,-1,-1,-1,-1,-1,-1,-1],"split_conditions":[2.2915199E0,2.5243205E-1,1.5823147E0,2.0076907E0,7.792439E-1,1.9179009E0,1.646085E0,-9.948294E-1,1.6779703E0,1.5963424E0,-1.4330754E0,7.792439E-1,2.0561512E0,-9.736254E-1,-1.9357905E-1,-6.7039365E-1,-1.6115284E-1,6.008555E-1,1.9755151E-2,-6.907641E-3,-8.411167E-1,1.1692439E0,5.9607204E-2,2.6782143E-1,-7.04744E-2,-1.5025699E-1,-6.6594833E-1],"split_indices":[121,171,519,71,165,57,148,1,94,82,1,165,107,0,0,0,0,0,0,0,0,0,0,0,0,0,0],"split_type":[0,0,0,0,0,0,0,0,0,0,0,0,0,0,0,0,0,0,0,0,0,0,0,0,0,0,0],"sum_hessian":[1.426E3,1.195E3,2.31E2,7.7E1,1.118E3,2.22E2,9E0,6.9E1,8E0,4.56E2,6.62E2,1.71E2,5.1E1,5E0,4E0,6E0,6.3E1,4E0,4E0,4.44E2,1.2E1,9E0,6.53E2,4E1,1.31E2,4.2E1,9E0],"tree_param":{"num_deleted":"0","num_feature":"608","num_nodes":"27","size_leaf_vector":"1"}},{"base_weights":[-4.2721137E-2,-2.786956E-1,1.6496117E-1,-3.2927004E-1,3.0490897E0,4.267017E-1,-3.808633E-1,-5.145716E-1,4.3060946E-1,1.4682893E0,-1.9710809E-1,1.8871307E-2,1.1942472E0,-2.8426318E0,-3.8950473E-2,-5.9228286E-2,-3.5208574E-1,1.2364445E0,-9.0083014E-4,1.8222164E-1,-8.959611E-2,1.06017575E-1,1.0280218E0,-5.3364146E-1,-5.1885515E-2,-7.1097694E-2,3.9766368E-1],"categories":[],"categories_nodes":[],"categories_segments":[],"categories_sizes":[],"default_left":[0,0,0,0,0,0,0,0,0,0,0,0,0,0,0,0,0,0,0,0,0,0,0,0,0,0,0],"id":50,"left_children":[1,3,5,7,9,11,13,15,17,-1,-1,19,21,23,25,-1,-1,-1,-1,-1,-1,-1,-1,-1,-1,-1,-1],"loss_changes":[6.993404E1,1.1242477E2,1.0843408E2,9.265093E1,2.812869E2,1.6058347E2,2.070605E2,1.215925E2,4.2830334E2,0E0,0E0,2.3480568E2,4.9343E2,4.707515E1,2.3987495E2,0E0,0E0,0E0,0E0,0E0,0E0,0E0,0E0,0E0,0E0,0E0,0E0],"parents":[2147483647,0,0,1,1,2,2,3,3,4,4,5,5,6,6,7,7,8,8,11,11,12,12,13,13,14,14],"right_children":[2,4,6,8,10,12,14,16,18,-1,-1,20,22,24,26,-1,-1,-1,-1,-1,-1,-1,-1,-1,-1,-1,-1],"split_conditions":[9.3985814E-1,7.3080373E0,1.3509256E0,2.0119915E0,1.9455118E0,1.4579204E0,-7.026654E-1,3.1181128E0,2.30909E0,1.4682893E0,-1.9710809E-1,6.2222E-1,1.6153442E0,2.2188706E0,7.63112E-1,-5.9228286E-2,-3.5208574E-1,1.2364445E0,-9.0083014E-4,1.8222164E-1,-8.959611E-2,1.06017575E-1,1.0280218E0,-5.3364146E-1,-5.1885515E-2,-7.1097694E-2,3.9766368E-1],"split_indices":[112,60,113,58,81,100,1,56,40,0,0,164,137,72,0,0,0,0,0,0,0,0,0,0,0,0,0],"split_type":[0,0,0,0,0,0,0,0,0,0,0,0,0,0,0,0,0,0,0,0,0,0,0,0,0,0,0],"sum_hessian":[1.427E3,6.68E2,7.59E2,6.58E2,1E1,5.13E2,2.46E2,5.29E2,1.29E2,4E0,6E0,3.35E2,1.78E2,3E1,2.16E2,4.93E2,3.6E1,7E0,1.22E2,1.14E2,2.21E2,1.63E2,1.5E1,2.4E1,6E0,1.86E2,3E1],"tree_param":{"num_deleted":"0","num_feature":"608","num_nodes":"27","size_leaf_vector":"1"}},{"base_weights":[2.9741152E-4,2.3107956E-1,-2.5856197E-1,5.125551E-1,-4.8648453E-1,-1.3316283E0,-4.011616E-2,1.4091858E0,4.4837713E-1,-7.017646E-1,1.9955617E0,-1.9206502E0,6.619811E-1,8.934038E-2,-1.6788478E0,1.7185615E-1,-1.1156414E-2,-1.28475E-1,3.742727E-1,9.8835945E-1,-6.467607E-2,-8.791049E-2,-3.9231545E-1,2.2410282E-1,-4.116888E-1,6.103657E-3,6.669469E-1,-4.1671127E-1,-1.0684915E-2],"categories":[],"categories_nodes":[],"categories_segments":[],"categories_sizes":[],"default_left":[0,0,0,0,0,0,0,0,0,0,0,0,0,0,0,0,0,0,0,0,0,0,0,0,0,0,0,0,0],"id":51,"left_children":[1,3,5,7,9,11,13,-1,15,17,19,21,23,25,27,-1,-1,-1,-1,-1,-1,-1,-1,-1,-1,-1,-1,-1,-1],"loss_changes":[8.542838E1,1.5269444E2,1.5799011E2,3.0136798E2,1.1381331E2,1.3386803E2,1.1880106E2,0E0,1.87771E2,8.195847E1,1.8192116E2,7.475302E1,6.8983925E1,1.0944596E2,6.796473E1,0E0,0E0,0E0,0E0,0E0,0E0,0E0,0E0,0E0,0E0,0E0,0E0,0E0,0E0],"parents":[2147483647,0,0,1,1,2,2,3,3,4,4,5,5,6,6,8,8,9,9,10,10,11,11,12,12,13,13,14,14],"right_children":[2,4,6,8,10,12,14,-1,16,18,20,22,24,26,28,-1,-1,-1,-1,-1,-1,-1,-1,-1,-1,-1,-1,-1,-1],"split_conditions":[1.0610864E0,1.8187683E0,5.0552505E-1,-1.4330754E0,2.0883758E0,9.883121E-1,2.8907936E0,1.4091858E0,8.995072E-1,9.883121E-1,1.6928643E0,5.898812E-1,1.6291804E0,8.978369E0,1.4579204E0,1.7185615E-1,-1.1156414E-2,-1.28475E-1,3.742727E-1,9.8835945E-1,-6.467607E-2,-8.791049E-2,-3.9231545E-1,2.2410282E-1,-4.116888E-1,6.103657E-3,6.669469E-1,-4.1671127E-1,-1.0684915E-2],"split_indices":[156,49,166,1,97,0,126,0,151,0,118,0,135,91,100,0,0,0,0,0,0,0,0,0,0,0,0,0,0],"split_type":[0,0,0,0,0,0,0,0,0,0,0,0,0,0,0,0,0,0,0,0,0,0,0,0,0,0,0,0,0],"sum_hessian":[1.43E3,7.56E2,6.74E2,5.43E2,2.13E2,1.14E2,5.6E2,4E0,5.39E2,1.96E2,1.7E1,8.8E1,2.6E1,5.19E2,4.1E1,2.36E2,3.03E2,1.88E2,8E0,6E0,1.1E1,2.8E1,6E1,2.1E1,5E0,5.13E2,6E0,2.5E1,1.6E1],"tree_param":{"num_deleted":"0","num_feature":"608","num_nodes":"29","size_leaf_vector":"1"}},{"base_weights":[-2.714366E-2,1.0219711E-1,-5.192485E-1,1.5127276E-1,-1.6376108E0,-4.0126264E-1,-4.2947807E0,-2.8471081E0,1.7880622E-1,-1.2912693E0,-6.115455E-1,-2.176029E-1,-2.0415306E0,-1.0999346E0,-1.11605205E-1,3.7181713E-2,-7.5475466E-1,-2.1853134E-2,7.278145E-2,-1.6826944E-1,-3.7326586E-1,-7.291198E-3,-3.6421034E-1,-2.1748282E-1,-6.8424445E-1],"categories":[],"categories_nodes":[],"categories_segments":[],"categories_sizes":[],"default_left":[0,0,0,0,0,0,0,0,0,0,0,0,0,0,0,0,0,0,0,0,0,0,0,0,0],"id":52,"left_children":[1,3,5,7,9,11,13,15,17,19,-1,21,23,-1,-1,-1,-1,-1,-1,-1,-1,-1,-1,-1,-1],"loss_changes":[9.082748E1,9.648179E1,1.3230107E2,9.072859E1,2.509925E1,8.6760155E1,9.1725174E1,6.3605698E1,1.028392E2,6.0506554E0,0E0,9.477756E1,4.38096E1,0E0,0E0,0E0,0E0,0E0,0E0,0E0,0E0,0E0,0E0,0E0,0E0],"parents":[2147483647,0,0,1,1,2,2,3,3,4,4,5,5,6,6,7,7,8,8,9,9,11,11,12,12],"right_children":[2,4,6,8,10,12,14,16,18,20,-1,22,24,-1,-1,-1,-1,-1,-1,-1,-1,-1,-1,-1,-1],"split_conditions":[1.9455118E0,5.758714E0,5.9770393E0,-1.7252395E0,1.4786991E0,2.4019961E0,1.8187683E0,1.6575431E0,9.3985814E-1,1.3630762E0,-6.115455E-1,3.2367518E0,1.7172433E0,-1.0999346E0,-1.11605205E-1,3.7181713E-2,-7.5475466E-1,-2.1853134E-2,7.278145E-2,-1.6826944E-1,-3.7326586E-1,-7.291198E-3,-3.6421034E-1,-2.1748282E-1,-6.8424445E-1],"split_indices":[81,33,89,1,105,79,49,64,112,147,0,53,88,0,0,0,0,0,0,0,0,0,0,0,0],"split_type":[0,0,0,0,0,0,0,0,0,0,0,0,0,0,0,0,0,0,0,0,0,0,0,0,0],"sum_hessian":[1.427E3,1.13E3,2.97E2,1.099E3,3.1E1,2.88E2,9E0,1E1,1.089E3,2.7E1,4E0,2.59E2,2.9E1,5E0,4E0,4E0,6E0,5.21E2,5.68E2,2.3E1,4E0,2.4E2,1.9E1,2.3E1,6E0],"tree_param":{"num_deleted":"0","num_feature":"608","num_nodes":"25","size_leaf_vector":"1"}},{"base_weights":[1.180213E-2,3.4721103E-2,-1.789878E0,7.1084745E-2,-1.1255307E0,-4.1035002E-1,-1.5391202E0,1.6460611E-1,-4.2942736E-1,-1.3886636E0,-2.5718367E-1,-1.771215E0,-1.7249769E-1,-4.358364E-3,8.617027E-2,1.160174E-2,-2.03462E-1,-1.4589919E-1,-3.4906733E-1,-9.123014E-2,3.7933912E-2,-2.1828651E-1,-3.158162E-1],"categories":[],"categories_nodes":[],"categories_segments":[],"categories_sizes":[],"default_left":[0,0,0,0,0,0,0,0,0,0,0,0,0,0,0,0,0,0,0,0,0,0,0],"id":53,"left_children":[1,3,5,7,9,-1,11,13,15,17,19,21,-1,-1,-1,-1,-1,-1,-1,-1,-1,-1,-1],"loss_changes":[5.9172237E1,5.9700165E1,3.9609032E0,6.422135E1,9.824966E0,0E0,1.3572845E0,8.8221634E1,9.739921E1,1.2791027E1,1.6920238E0,8.929119E-1,0E0,0E0,0E0,0E0,0E0,0E0,0E0,0E0,0E0,0E0,0E0],"parents":[2147483647,0,0,1,1,2,2,3,3,4,4,6,6,7,7,8,8,9,9,10,10,11,11],"right_children":[2,4,6,8,10,-1,12,14,16,18,20,22,-1,-1,-1,-1,-1,-1,-1,-1,-1,-1,-1],"split_conditions":[6.017107E0,5.6909018E0,1.6779703E0,2.3763542E0,1.6779703E0,-4.1035002E-1,1.6720842E0,1.4488465E0,1.1653092E0,9.658648E-1,4.574426E0,2.9327986E0,-1.7249769E-1,-4.358364E-3,8.617027E-2,1.160174E-2,-2.03462E-1,-1.4589919E-1,-3.4906733E-1,-9.123014E-2,3.7933912E-2,-2.1828651E-1,-3.158162E-1],"split_indices":[1,61,94,3,94,0,140,142,129,69,52,110,0,0,0,0,0,0,0,0,0,0,0],"split_type":[0,0,0,0,0,0,0,0,0,0,0,0,0,0,0,0,0,0,0,0,0,0,0],"sum_hessian":[1.433E3,1.415E3,1.8E1,1.372E3,4.3E1,4E0,1.4E1,1.156E3,2.16E2,3.3E1,1E1,9E0,5E0,7.77E2,3.79E2,1.38E2,7.8E1,2.2E1,1.1E1,6E0,4E0,4E0,5E0],"tree_param":{"num_deleted":"0","num_feature":"608","num_nodes":"23","size_leaf_vector":"1"}},{"base_weights":[-4.8442785E-2,9.77226E-3,-1.1711624E0,1.5158027E-1,-3.6722934E-1,-1.5363981E-1,-1.9799601E0,1.1726996E0,6.2147334E-2,-9.89302E-2,-1.7219185E0,-1.0088977E0,2.3052142E0,-7.160779E-1,-1.6742483E0,1.02009445E-1,1.3405738E0,2.2242988E-2,-2.7880317E-1,-7.2793335E-2,1.6364618E-1,-6.639187E-1,-1.10716596E-1,-5.546046E-1,-4.425559E-2,5.003967E-1,2.0883535E-1,-3.229353E-1,-1.7037967E-1],"categories":[],"categories_nodes":[],"categories_segments":[],"categories_sizes":[],"default_left":[0,0,0,0,0,0,0,0,0,0,0,0,0,0,0,0,0,0,0,0,0,0,0,0,0,0,0,0,0],"id":54,"left_children":[1,3,5,7,9,11,13,15,17,19,21,23,25,-1,27,-1,-1,-1,-1,-1,-1,-1,-1,-1,-1,-1,-1,-1,-1],"loss_changes":[9.281012E1,7.2173485E1,5.7607742E1,8.95865E1,1.341173E2,6.519154E1,3.189209E1,