{"learner":{"attributes":{"scikit_learn":"{\"_estimator_type\": \"regressor\"}"},"feature_names":[],"feature_types":[],"gradient_booster":{"model":{"gbtree_model_param":{"num_parallel_tree":"1","num_trees":"800"},"iteration_indptr":[0,1,2,3,4,5,6,7,8,9,10,11,12,13,14,15,16,17,18,19,20,21,22,23,24,25,26,27,28,29,30,31,32,33,34,35,36,37,38,39,40,41,42,43,44,45,46,47,48,49,50,51,52,53,54,55,56,57,58,59,60,61,62,63,64,65,66,67,68,69,70,71,72,73,74,75,76,77,78,79,80,81,82,83,84,85,86,87,88,89,90,91,92,93,94,95,96,97,98,99,100,101,102,103,104,105,106,107,108,109,110,111,112,113,114,115,116,117,118,119,120,121,122,123,124,125,126,127,128,129,130,131,132,133,134,135,136,137,138,139,140,141,142,143,144,145,146,147,148,149,150,151,152,153,154,155,156,157,158,159,160,161,162,163,164,165,166,167,168,169,170,171,172,173,174,175,176,177,178,179,180,181,182,183,184,185,186,187,188,189,190,191,192,193,194,195,196,197,198,199,200,201,202,203,204,205,206,207,208,209,210,211,212,213,214,215,216,217,218,219,220,221,222,223,224,225,226,227,228,229,230,231,232,233,234,235,236,237,238,239,240,241,242,243,244,245,246,247,248,249,250,251,252,253,254,255,256,257,258,259,260,261,262,263,264,265,266,267,268,269,270,271,272,273,274,275,276,277,278,279,280,281,282,283,284,285,286,287,288,289,290,291,292,293,294,295,296,297,298,299,300,301,302,303,304,305,306,307,308,309,310,311,312,313,314,315,316,317,318,319,320,321,322,323,324,325,326,327,328,329,330,331,332,333,334,335,336,337,338,339,340,341,342,343,344,345,346,347,348,349,350,351,352,353,354,355,356,357,358,359,360,361,362,363,364,365,366,367,368,369,370,371,372,373,374,375,376,377,378,379,380,381,382,383,384,385,386,387,388,389,390,391,392,393,394,395,396,397,398,399,400,401,402,403,404,405,406,407,408,409,410,411,412,413,414,415,416,417,418,419,420,421,422,423,424,425,426,427,428,429,430,431,432,433,434,435,436,437,438,439,440,441,442,443,444,445,446,447,448,449,450,451,452,453,454,455,456,457,458,459,460,461,462,463,464,465,466,467,468,469,470,471,472,473,474,475,476,477,478,479,480,481,482,483,484,485,486,487,488,489,490,491,492,493,494,495,496,497,498,499,500,501,502,503,504,505,506,507,508,509,510,511,512,513,514,515,516,517,518,519,520,521,522,523,524,525,526,527,528,529,530,531,532,533,534,535,536,537,538,539,540,541,542,543,544,545,546,547,548,549,550,551,552,553,554,555,556,557,558,559,560,561,562,563,564,565,566,567,568,569,570,571,572,573,574,575,576,577,578,579,580,581,582,583,584,585,586,587,588,589,590,591,592,593,594,595,596,597,598,599,600,601,602,603,604,605,606,607,608,609,610,611,612,613,614,615,616,617,618,619,620,621,622,623,624,625,626,627,628,629,630,631,632,633,634,635,636,637,638,639,640,641,642,643,644,645,646,647,648,649,650,651,652,653,654,655,656,657,658,659,660,661,662,663,664,665,666,667,668,669,670,671,672,673,674,675,676,677,678,679,680,681,682,683,684,685,686,687,688,689,690,691,692,693,694,695,696,697,698,699,700,701,702,703,704,705,706,707,708,709,710,711,712,713,714,715,716,717,718,719,720,721,722,723,724,725,726,727,728,729,730,731,732,733,734,735,736,737,738,739,740,741,742,743,744,745,746,747,748,749,750,751,752,753,754,755,756,757,758,759,760,761,762,763,764,765,766,767,768,769,770,771,772,773,774,775,776,777,778,779,780,781,782,783,784,785,786,787,788,789,790,791,792,793,794,795,796,797,798,799,800],"tree_info":[0,0,0,0,0,0,0,0,0,0,0,0,0,0,0,0,0,0,0,0,0,0,0,0,0,0,0,0,0,0,0,0,0,0,0,0,0,0,0,0,0,0,0,0,0,0,0,0,0,0,0,0,0,0,0,0,0,0,0,0,0,0,0,0,0,0,0,0,0,0,0,0,0,0,0,0,0,0,0,0,0,0,0,0,0,0,0,0,0,0,0,0,0,0,0,0,0,0,0,0,0,0,0,0,0,0,0,0,0,0,0,0,0,0,0,0,0,0,0,0,0,0,0,0,0,0,0,0,0,0,0,0,0,0,0,0,0,0,0,0,0,0,0,0,0,0,0,0,0,0,0,0,0,0,0,0,0,0,0,0,0,0,0,0,0,0,0,0,0,0,0,0,0,0,0,0,0,0,0,0,0,0,0,0,0,0,0,0,0,0,0,0,0,0,0,0,0,0,0,0,0,0,0,0,0,0,0,0,0,0,0,0,0,0,0,0,0,0,0,0,0,0,0,0,0,0,0,0,0,0,0,0,0,0,0,0,0,0,0,0,0,0,0,0,0,0,0,0,0,0,0,0,0,0,0,0,0,0,0,0,0,0,0,0,0,0,0,0,0,0,0,0,0,0,0,0,0,0,0,0,0,0,0,0,0,0,0,0,0,0,0,0,0,0,0,0,0,0,0,0,0,0,0,0,0,0,0,0,0,0,0,0,0,0,0,0,0,0,0,0,0,0,0,0,0,0,0,0,0,0,0,0,0,0,0,0,0,0,0,0,0,0,0,0,0,0,0,0,0,0,0,0,0,0,0,0,0,0,0,0,0,0,0,0,0,0,0,0,0,0,0,0,0,0,0,0,0,0,0,0,0,0,0,0,0,0,0,0,0,0,0,0,0,0,0,0,0,0,0,0,0,0,0,0,0,0,0,0,0,0,0,0,0,0,0,0,0,0,0,0,0,0,0,0,0,0,0,0,0,0,0,0,0,0,0,0,0,0,0,0,0,0,0,0,0,0,0,0,0,0,0,0,0,0,0,0,0,0,0,0,0,0,0,0,0,0,0,0,0,0,0,0,0,0,0,0,0,0,0,0,0,0,0,0,0,0,0,0,0,0,0,0,0,0,0,0,0,0,0,0,0,0,0,0,0,0,0,0,0,0,0,0,0,0,0,0,0,0,0,0,0,0,0,0,0,0,0,0,0,0,0,0,0,0,0,0,0,0,0,0,0,0,0,0,0,0,0,0,0,0,0,0,0,0,0,0,0,0,0,0,0,0,0,0,0,0,0,0,0,0,0,0,0,0,0,0,0,0,0,0,0,0,0,0,0,0,0,0,0,0,0,0,0,0,0,0,0,0,0,0,0,0,0,0,0,0,0,0,0,0,0,0,0,0,0,0,0,0,0,0,0,0,0,0,0,0,0,0,0,0,0,0,0,0,0,0,0,0,0,0,0,0,0,0,0,0,0,0,0,0,0,0,0,0,0,0,0,0,0,0,0,0,0,0,0,0,0,0,0,0,0,0,0,0,0,0,0,0,0,0,0,0,0,0,0,0,0,0,0,0,0,0,0,0,0,0,0,0,0,0,0,0,0,0,0,0,0,0,0,0,0,0,0,0,0,0,0,0,0,0,0,0,0,0,0,0,0,0,0,0,0,0,0,0,0,0,0,0,0,0,0,0,0,0,0,0,0,0,0,0,0,0,0,0,0,0,0,0,0,0,0,0,0,0,0,0,0,0,0,0,0,0,0,0,0,0,0,0,0,0,0,0,0,0,0,0,0,0,0,0,0,0,0,0,0,0,0,0,0,0],"trees":[{"base_weights":[1.1970296E0,-1.4099822E1,1.8871181E1,1.6034174E1,4.751405E0,3.8475115E0,1.6074493E0],"categories":[],"categories_nodes":[],"categories_segments":[],"categories_sizes":[],"default_left":[0,0,0,0,0,0,0],"id":0,"left_children":[1,-1,3,5,-1,-1,-1],"loss_changes":[2.1154799E4,0E0,1.1856055E2,2.2253491E2,0E0,0E0,0E0],"parents":[2147483647,0,0,2,2,3,3],"right_children":[2,-1,4,6,-1,-1,-1],"split_conditions":[4.2008403E-1,-1.4099822E1,2E0,1.7320508E0,4.751405E0,3.8475115E0,1.6074493E0],"split_indices":[520,0,317,314,0,0,0],"split_type":[0,0,0,0,0,0,0],"sum_hessian":[1.6E1,3E0,1.3E1,9E0,4E0,6E0,3E0],"tree_param":{"num_deleted":"0","num_feature":"1304","num_nodes":"7","size_leaf_vector":"1"}},{"base_weights":[5.9522295E-1,-1.1504436E1,1.3920337E1,1.1156953E1,3.9228065E0,1.29353E1,1.2673737E0,3.4821382E0,1.7045577E0],"categories":[],"categories_nodes":[],"categories_segments":[],"categories_sizes":[],"default_left":[0,0,0,0,0,0,0,0,0],"id":1,"left_children":[1,-1,3,5,-1,7,-1,-1,-1],"loss_changes":[1.3714803E4,0E0,1.9083301E2,6.838245E1,0E0,1.151626E2,0E0,0E0,0E0],"parents":[2147483647,0,0,2,2,3,3,5,5],"right_children":[2,-1,4,6,-1,8,-1,-1,-1],"split_conditions":[4.2008403E-1,-1.1504436E1,1.7320508E0,-6.997027E-2,3.9228065E0,-1.53405E-1,1.2673737E0,3.4821382E0,1.7045577E0],"split_indices":[520,0,343,594,0,24,0,0,0],"split_type":[0,0,0,0,0,0,0,0,0],"sum_hessian":[1.7E1,3E0,1.4E1,1E1,4E0,7E0,3E0,3E0,4E0],"tree_param":{"num_deleted":"0","num_feature":"1304","num_nodes":"9","size_leaf_vector":"1"}},{"base_weights":[7.288187E0,-4.102407E0,1.45578E1,3.0941195E0,2.0158045E0],"categories":[],"categories_nodes":[],"categories_segments":[],"categories_sizes":[],"default_left":[0,0,0,0,0],"id":2,"left_children":[1,-1,3,-1,-1],"loss_changes":[3.1736953E3,0E0,2.864624E1,0E0,0E0],"parents":[2147483647,0,0,2,2],"right_children":[2,-1,4,-1,-1],"split_conditions":[-6.104595E-2,-4.102407E0,-6.997027E-2,3.0941195E0,2.0158045E0],"split_indices":[601,0,594,0,0],"split_type":[0,0,0,0,0],"sum_hessian":[1.5E1,3E0,1.2E1,9E0,3E0],"tree_param":{"num_deleted":"0","num_feature":"1304","num_nodes":"5","size_leaf_vector":"1"}},{"base_weights":[-3.680141E0,8.594318E0,-1.2882154E1,6.410096E0,2.5481906E0,8.635179E0,4.4925383E-1,8.54357E-1,2.2584665E0],"categories":[],"categories_nodes":[],"categories_segments":[],"categories_sizes":[],"default_left":[0,0,0,0,0,0,0,0,0],"id":3,"left_children":[1,3,-1,5,-1,7,-1,-1,-1],"loss_changes":[1.4689443E4,1.3734155E2,0E0,9.879611E1,0E0,7.78053E1,0E0,0E0,0E0],"parents":[2147483647,0,0,1,1,3,3,5,5],"right_children":[2,4,-1,6,-1,8,-1,-1,-1],"split_conditions":[8.5906106E-1,1.7320508E0,-1.2882154E1,9.864134E-1,2.5481906E0,-7.0247483E-1,4.4925383E-1,8.54357E-1,2.2584665E0],"split_indices":[994,343,0,23,0,547,0,0,0],"split_type":[0,0,0,0,0,0,0,0,0],"sum_hessian":[1.9E1,1.6E1,3E0,1.1E1,5E0,7E0,4E0,3E0,4E0],"tree_param":{"num_deleted":"0","num_feature":"1304","num_nodes":"9","size_leaf_vector":"1"}},{"base_weights":[-1.0749972E0,-7.890904E0,7.7512383E0,2.183867E0,6.2133965E0,8.8579035E0,-2.5290594E-2,2.1202059E0,1.134219E0],"categories":[],"categories_nodes":[],"categories_segments":[],"categories_sizes":[],"default_left":[0,0,0,0,0,0,0,0,0],"id":4,"left_children":[1,-1,3,-1,5,7,-1,-1,-1],"loss_changes":[5.9937256E3,0E0,5.906201E1,0E0,1.7140656E2,3.0029968E1,0E0,0E0,0E0],"parents":[2147483647,0,0,2,2,4,4,5,5],"right_children":[2,-1,4,-1,6,8,-1,-1,-1],"split_conditions":[-3.4973514E-1,-7.890904E0,5.7735026E-1,2.183867E0,1.5275252E0,1.5275252E0,-2.5290594E-2,2.1202059E0,1.134219E0],"split_indices":[592,0,311,0,349,485,0,0,0],"split_type":[0,0,0,0,0,0,0,0,0],"sum_hessian":[1.7E1,3E0,1.4E1,4E0,1E1,7E0,3E0,4E0,3E0],"tree_param":{"num_deleted":"0","num_feature":"1304","num_nodes":"9","size_leaf_vector":"1"}},{"base_weights":[-2.6249163E0,-9.463307E0,6.4064827E0,8.63612E0,-7.4143626E-2,2.0663044E0,1.1221397E0],"categories":[],"categories_nodes":[],"categories_segments":[],"categories_sizes":[],"default_left":[0,0,0,0,0,0,0],"id":5,"left_children":[1,-1,3,5,-1,-1,-1],"loss_changes":[7.954314E3,0E0,2.457832E2,5.4568787E1,0E0,0E0,0E0],"parents":[2147483647,0,0,2,2,3,3],"right_children":[2,-1,4,6,-1,-1,-1],"split_conditions":[-1.1566685E0,-9.463307E0,1.7320508E0,3.7115373E-2,-7.4143626E-2,2.0663044E0,1.1221397E0],"split_indices":[551,0,314,577,0,0,0],"split_type":[0,0,0,0,0,0,0],"sum_hessian":[1.9E1,3E0,1.6E1,1.2E1,4E0,7E0,5E0],"tree_param":{"num_deleted":"0","num_feature":"1304","num_nodes":"7","size_leaf_vector":"1"}},{"base_weights":[-2.945797E0,-8.362077E0,6.02593E0,7.8226905E0,-1.2599304E-1,1.8523648E0,9.254034E-1],"categories":[],"categories_nodes":[],"categories_segments":[],"categories_sizes":[],"default_left":[0,0,0,0,0,0,0],"id":6,"left_children":[1,-1,3,5,-1,-1,-1],"loss_changes":[6.16128E3,0E0,1.7119574E2,4.6632263E1,0E0,0E0,0E0],"parents":[2147483647,0,0,2,2,3,3],"right_children":[2,-1,4,6,-1,-1,-1],"split_conditions":[-1.1360627E0,-8.362077E0,1.7320508E0,2.0364705E-1,-1.2599304E-1,1.8523648E0,9.254034E-1],"split_indices":[624,0,314,607,0,0,0],"split_type":[0,0,0,0,0,0,0],"sum_hessian":[1.7E1,3E0,1.4E1,1.1E1,3E0,7E0,4E0],"tree_param":{"num_deleted":"0","num_feature":"1304","num_nodes":"7","size_leaf_vector":"1"}},{"base_weights":[3.1909776E0,5.2717304E0,-8.430806E-1,7.6473556E0,-2.2551629E-1,2.0563862E0,1.1044272E0],"categories":[],"categories_nodes":[],"categories_segments":[],"categories_sizes":[],"default_left":[0,0,0,0,0,0,0],"id":7,"left_children":[1,3,-1,5,-1,-1,-1],"loss_changes":[2.2566772E2,1.7266687E2,0E0,3.4742737E1,0E0,0E0,0E0],"parents":[2147483647,0,0,1,1,3,3],"right_children":[2,4,-1,6,-1,-1,-1],"split_conditions":[1.160806E0,1.5275252E0,-8.430806E-1,5.0475657E-1,-2.2551629E-1,2.0563862E0,1.1044272E0],"split_indices":[1104,349,0,540,0,0,0],"split_type":[0,0,0,0,0,0,0],"sum_hessian":[1.4E1,1.1E1,3E0,8E0,3E0,3E0,5E0],"tree_param":{"num_deleted":"0","num_feature":"1304","num_nodes":"7","size_leaf_vector":"1"}},{"base_weights":[-4.2316856E0,1.2663682E0,-7.460826E0],"categories":[],"categories_nodes":[],"categories_segments":[],"categories_sizes":[],"default_left":[0,0,0],"id":8,"left_children":[1,-1,-1],"loss_changes":[4.7996562E3,0E0,0E0],"parents":[2147483647,0,0],"right_children":[2,-1,-1],"split_conditions":[2.3399502E-1,1.2663682E0,-7.460826E0],"split_indices":[546,0,0],"split_type":[0,0,0],"sum_hessian":[1.3E1,1E1,3E0],"tree_param":{"num_deleted":"0","num_feature":"1304","num_nodes":"3","size_leaf_vector":"1"}},{"base_weights":[-2.969145E0,4.3466325E0,-6.4741774E0,8.023142E0,-3.1856084E-1,9.6938175E-1,2.4648876E0],"categories":[],"categories_nodes":[],"categories_segments":[],"categories_sizes":[],"default_left":[0,0,0,0,0,0,0],"id":9,"left_children":[1,3,-1,5,-1,-1,-1],"loss_changes":[3.5802021E3,2.9234528E2,0E0,1.01793274E2,0E0,0E0,0E0],"parents":[2147483647,0,0,1,1,3,3],"right_children":[2,4,-1,6,-1,-1,-1],"split_conditions":[5.5699956E-1,1.0727818E0,-6.4741774E0,9.0278333E-1,-3.1856084E-1,9.6938175E-1,2.4648876E0],"split_indices":[1054,29,0,536,0,0,0],"split_type":[0,0,0,0,0,0,0],"sum_hessian":[1.6E1,1.3E1,3E0,8E0,5E0,5E0,3E0],"tree_param":{"num_deleted":"0","num_feature":"1304","num_nodes":"7","size_leaf_vector":"1"}},{"base_weights":[-6.520296E-1,4.787187E0,-5.5284085E0,1.9151275E0,2.5347993E0,1.0872585E0,-7.4954545E-1,4.7552094E-1,-6.1510044E-1],"categories":[],"categories_nodes":[],"categories_segments":[],"categories_sizes":[],"default_left":[0,0,0,0,0,0,0,0,0],"id":10,"left_children":[1,3,-1,5,-1,-1,7,-1,-1],"loss_changes":[2.8960527E3,3.7198267E2,0E0,1.1837694E2,0E0,0E0,5.582778E1,0E0,0E0],"parents":[2147483647,0,0,1,1,3,3,6,6],"right_children":[2,4,-1,6,-1,-1,8,-1,-1],"split_conditions":[5.6015193E-1,-3.3896732E-1,-5.5284085E0,5.7735026E-1,2.5347993E0,1.0872585E0,9.864134E-1,4.7552094E-1,-6.1510044E-1],"split_indices":[570,537,0,311,0,0,23,0,0],"split_type":[0,0,0,0,0,0,0,0,0],"sum_hessian":[1.9E1,1.6E1,3E0,1.2E1,4E0,5E0,7E0,3E0,4E0],"tree_param":{"num_deleted":"0","num_feature":"1304","num_nodes":"9","size_leaf_vector":"1"}},{"base_weights":[1.3121573E0,-5.153457E0,6.738131E0,5.195813E0,2.489833E0,4.345466E0,1.2450888E0,1.0416285E0,7.0566475E-1],"categories":[],"categories_nodes":[],"categories_segments":[],"categories_sizes":[],"default_left":[0,0,0,0,0,0,0,0,0],"id":11,"left_children":[1,-1,3,5,-1,7,-1,-1,-1],"loss_changes":[2.9036125E3,0E0,1.3448376E2,7.0813904E0,0E0,1.9924927E0,0E0,0E0,0E0],"parents":[2147483647,0,0,2,2,3,3,5,5],"right_children":[2,-1,4,6,-1,8,-1,-1,-1],"split_conditions":[-6.044391E-1,-5.153457E0,1.3259386E0,1.5275252E0,2.489833E0,-1.53405E-1,1.2450888E0,1.0416285E0,7.0566475E-1],"split_indices":[898,0,612,320,0,24,0,0,0],"split_type":[0,0,0,0,0,0,0,0,0],"sum_hessian":[1.9E1,3E0,1.6E1,1.3E1,3E0,8E0,5E0,3E0,5E0],"tree_param":{"num_deleted":"0","num_feature":"1304","num_nodes":"9","size_leaf_vector":"1"}},{"base_weights":[-2.1209877E0,-4.5505786E0,3.4340298E0,9.561467E-1,2.0315242E0,-4.945441E-1,1.0238534E0],"categories":[],"categories_nodes":[],"categories_segments":[],"categories_sizes":[],"default_left":[0,0,0,0,0,0,0],"id":12,"left_children":[1,-1,3,5,-1,-1,-1],"loss_changes":[1.7916213E3,0E0,2.0650476E2,1.3847594E2,0E0,0E0,0E0],"parents":[2147483647,0,0,2,2,3,3],"right_children":[2,-1,4,6,-1,-1,-1],"split_conditions":[-8.7143265E-2,-4.5505786E0,1.7320508E0,1.7320508E0,2.0315242E0,-4.945441E-1,1.0238534E0],"split_indices":[552,0,460,343,0,0,0],"split_type":[0,0,0,0,0,0,0],"sum_hessian":[1.5E1,3E0,1.2E1,9E0,3E0,5E0,4E0],"tree_param":{"num_deleted":"0","num_feature":"1304","num_nodes":"7","size_leaf_vector":"1"}},{"base_weights":[-8.236123E-1,-3.956871E0,4.2575035E0,-2.4446015E-1,2.0299206E0,8.568686E-1,-1.2323939E0],"categories":[],"categories_nodes":[],"categories_segments":[],"categories_sizes":[],"default_left":[0,0,0,0,0,0,0],"id":13,"left_children":[1,-1,3,5,-1,-1,-1],"loss_changes":[1.5084337E3,0E0,3.3375232E2,2.05265E2,0E0,0E0,0E0],"parents":[2147483647,0,0,2,2,3,3],"right_children":[2,-1,4,6,-1,-1,-1],"split_conditions":[-1.1566685E0,-3.956871E0,1.1055416E0,5E-1,2.0299206E0,8.568686E-1,-1.2323939E0],"split_indices":[551,0,480,316,0,0,0],"split_type":[0,0,0,0,0,0,0],"sum_hessian":[1.5E1,3E0,1.2E1,7E0,5E0,4E0,3E0],"tree_param":{"num_deleted":"0","num_feature":"1304","num_nodes":"7","size_leaf_vector":"1"}},{"base_weights":[-3.077886E-1,-3.970217E0,4.1821885E0,6.705276E0,-9.647416E-1,4.1907125E0,1.8561556E0,6.326029E-1,9.6283865E-1],"categories":[],"categories_nodes":[],"categories_segments":[],"categories_sizes":[],"default_left":[0,0,0,0,0,0,0,0,0],"id":14,"left_children":[1,-1,3,5,-1,7,-1,-1,-1],"loss_changes":[1.5531086E3,0E0,3.3246667E2,6.886069E1,0E0,1.0147934E0,0E0,0E0,0E0],"parents":[2147483647,0,0,2,2,3,3,5,5],"right_children":[2,-1,4,6,-1,8,-1,-1,-1],"split_conditions":[-2.9726345E-2,-3.970217E0,1.7320508E0,1.1055416E0,-9.647416E-1,9.864134E-1,1.8561556E0,6.326029E-1,9.6283865E-1],"split_indices":[769,0,314,480,0,23,0,0,0],"split_type":[0,0,0,0,0,0,0,0,0],"sum_hessian":[1.7E1,3E0,1.4E1,1.1E1,3E0,6E0,5E0,3E0,3E0],"tree_param":{"num_deleted":"0","num_feature":"1304","num_nodes":"9","size_leaf_vector":"1"}},{"base_weights":[-6.0231138E-2,3.8777976E0,-3.4435725E0,6.2248397E-1,1.5838896E0,-3.6913466E-1,9.1297406E-1],"categories":[],"categories_nodes":[],"categories_segments":[],"categories_sizes":[],"default_left":[0,0,0,0,0,0,0],"id":15,"left_children":[1,3,-1,5,-1,-1,-1],"loss_changes":[1.1962574E3,1.9206232E2,0E0,8.42344E1,0E0,0E0,0E0],"parents":[2147483647,0,0,1,1,3,3],"right_children":[2,4,-1,6,-1,-1,-1],"split_conditions":[8.2322264E-1,1.1055416E0,-3.4435725E0,1.7320508E0,1.5838896E0,-3.6913466E-1,9.1297406E-1],"split_indices":[916,480,0,354,0,0,0],"split_type":[0,0,0,0,0,0,0],"sum_hessian":[1.7E1,1.4E1,3E0,8E0,6E0,5E0,3E0],"tree_param":{"num_deleted":"0","num_feature":"1304","num_nodes":"7","size_leaf_vector":"1"}},{"base_weights":[1.2545543E0,5.7671275E0,-3.4252162E0,3.560006E0,1.6006302E0,3.1812167E-1,9.570339E-1],"categories":[],"categories_nodes":[],"categories_segments":[],"categories_sizes":[],"default_left":[0,0,0,0,0,0,0],"id":16,"left_children":[1,3,-1,5,-1,-1,-1],"loss_changes":[1.3859596E3,6.3158264E1,0E0,1.6655113E1,0E0,0E0,0E0],"parents":[2147483647,0,0,1,1,3,3],"right_children":[2,4,-1,6,-1,-1,-1],"split_conditions":[2.910198E-1,1.1055416E0,-3.4252162E0,5.7735026E-1,1.6006302E0,3.1812167E-1,9.570339E-1],"split_indices":[681,480,0,311,0,0,0],"split_type":[0,0,0,0,0,0,0],"sum_hessian":[1.6E1,1.3E1,3E0,7E0,6E0,3E0,4E0],"tree_param":{"num_deleted":"0","num_feature":"1304","num_nodes":"7","size_leaf_vector":"1"}},{"base_weights":[3.1717577E0,1.4007686E0,9.255807E-1,-2.1461453E-1,6.4776725E-1],"categories":[],"categories_nodes":[],"categories_segments":[],"categories_sizes":[],"default_left":[0,0,0,0,0],"id":17,"left_children":[1,-1,3,-1,-1],"loss_changes":[1.5131769E2,0E0,5.4261303E1,0E0,0E0],"parents":[2147483647,0,0,2,2],"right_children":[2,-1,4,-1,-1],"split_conditions":[5.892869E-1,1.4007686E0,1.7320508E0,-2.1461453E-1,6.4776725E-1],"split_indices":[560,0,343,0,0],"split_type":[0,0,0,0,0],"sum_hessian":[1.7E1,6E0,1.1E1,6E0,5E0],"tree_param":{"num_deleted":"0","num_feature":"1304","num_nodes":"5","size_leaf_vector":"1"}},{"base_weights":[-1.8581871E0,-3.5017352E0,2.3608787E0,-5.9365916E-1,5.0590954E0,1.2170844E0,5.7037E-1],"categories":[],"categories_nodes":[],"categories_segments":[],"categories_sizes":[],"default_left":[0,0,0,0,0,0,0],"id":18,"left_children":[1,-1,3,-1,5,-1,-1],"loss_changes":[1.0317155E3,0E0,1.8029816E2,0E0,1.6308258E1,0E0,0E0],"parents":[2147483647,0,0,2,2,4,4],"right_children":[2,-1,4,-1,6,-1,-1],"split_conditions":[4.2008403E-1,-3.5017352E0,-5.8559996E-1,-5.9365916E-1,2E0,1.2170844E0,5.7037E-1],"split_indices":[520,0,34,0,317,0,0],"split_type":[0,0,0,0,0,0,0],"sum_hessian":[1.5E1,3E0,1.2E1,4E0,8E0,5E0,3E0],"tree_param":{"num_deleted":"0","num_feature":"1304","num_nodes":"7","size_leaf_vector":"1"}},{"base_weights":[-6.057968E-1,3.141907E0,-3.14816E0,5.360186E0,-8.105578E-1,8.158044E-1,1.1807625E0],"categories":[],"categories_nodes":[],"categories_segments":[],"categories_sizes":[],"default_left":[0,0,0,0,0,0,0],"id":19,"left_children":[1,3,-1,5,-1,-1,-1],"loss_changes":[9.457457E2,2.1730309E2,0E0,2.8320618E0,0E0,0E0,0E0],"parents":[2147483647,0,0,1,1,3,3],"right_children":[2,4,-1,6,-1,-1,-1],"split_conditions":[2.7994975E-1,1.7320508E0,-3.14816E0,1.1055416E0,-8.105578E-1,8.158044E-1,1.1807625E0],"split_indices":[610,314,0,480,0,0,0],"split_type":[0,0,0,0,0,0,0],"sum_hessian":[1.6E1,1.3E1,3E0,1E1,3E0,4E0,6E0],"tree_param":{"num_deleted":"0","num_feature":"1304","num_nodes":"7","size_leaf_vector":"1"}},{"base_weights":[-2.02621E-1,-2.9400392E0,2.7166138E0,7.6408154E-1,1.1480538E0,-1.1402749E0,9.826663E-1,4.7543588E-1,-1.1279919E0],"categories":[],"categories_nodes":[],"categories_segments":[],"categories_sizes":[],"default_left":[0,0,0,0,0,0,0,0,0],"id":20,"left_children":[1,-1,3,5,-1,7,-1,-1,-1],"loss_changes":[8.351369E2,0E0,9.782509E1,8.34343E1,0E0,1.2065161E2,0E0,0E0,0E0],"parents":[2147483647,0,0,2,2,3,3,5,5],"right_children":[2,-1,4,6,-1,8,-1,-1,-1],"split_conditions":[-3.7801677E-1,-2.9400392E0,1.1055416E0,2E0,1.1480538E0,1.5275252E0,9.826663E-1,4.7543588E-1,-1.1279919E0],"split_indices":[605,0,480,268,0,320,0,0,0],"split_type":[0,0,0,0,0,0,0,0,0],"sum_hessian":[1.9E1,3E0,1.6E1,1E1,6E0,7E0,3E0,4E0,3E0],"tree_param":{"num_deleted":"0","num_feature":"1304","num_nodes":"9","size_leaf_vector":"1"}},{"base_weights":[-1.2907745E0,1.9941611E0,-2.8992927E0,3.7188146E0,-7.127342E-1,1.1670748E0,2.0940702E0,1.6948046E-1,6.2769276E-1],"categories":[],"categories_nodes":[],"categories_segments":[],"categories_sizes":[],"default_left":[0,0,0,0,0,0,0,0,0],"id":21,"left_children":[1,3,-1,5,-1,-1,7,-1,-1],"loss_changes":[7.2212665E2,1.3071916E2,0E0,3.4170166E1,0E0,0E0,7.8210716E0,0E0,0E0],"parents":[2147483647,0,0,1,1,3,3,6,6],"right_children":[2,4,-1,6,-1,-1,8,-1,-1],"split_conditions":[3.4995025E-1,1.7320508E0,-2.8992927E0,5.892869E-1,-7.127342E-1,1.1670748E0,9.864134E-1,1.6948046E-1,6.2769276E-1],"split_indices":[557,314,0,560,0,0,23,0,0],"split_type":[0,0,0,0,0,0,0,0,0],"sum_hessian":[1.6E1,1.3E1,3E0,1E1,3E0,4E0,6E0,3E0,3E0],"tree_param":{"num_deleted":"0","num_feature":"1304","num_nodes":"9","size_leaf_vector":"1"}},{"base_weights":[-7.0864826E-1,-2.6108966E0,2.137095E0,6.719432E-1,1.4005908E0,-1.1675534E0,7.4563086E-1,2.9050687E-1,-8.974263E-1],"categories":[],"categories_nodes":[],"categories_segments":[],"categories_sizes":[],"default_left":[0,0,0,0,0,0,0,0,0],"id":22,"left_children":[1,-1,3,5,-1,7,-1,-1,-1],"loss_changes":[6.211575E2,0E0,1.0274764E2,6.521136E1,0E0,6.609684E1,0E0,0E0,0E0],"parents":[2147483647,0,0,2,2,3,3,5,5],"right_children":[2,-1,4,6,-1,8,-1,-1,-1],"split_conditions":[5.7735026E-1,-2.6108966E0,1.1055416E0,2E0,1.4005908E0,1.5275252E0,7.4563086E-1,2.9050687E-1,-8.974263E-1],"split_indices":[453,0,480,268,0,349,0,0,0],"split_type":[0,0,0,0,0,0,0,0,0],"sum_hessian":[1.7E1,3E0,1.4E1,1.1E1,3E0,7E0,4E0,4E0,3E0],"tree_param":{"num_deleted":"0","num_feature":"1304","num_nodes":"9","size_leaf_vector":"1"}},{"base_weights":[2.9965723E0,5.975126E0,8.331714E-1,1.3825283E0,8.275866E-1,-7.9590595E-1,8.7368464E-1,3.4924743E-1,-8.1019026E-1],"categories":[],"categories_nodes":[],"categories_segments":[],"categories_sizes":[],"default_left":[0,0,0,0,0,0,0,0,0],"id":23,"left_children":[1,3,5,-1,-1,7,-1,-1,-1],"loss_changes":[1.0983261E2,7.336731E0,6.073828E1,0E0,0E0,6.3095432E1,0E0,0E0,0E0],"parents":[2147483647,0,0,1,1,2,2,5,5],"right_children":[2,4,6,-1,-1,8,-1,-1,-1],"split_conditions":[4.5996556E-1,1.2046316E-1,2.3804762E0,1.3825283E0,8.275866E-1,1.5275252E0,8.7368464E-1,3.4924743E-1,-8.1019026E-1],"split_indices":[568,819,334,0,0,320,0,0,0],"split_type":[0,0,0,0,0,0,0,0,0],"sum_hessian":[1.7E1,7E0,1E1,4E0,3E0,7E0,3E0,4E0,3E0],"tree_param":{"num_deleted":"0","num_feature":"1304","num_nodes":"9","size_leaf_vector":"1"}},{"base_weights":[-1.3461113E0,1.6207672E0,-2.6517768E0,-1.3007388E0,1.2119486E0,1.7162266E-1,-9.3368644E-1],"categories":[],"categories_nodes":[],"categories_segments":[],"categories_sizes":[],"default_left":[0,0,0,0,0,0,0],"id":24,"left_children":[1,3,-1,5,-1,-1,-1],"loss_changes":[5.880733E2,1.7687138E2,0E0,6.232676E1,0E0,0E0,0E0],"parents":[2147483647,0,0,1,1,3,3],"right_children":[2,4,-1,6,-1,-1,-1],"split_conditions":[8.8277435E-1,1.1055416E0,-2.6517768E0,1.7320508E0,1.2119486E0,1.7162266E-1,-9.3368644E-1],"split_indices":[1025,480,0,314,0,0,0],"split_type":[0,0,0,0,0,0,0],"sum_hessian":[1.6E1,1.3E1,3E0,8E0,5E0,5E0,3E0],"tree_param":{"num_deleted":"0","num_feature":"1304","num_nodes":"7","size_leaf_vector":"1"}},{"base_weights":[2.667252E0,8.949711E-1,1.1365366E0,-7.905056E-1,1.0134106E0,2.1885374E-1,-7.5351125E-1],"categories":[],"categories_nodes":[],"categories_segments":[],"categories_sizes":[],"default_left":[0,0,0,0,0,0,0],"id":25,"left_children":[1,3,-1,5,-1,-1,-1],"loss_changes":[9.381314E1,8.126192E1,0E0,4.8371628E1,0E0,0E0,0E0],"parents":[2147483647,0,0,1,1,3,3],"right_children":[2,4,-1,6,-1,-1,-1],"split_conditions":[-2.054643E-1,2E0,1.1365366E0,1.5275252E0,1.0134106E0,2.1885374E-1,-7.5351125E-1],"split_indices":[934,268,0,320,0,0,0],"split_type":[0,0,0,0,0,0,0],"sum_hessian":[1.7E1,1.1E1,6E0,8E0,3E0,5E0,3E0],"tree_param":{"num_deleted":"0","num_feature":"1304","num_nodes":"7","size_leaf_vector":"1"}},{"base_weights":[1.5409884E0,9.342753E-1,6.720417E-1,-5.893019E-1,6.098212E-1,2.0998642E-1,-3.1206444E-1],"categories":[],"categories_nodes":[],"categories_segments":[],"categories_sizes":[],"default_left":[0,0,0,0,0,0,0],"id":26,"left_children":[1,-1,3,5,-1,-1,-1],"loss_changes":[4.1741825E1,0E0,3.7770805E1,1.3910911E1,0E0,0E0,0E0],"parents":[2147483647,0,0,2,2,3,3],"right_children":[2,-1,4,6,-1,-1,-1],"split_conditions":[4.3861532E-1,9.342753E-1,2E0,-1.53405E-1,6.098212E-1,2.0998642E-1,-3.1206444E-1],"split_indices":[542,0,268,24,0,0,0],"split_type":[0,0,0,0,0,0,0],"sum_hessian":[1.5E1,3E0,1.2E1,8E0,4E0,3E0,5E0],"tree_param":{"num_deleted":"0","num_feature":"1304","num_nodes":"7","size_leaf_vector":"1"}},{"base_weights":[-1.7659361E0,-2.8005006E0,1.0740553E0,-1.7348642E-2,7.218961E-1,-1.6448339E0,7.1619225E-1,2.0399716E-1,-9.9492913E-1],"categories":[],"categories_nodes":[],"categories_segments":[],"categories_sizes":[],"default_left":[0,0,0,0,0,0,0,0,0],"id":27,"left_children":[1,-1,3,5,-1,7,-1,-1,-1],"loss_changes":[6.126805E2,0E0,4.027745E1,6.199812E1,0E0,6.706471E1,0E0,0E0,0E0],"parents":[2147483647,0,0,2,2,3,3,5,5],"right_children":[2,-1,4,6,-1,8,-1,-1,-1],"split_conditions":[2.552469E-1,-2.8005006E0,2.912869E-1,2.3804762E0,7.218961E-1,5.7735026E-1,7.1619225E-1,2.0399716E-1,-9.9492913E-1],"split_indices":[554,0,554,334,0,311,0,0,0],"split_type":[0,0,0,0,0,0,0,0,0],"sum_hessian":[1.7E1,3E0,1.4E1,1E1,4E0,7E0,3E0,4E0,3E0],"tree_param":{"num_deleted":"0","num_feature":"1304","num_nodes":"9","size_leaf_vector":"1"}},{"base_weights":[-1.4192934E-1,-2.616601E0,3.3170445E0,2.036463E0,1.1118188E0,8.5760936E-2,5.784446E-1],"categories":[],"categories_nodes":[],"categories_segments":[],"categories_sizes":[],"default_left":[0,0,0,0,0,0,0],"id":28,"left_children":[1,-1,3,5,-1,-1,-1],"loss_changes":[7.013763E2,0E0,3.4139313E1,1.1612038E1,0E0,0E0,0E0],"parents":[2147483647,0,0,2,2,3,3],"right_children":[2,-1,4,6,-1,-1,-1],"split_conditions":[-9.112992E-2,-2.616601E0,9.0278333E-1,9.864134E-1,1.1118188E0,8.5760936E-2,5.784446E-1],"split_indices":[819,0,536,23,0,0,0],"split_type":[0,0,0,0,0,0,0],"sum_hessian":[1.5E1,3E0,1.2E1,8E0,4E0,3E0,5E0],"tree_param":{"num_deleted":"0","num_feature":"1304","num_nodes":"7","size_leaf_vector":"1"}},{"base_weights":[-4.914282E-1,-2.2756E0,2.015497E0,-7.542423E-2,1.1080267E0,-4.0447313E-1,3.0046463E-1],"categories":[],"categories_nodes":[],"categories_segments":[],"categories_sizes":[],"default_left":[0,0,0,0,0,0,0],"id":29,"left_children":[1,-1,3,5,-1,-1,-1],"loss_changes":[4.8269012E2,0E0,1.0757758E2,2.9885221E1,0E0,0E0,0E0],"parents":[2147483647,0,0,2,2,3,3],"right_children":[2,-1,4,6,-1,-1,-1],"split_conditions":[-9.9562126E-1,-2.2756E0,1.1055416E0,1.7320508E0,1.1080267E0,-4.0447313E-1,3.0046463E-1],"split_indices":[634,0,480,343,0,0,0],"split_type":[0,0,0,0,0,0,0],"sum_hessian":[1.7E1,3E0,1.4E1,9E0,5E0,4E0,5E0],"tree_param":{"num_deleted":"0","num_feature":"1304","num_nodes":"7","size_leaf_vector":"1"}},{"base_weights":[-8.736585E-1,1.3455609E0,-2.2313602E0,2.8122356E0,-3.1125084E-1,1.4627784E0,9.175964E-1,9.9308796E-2,4.5750862E-1],"categories":[],"categories_nodes":[],"categories_segments":[],"categories_sizes":[],"default_left":[0,0,0,0,0,0,0,0,0],"id":30,"left_children":[1,3,-1,5,-1,7,-1,-1,-1],"loss_changes":[4.262507E2,6.621812E1,0E0,2.411422E1,0E0,4.8861313E0,0E0,0E0,0E0],"parents":[2147483647,0,0,1,1,3,3,5,5],"right_children":[2,4,-1,6,-1,8,-1,-1,-1],"split_conditions":[3.5350785E-1,1.7320508E0,-2.2313602E0,1.1055416E0,-3.1125084E-1,9.864134E-1,9.175964E-1,9.9308796E-2,4.5750862E-1],"split_indices":[544,314,0,480,0,23,0,0,0],"split_type":[0,0,0,0,0,0,0,0,0],"sum_hessian":[1.8E1,1.5E1,3E0,1E1,5E0,6E0,4E0,3E0,3E0],"tree_param":{"num_deleted":"0","num_feature":"1304","num_nodes":"9","size_leaf_vector":"1"}},{"base_weights":[1.7144402E0,4.636859E0,6.449681E-2,1.0802577E0,6.85048E-1,-9.707831E-1,5.3320086E-1,7.9702586E-2,-4.523102E-1],"categories":[],"categories_nodes":[],"categories_segments":[],"categories_sizes":[],"default_left":[0,0,0,0,0,0,0,0,0],"id":31,"left_children":[1,3,5,-1,-1,7,-1,-1,-1],"loss_changes":[8.289035E1,2.1838684E0,3.1246906E1,0E0,0E0,1.5201832E1,0E0,0E0,0E0],"parents":[2147483647,0,0,1,1,2,2,5,5],"right_children":[2,4,6,-1,-1,8,-1,-1,-1],"split_conditions":[4.3861532E-1,-4.0794443E-2,2.3804762E0,1.0802577E0,6.85048E-1,5E-1,5.3320086E-1,7.9702586E-2,-4.523102E-1],"split_indices":[542,552,334,0,0,330,0,0,0],"split_type":[0,0,0,0,0,0,0,0,0],"sum_hessian":[1.7E1,6E0,1.1E1,3E0,3E0,8E0,3E0,4E0,4E0],"tree_param":{"num_deleted":"0","num_feature":"1304","num_nodes":"9","size_leaf_vector":"1"}},{"base_weights":[-5.371213E-3,2.495358E0,-2.1807296E0,-9.7297885E-2,3.6774795E0,4.6202672E-1,9.5584506E-1],"categories":[],"categories_nodes":[],"categories_segments":[],"categories_sizes":[],"default_left":[0,0,0,0,0,0,0],"id":32,"left_children":[1,3,-1,-1,5,-1,-1],"loss_changes":[4.8255707E2,5.0590027E1,0E0,0E0,1.3675156E1,0E0,0E0],"parents":[2147483647,0,0,1,1,4,4],"right_children":[2,4,-1,-1,6,-1,-1],"split_conditions":[2.7994975E-1,5.7735026E-1,-2.1807296E0,-9.7297885E-2,-1.53405E-1,4.6202672E-1,9.5584506E-1],"split_indices":[610,311,0,0,24,0,0],"split_type":[0,0,0,0,0,0,0],"sum_hessian":[1.7E1,1.4E1,3E0,4E0,1E1,5E0,5E0],"tree_param":{"num_deleted":"0","num_feature":"1304","num_nodes":"7","size_leaf_vector":"1"}},{"base_weights":[-6.366947E-1,4.3996496E0,-4.673407E0,9.9727684E-1,5.953344E-1,-8.103386E0,1.2104479E-1,-2.3540454E0,-7.310939E-1],"categories":[],"categories_nodes":[],"categories_segments":[],"categories_sizes":[],"default_left":[0,0,0,0,0,0,0,0,0],"id":33,"left_children":[1,3,5,-1,-1,7,-1,-1,-1],"loss_changes":[3.743373E2,4.3944855E0,1.8616862E2,0E0,0E0,9.606708E1,0E0,0E0,0E0],"parents":[2147483647,0,0,1,1,2,2,5,5],"right_children":[2,4,6,-1,-1,8,-1,-1,-1],"split_conditions":[2.8749263E-1,2.7461284E-1,1.7320508E0,9.9727684E-1,5.953344E-1,9.864134E-1,1.2104479E-1,-2.3540454E0,-7.310939E-1],"split_indices":[599,601,343,0,0,23,0,0,0],"split_type":[0,0,0,0,0,0,0,0,0],"sum_hessian":[1.8E1,8E0,1E1,5E0,3E0,6E0,4E0,3E0,3E0],"tree_param":{"num_deleted":"0","num_feature":"1304","num_nodes":"9","size_leaf_vector":"1"}},{"base_weights":[1.0639194E0,8.914603E-2,7.4628305E-1,2.096685E-1,-2.2106227E-1],"categories":[],"categories_nodes":[],"categories_segments":[],"categories_sizes":[],"default_left":[0,0,0,0,0],"id":34,"left_children":[1,3,-1,-1,-1],"loss_changes":[3.2412323E1,1.1156551E1,0E0,0E0,0E0],"parents":[2147483647,0,0,1,1],"right_children":[2,4,-1,-1,-1],"split_conditions":[1.1055416E0,1.5275252E0,7.4628305E-1,2.096685E-1,-2.2106227E-1],"split_indices":[480,349,0,0,0],"split_type":[0,0,0,0,0],"sum_hessian":[1.2E1,9E0,3E0,5E0,4E0],"tree_param":{"num_deleted":"0","num_feature":"1304","num_nodes":"5","size_leaf_vector":"1"}},{"base_weights":[-1.2102008E0,1.0425932E0,-2.0481806E0,3.0161E0,-4.1477975E-1,7.167151E-1,4.936194E-1],"categories":[],"categories_nodes":[],"categories_segments":[],"categories_sizes":[],"default_left":[0,0,0,0,0,0,0],"id":35,"left_children":[1,3,-1,5,-1,-1,-1],"loss_changes":[3.3827158E2,8.344154E1,0E0,7.203369E-1,0E0,0E0,0E0],"parents":[2147483647,0,0,1,1,3,3],"right_children":[2,4,-1,6,-1,-1,-1],"split_conditions":[1.0088477E0,9.864134E-1,-2.0481806E0,-1.0781117E-1,-4.1477975E-1,7.167151E-1,4.936194E-1],"split_indices":[596,23,0,540,0,0,0],"split_type":[0,0,0,0,0,0,0],"sum_hessian":[1.6E1,1.3E1,3E0,8E0,5E0,3E0,5E0],"tree_param":{"num_deleted":"0","num_feature":"1304","num_nodes":"7","size_leaf_vector":"1"}},{"base_weights":[-6.8330646E-1,-1.903141E0,1.3557664E0,2.5183935E0,-1.4816335E-1,2.787403E-1,6.506172E-1],"categories":[],"categories_nodes":[],"categories_segments":[],"categories_sizes":[],"default_left":[0,0,0,0,0,0,0],"id":36,"left_children":[1,-1,3,5,-1,-1,-1],"loss_changes":[3.1823508E2,0E0,3.522608E1,7.034504E0,0E0,0E0,0E0],"parents":[2147483647,0,0,2,2,3,3],"right_children":[2,-1,4,6,-1,-1,-1],"split_conditions":[-4.0867308E-1,-1.903141E0,9.864134E-1,1.1055416E0,-1.4816335E-1,2.787403E-1,6.506172E-1],"split_indices":[642,0,23,480,0,0,0],"split_type":[0,0,0,0,0,0,0],"sum_hessian":[1.7E1,3E0,1.4E1,9E0,5E0,4E0,5E0],"tree_param":{"num_deleted":"0","num_feature":"1304","num_nodes":"7","size_leaf_vector":"1"}},{"base_weights":[-3.901094E-1,-1.7182459E0,1.2656322E0,2.3857152E0,-2.3503232E-1,2.3867068E-1,6.469736E-1],"categories":[],"categories_nodes":[],"categories_segments":[],"categories_sizes":[],"default_left":[0,0,0,0,0,0,0],"id":37,"left_children":[1,-1,3,5,-1,-1,-1],"loss_changes":[2.6770367E2,0E0,4.5252495E1,1.1045483E1,0E0,0E0,0E0],"parents":[2147483647,0,0,2,2,3,3],"right_children":[2,-1,4,6,-1,-1,-1],"split_conditions":[-1.1360627E0,-1.7182459E0,1.7320508E0,1.1055416E0,-2.3503232E-1,2.3867068E-1,6.469736E-1],"split_indices":[624,0,314,480,0,0,0],"split_type":[0,0,0,0,0,0,0],"sum_hessian":[1.9E1,3E0,1.6E1,1.1E1,5E0,5E0,6E0],"tree_param":{"num_deleted":"0","num_feature":"1304","num_nodes":"7","size_leaf_vector":"1"}},{"base_weights":[-8.3473176E-1,-1.6445806E0,1.0052375E0,2.1876025E0,-3.2087067E-1,1.9876471E-1,6.956384E-1],"categories":[],"categories_nodes":[],"categories_segments":[],"categories_sizes":[],"default_left":[0,0,0,0,0,0,0],"id":38,"left_children":[1,-1,3,5,-1,-1,-1],"loss_changes":[2.2619168E2,0E0,4.1902985E1,1.3878944E1,0E0,0E0,0E0],"parents":[2147483647,0,0,2,2,3,3],"right_children":[2,-1,4,6,-1,-1,-1],"split_conditions":[-5.8189284E-2,-1.6445806E0,1.5275252E0,1.7320508E0,-3.2087067E-1,1.9876471E-1,6.956384E-1],"split_indices":[795,0,320,460,0,0,0],"split_type":[0,0,0,0,0,0,0],"sum_hessian":[1.6E1,3E0,1.3E1,9E0,4E0,5E0,4E0],"tree_param":{"num_deleted":"0","num_feature":"1304","num_nodes":"7","size_leaf_vector":"1"}},{"base_weights":[-2.5645536E-1,-1.5112492E0,1.3126769E0,2.3441224E0,-1.496496E-1,1.4739559E0,6.9093907E-1,1.2940939E-1,4.3166375E-1],"categories":[],"categories_nodes":[],"categories_segments":[],"categories_sizes":[],"default_left":[0,0,0,0,0,0,0,0,0],"id":39,"left_children":[1,-1,3,5,-1,7,-1,-1,-1],"loss_changes":[2.1427217E2,0E0,3.2890312E1,9.310394E0,0E0,3.3485355E0,0E0,0E0,0E0],"parents":[2147483647,0,0,2,2,3,3,5,5],"right_children":[2,-1,4,6,-1,8,-1,-1,-1],"split_conditions":[-4.0867308E-1,-1.5112492E0,1.7320508E0,1.1055416E0,-1.496496E-1,9.864134E-1,6.9093907E-1,1.2940939E-1,4.3166375E-1],"split_indices":[642,0,314,480,0,23,0,0,0],"split_type":[0,0,0,0,0,0,0,0,0],"sum_hessian":[1.8E1,3E0,1.5E1,1E1,5E0,6E0,4E0,3E0,3E0],"tree_param":{"num_deleted":"0","num_feature":"1304","num_nodes":"9","size_leaf_vector":"1"}},{"base_weights":[-1.7653131E-1,-1.4130361E0,1.3030988E0,6.8894714E-2,7.219756E-1,-1.3764814E0,4.3242067E-1,1.0558863E-1,-6.2978107E-1],"categories":[],"categories_nodes":[],"categories_segments":[],"categories_sizes":[],"default_left":[0,0,0,0,0,0,0,0,0],"id":40,"left_children":[1,-1,3,5,-1,7,-1,-1,-1],"loss_changes":[1.9072015E2,0E0,4.4379932E1,3.203925E1,0E0,2.2035908E1,0E0,0E0,0E0],"parents":[2147483647,0,0,2,2,3,3,5,5],"right_children":[2,-1,4,6,-1,8,-1,-1,-1],"split_conditions":[-3.4973514E-1,-1.4130361E0,1.1055416E0,2E0,7.219756E-1,9.864134E-1,4.3242067E-1,1.0558863E-1,-6.2978107E-1],"split_indices":[592,0,480,268,0,23,0,0,0],"split_type":[0,0,0,0,0,0,0,0,0],"sum_hessian":[1.8E1,3E0,1.5E1,1E1,5E0,6E0,4E0,3E0,3E0],"tree_param":{"num_deleted":"0","num_feature":"1304","num_nodes":"9","size_leaf_vector":"1"}},{"base_weights":[2.336629E0,7.4918464E-2,3.2021494E0,2.5293496E0,7.625838E-1,7.1228915E-1,2.5061083E-1],"categories":[],"categories_nodes":[],"categories_segments":[],"categories_sizes":[],"default_left":[0,0,0,0,0,0,0],"id":41,"left_children":[1,-1,3,5,-1,-1,-1],"loss_changes":[2.7173218E1,0E0,3.0672302E0,7.551819E0,0E0,0E0,0E0],"parents":[2147483647,0,0,2,2,3,3],"right_children":[2,-1,4,6,-1,-1,-1],"split_conditions":[5.7735026E-1,7.4918464E-2,-1.53405E-1,2.7461284E-1,7.625838E-1,7.1228915E-1,2.5061083E-1],"split_indices":[311,0,24,601,0,0,0],"split_type":[0,0,0,0,0,0,0],"sum_hessian":[1.6E1,5E0,1.1E1,6E0,5E0,3E0,3E0],"tree_param":{"num_deleted":"0","num_feature":"1304","num_nodes":"7","size_leaf_vector":"1"}},{"base_weights":[-5.562236E-1,9.975369E-1,-1.3614177E0,2.344484E0,-2.2905134E-1,2.656828E-1,6.3387984E-1],"categories":[],"categories_nodes":[],"categories_segments":[],"categories_sizes":[],"default_left":[0,0,0,0,0,0,0],"id":42,"left_children":[1,3,-1,5,-1,-1,-1],"loss_changes":[1.6172626E2,3.902142E1,0E0,6.2609024E0,0E0,0E0,0E0],"parents":[2147483647,0,0,1,1,3,3],"right_children":[2,4,-1,6,-1,-1,-1],"split_conditions":[3.8192588E-1,1.7320508E0,-1.3614177E0,1.1055416E0,-2.2905134E-1,2.656828E-1,6.3387984E-1],"split_indices":[916,314,0,480,0,0,0],"split_type":[0,0,0,0,0,0,0],"sum_hessian":[1.6E1,1.3E1,3E0,8E0,5E0,4E0,4E0],"tree_param":{"num_deleted":"0","num_feature":"1304","num_nodes":"7","size_leaf_vector":"1"}},{"base_weights":[-7.143487E-1,3.126913E0,-3.0358236E0,4.6449673E-1,7.2591746E-1,-5.152301E0,3.7675512E-1,7.168551E-2,-1.7908677E0],"categories":[],"categories_nodes":[],"categories_segments":[],"categories_sizes":[],"default_left":[0,0,0,0,0,0,0,0,0],"id":43,"left_children":[1,3,5,-1,-1,7,-1,-1,-1],"loss_changes":[1.4645628E2,8.780174E-1,1.08980896E2,0E0,0E0,1.5786536E2,0E0,0E0,0E0],"parents":[2147483647,0,0,1,1,2,2,5,5],"right_children":[2,4,6,-1,-1,8,-1,-1,-1],"split_conditions":[1.715847E-2,2.7461284E-1,2.3804762E0,4.6449673E-1,7.2591746E-1,5.7735026E-1,3.7675512E-1,7.168551E-2,-1.7908677E0],"split_indices":[628,601,334,0,0,311,0,0,0],"split_type":[0,0,0,0,0,0,0,0,0],"sum_hessian":[1.6E1,6E0,1E1,3E0,3E0,7E0,3E0,3E0,4E0],"tree_param":{"num_deleted":"0","num_feature":"1304","num_nodes":"9","size_leaf_vector":"1"}},{"base_weights":[-6.315069E-1,-1.2865808E0,8.127866E-1,1.8523657E0,-1.6866532E-1,2.574297E-1,5.143993E-1],"categories":[],"categories_nodes":[],"categories_segments":[],"categories_sizes":[],"default_left":[0,0,0,0,0,0,0],"id":44,"left_children":[1,-1,3,5,-1,-1,-1],"loss_changes":[1.3943813E2,0E0,2.3259182E1,2.6930141E0,0E0,0E0,0E0],"parents":[2147483647,0,0,2,2,3,3],"right_children":[2,-1,4,6,-1,-1,-1],"split_conditions":[-4.4647723E-1,-1.2865808E0,1.5275252E0,1.7320508E0,-1.6866532E-1,2.574297E-1,5.143993E-1],"split_indices":[880,0,320,460,0,0,0],"split_type":[0,0,0,0,0,0,0],"sum_hessian":[1.6E1,3E0,1.3E1,8E0,5E0,5E0,3E0],"tree_param":{"num_deleted":"0","num_feature":"1304","num_nodes":"7","size_leaf_vector":"1"}},{"base_weights":[-2.696572E-1,1.0094037E0,-1.1645764E0,-2.758781E-1,6.3776964E-1,-3.6435828E-1,3.321495E-1],"categories":[],"categories_nodes":[],"categories_segments":[],"categories_sizes":[],"default_left":[0,0,0,0,0,0,0],"id":45,"left_children":[1,3,-1,5,-1,-1,-1],"loss_changes":[1.2561665E2,4.0968407E1,0E0,2.9161312E1,0E0,0E0,0E0],"parents":[2147483647,0,0,1,1,3,3],"right_children":[2,4,-1,6,-1,-1,-1],"split_conditions":[2.3804762E0,1.5275252E0,-1.1645764E0,2E0,6.3776964E-1,-3.6435828E-1,3.321495E-1],"split_indices":[502,522,0,268,0,0,0],"split_type":[0,0,0,0,0,0,0],"sum_hessian":[1.7E1,1.4E1,3E0,9E0,5E0,5E0,4E0],"tree_param":{"num_deleted":"0","num_feature":"1304","num_nodes":"7","size_leaf_vector":"1"}},{"base_weights":[-1.9202335E-1,-1.0533328E0,1.0642375E0,8.717678E-2,6.1961734E-1,-2.262887E-1,1.4237939E-1],"categories":[],"categories_nodes":[],"categories_segments":[],"categories_sizes":[],"default_left":[0,0,0,0,0,0,0],"id":46,"left_children":[1,-1,3,5,-1,-1,-1],"loss_changes":[1.0630597E2,0E0,2.685688E1,7.426009E0,0E0,0E0,0E0],"parents":[2147483647,0,0,2,2,3,3],"right_children":[2,-1,4,6,-1,-1,-1],"split_conditions":[-8.727848E-2,-1.0533328E0,1.1055416E0,5E-1,6.1961734E-1,-2.262887E-1,1.4237939E-1],"split_indices":[968,0,480,355,0,0,0],"split_type":[0,0,0,0,0,0,0],"sum_hessian":[1.6E1,3E0,1.3E1,9E0,4E0,3E0,6E0],"tree_param":{"num_deleted":"0","num_feature":"1304","num_nodes":"7","size_leaf_vector":"1"}},{"base_weights":[-5.9369102E-2,-1.1090987E0,1.2004517E0,2.2549691E0,-2.7863073E-1,6.096334E-1,1.8146291E0,1.9025177E-1,5.525122E-1],"categories":[],"categories_nodes":[],"categories_segments":[],"categories_sizes":[],"default_left":[0,0,0,0,0,0,0,0,0],"id":47,"left_children":[1,-1,3,5,-1,-1,7,-1,-1],"loss_changes":[1.22351036E2,0E0,3.9862514E1,2.6331253E0,0E0,0E0,5.507839E0,0E0,0E0],"parents":[2147483647,0,0,2,2,3,3,6,6],"right_children":[2,-1,4,6,-1,-1,8,-1,-1],"split_conditions":[-2.638757E-1,-1.1090987E0,1.7320508E0,-1.4754336E-1,-2.7863073E-1,6.096334E-1,9.864134E-1,1.9025177E-1,5.525122E-1],"split_indices":[589,0,314,568,0,0,23,0,0],"split_type":[0,0,0,0,0,0,0,0,0],"sum_hessian":[1.7E1,3E0,1.4E1,1E1,4E0,3E0,7E0,4E0,3E0],"tree_param":{"num_deleted":"0","num_feature":"1304","num_nodes":"9","size_leaf_vector":"1"}},{"base_weights":[1.2150599E0,2.1850379E0,-2.8091303E-1,2.922324E-1,5.3077686E-1],"categories":[],"categories_nodes":[],"categories_segments":[],"categories_sizes":[],"default_left":[0,0,0,0,0],"id":48,"left_children":[1,3,-1,-1,-1],"loss_changes":[3.9629463E1,3.1944084E0,0E0,0E0,0E0],"parents":[2147483647,0,0,1,1],"right_children":[2,4,-1,-1,-1],"split_conditions":[1.7320508E0,8.726083E-1,-2.8091303E-1,2.922324E-1,5.3077686E-1],"split_indices":[314,606,0,0,0],"split_type":[0,0,0,0,0],"sum_hessian":[1.5E1,1.1E1,4E0,5E0,6E0],"tree_param":{"num_deleted":"0","num_feature":"1304","num_nodes":"5","size_leaf_vector":"1"}},{"base_weights":[1.1468716E0,1.1756422E-1,4.2229006E-1,-1.840581E-1,3.5821056E-1],"categories":[],"categories_nodes":[],"categories_segments":[],"categories_sizes":[],"default_left":[0,0,0,0,0],"id":49,"left_children":[1,3,-1,-1,-1],"loss_changes":[1.6630634E1,1.5079594E1,0E0,0E0,0E0],"parents":[2147483647,0,0,1,1],"right_children":[2,4,-1,-1,-1],"split_conditions":[1.1055416E0,1.7320508E0,4.2229006E-1,-1.840581E-1,3.5821056E-1],"split_indices":[480,343,0,0,0],"split_type":[0,0,0,0,0],"sum_hessian":[1.6E1,8E0,8E0,5E0,3E0],"tree_param":{"num_deleted":"0","num_feature":"1304","num_nodes":"5","size_leaf_vector":"1"}},{"base_weights":[-1.7215239E-1,-1.1073871E0,9.0958464E-1,1.5557615E0,-1.01661995E-1,1.2142129E0,4.0603253E-1,4.572497E-2,3.7420645E-1],"categories":[],"categories_nodes":[],"categories_segments":[],"categories_sizes":[],"default_left":[0,0,0,0,0,0,0,0,0],"id":50,"left_children":[1,-1,3,5,-1,7,-1,-1,-1],"loss_changes":[1.14464485E2,0E0,1.5104683E1,1.4267368E0,0E0,4.7756414E0,0E0,0E0,0E0],"parents":[2147483647,0,0,2,2,3,3,5,5],"right_children":[2,-1,4,6,-1,8,-1,-1,-1],"split_conditions":[-1.1584545E0,-1.1073871E0,1.7320508E0,9.864134E-1,-1.01661995E-1,-6.1393654E-1,4.0603253E-1,4.572497E-2,3.7420645E-1],"split_indices":[566,0,314,23,0,571,0,0,0],"split_type":[0,0,0,0,0,0,0,0,0],"sum_hessian":[1.9E1,3E0,1.6E1,1.1E1,5E0,7E0,4E0,3E0,4E0],"tree_param":{"num_deleted":"0","num_feature":"1304","num_nodes":"9","size_leaf_vector":"1"}},{"base_weights":[-2.1127887E-1,-1.029617E0,8.505219E-1,1.4812707E0,-8.245704E-2,1.0337452E0,4.0687895E-1,3.730864E-2,3.5616016E-1],"categories":[],"categories_nodes":[],"categories_segments":[],"categories_sizes":[],"default_left":[0,0,0,0,0,0,0,0,0],"id":51,"left_children":[1,-1,3,5,-1,7,-1,-1,-1],"loss_changes":[9.804006E1,0E0,1.2307701E1,2.239008E0,0E0,3.9965844E0,0E0,0E0,0E0],"parents":[2147483647,0,0,2,2,3,3,5,5],"right_children":[2,-1,4,6,-1,8,-1,-1,-1],"split_conditions":[-3.7801677E-1,-1.029617E0,1.7320508E0,1.1055416E0,-8.245704E-2,9.864134E-1,4.0687895E-1,3.730864E-2,3.5616016E-1],"split_indices":[605,0,314,480,0,23,0,0,0],"split_type":[0,0,0,0,0,0,0,0,0],"sum_hessian":[1.8E1,3E0,1.5E1,1E1,5E0,6E0,4E0,3E0,3E0],"tree_param":{"num_deleted":"0","num_feature":"1304","num_nodes":"9","size_leaf_vector":"1"}},{"base_weights":[-8.307627E-1,2.1594341E-1,-9.368945E-1,1.0575782E0,-2.8247723E-1,9.114863E-2,3.8429976E-1],"categories":[],"categories_nodes":[],"categories_segments":[],"categories_sizes":[],"default_left":[0,0,0,0,0,0,0],"id":52,"left_children":[1,3,-1,5,-1,-1,-1],"loss_changes":[6.2817616E1,1.7283873E1,0E0,4.179864E0,0E0,0E0,0E0],"parents":[2147483647,0,0,1,1,3,3],"right_children":[2,4,-1,6,-1,-1,-1],"split_conditions":[2.3804762E0,1.5275252E0,-9.368945E-1,1.1055416E0,-2.8247723E-1,9.114863E-2,3.8429976E-1],"split_indices":[477,320,0,480,0,0,0],"split_type":[0,0,0,0,0,0,0],"sum_hessian":[1.5E1,1.2E1,3E0,8E0,4E0,5E0,3E0],"tree_param":{"num_deleted":"0","num_feature":"1304","num_nodes":"7","size_leaf_vector":"1"}},{"base_weights":[1.18463255E-1,1.4827477E0,-3.4894675E-1,2.1135691E-1,3.7809968E-1],"categories":[],"categories_nodes":[],"categories_segments":[],"categories_sizes":[],"default_left":[0,0,0,0,0],"id":53,"left_children":[1,3,-1,-1,-1],"loss_changes":[3.2056973E1,8.6338425E-1,0E0,0E0,0E0],"parents":[2147483647,0,0,1,1],"right_children":[2,4,-1,-1,-1],"split_conditions":[9.864134E-1,2E0,-3.4894675E-1,2.1135691E-1,3.7809968E-1],"split_indices":[23,473,0,0,0],"split_type":[0,0,0,0,0],"sum_hessian":[1.2E1,7E0,5E0,4E0,3E0],"tree_param":{"num_deleted":"0","num_feature":"1304","num_nodes":"5","size_leaf_vector":"1"}},{"base_weights":[4.488511E-2,-9.736688E-1,1.0975064E0,6.0554546E-1,5.7032514E-1,1.4136348E0,-3.4483615E-1,1.1569296E0,3.578323E-1,1.0231589E-1,3.3805376E-1],"categories":[],"categories_nodes":[],"categories_segments":[],"categories_sizes":[],"default_left":[0,0,0,0,0,0,0,0,0,0,0],"id":54,"left_children":[1,-1,3,5,-1,7,-1,9,-1,-1,-1],"loss_changes":[9.68435E1,0E0,1.3116293E1,2.3774368E1,0E0,5.2147865E-1,0E0,2.0325785E0,0E0,0E0,0E0],"parents":[2147483647,0,0,2,2,3,3,5,5,7,7],"right_children":[2,-1,4,6,-1,8,-1,10,-1,-1,-1],"split_conditions":[-5.410041E-1,-9.736688E-1,2E0,1.7320508E0,5.7032514E-1,-1.0321294E-1,-3.4483615E-1,9.864134E-1,3.578323E-1,1.0231589E-1,3.3805376E-1],"split_indices":[1116,0,317,314,0,594,0,23,0,0,0],"split_type":[0,0,0,0,0,0,0,0,0,0,0],"sum_hessian":[1.8E1,3E0,1.5E1,1.2E1,3E0,9E0,3E0,6E0,3E0,3E0,3E0],"tree_param":{"num_deleted":"0","num_feature":"1304","num_nodes":"11","size_leaf_vector":"1"}},{"base_weights":[-1.7559745E-3,-8.7479556E-1,1.1657947E0,1.8335936E0,3.8365774E-2,4.2695197E-1,2.5034785E-1],"categories":[],"categories_nodes":[],"categories_segments":[],"categories_sizes":[],"default_left":[0,0,0,0,0,0,0],"id":55,"left_children":[1,-1,3,5,-1,-1,-1],"loss_changes":[8.000697E1,0E0,7.8346863E0,7.8915787E-1,0E0,0E0,0E0],"parents":[2147483647,0,0,2,2,3,3],"right_children":[2,-1,4,6,-1,-1,-1],"split_conditions":[-1.7175157E-1,-8.7479556E-1,9.864134E-1,4.1773903E-1,3.8365774E-2,4.2695197E-1,2.5034785E-1],"split_indices":[644,0,23,550,0,0,0],"split_type":[0,0,0,0,0,0,0],"sum_hessian":[1.5E1,3E0,1.2E1,7E0,5E0,4E0,3E0],"tree_param":{"num_deleted":"0","num_feature":"1304","num_nodes":"7","size_leaf_vector":"1"}},{"base_weights":[-1.0341003E-1,-8.266374E-1,9.748477E-1,-3.716375E-2,3.5165784E-1],"categories":[],"categories_nodes":[],"categories_segments":[],"categories_sizes":[],"default_left":[0,0,0,0,0],"id":56,"left_children":[1,-1,3,-1,-1],"loss_changes":[6.80652E1,0E0,1.162452E1,0E0,0E0],"parents":[2147483647,0,0,2,2],"right_children":[2,-1,4,-1,-1],"split_conditions":[-9.9562126E-1,-8.266374E-1,5.7735026E-1,-3.716375E-2,3.5165784E-1],"split_indices":[634,0,311,0,0],"split_type":[0,0,0,0,0],"sum_hessian":[1.5E1,3E0,1.2E1,5E0,7E0],"tree_param":{"num_deleted":"0","num_feature":"1304","num_nodes":"5","size_leaf_vector":"1"}},{"base_weights":[-3.9547777E-1,-7.796225E-1,4.1534555E-1,-1.9310723E-1,3.681782E-1,-1.5816476E0,3.6673892E-1,-5.414216E-3,-5.966611E-1],"categories":[],"categories_nodes":[],"categories_segments":[],"categories_sizes":[],"default_left":[0,0,0,0,0,0,0,0,0],"id":57,"left_children":[1,-1,3,5,-1,7,-1,-1,-1],"loss_changes":[5.013013E1,0E0,1.2668526E1,2.9766016E1,0E0,1.3982169E1,0E0,0E0,0E0],"parents":[2147483647,0,0,2,2,3,3,5,5],"right_children":[2,-1,4,6,-1,8,-1,-1,-1],"split_conditions":[-3.4324816E-1,-7.796225E-1,1.1055416E0,2E0,3.681782E-1,1.5275252E0,3.6673892E-1,-5.414216E-3,-5.966611E-1],"split_indices":[547,0,480,268,0,320,0,0,0],"split_type":[0,0,0,0,0,0,0,0,0],"sum_hessian":[1.7E1,3E0,1.4E1,1E1,4E0,6E0,4E0,3E0,3E0],"tree_param":{"num_deleted":"0","num_feature":"1304","num_nodes":"9","size_leaf_vector":"1"}},{"base_weights":[2.682929E-1,1.133534E0,-7.577285E-1,-1.4463757E-1,1.8143567E0,1.2119294E0,4.839166E-1,1.2823804E-1,3.3307204E-1],"categories":[],"categories_nodes":[],"categories_segments":[],"categories_sizes":[],"default_left":[0,0,0,0,0,0,0,0,0],"id":58,"left_children":[1,3,-1,-1,5,7,-1,-1,-1],"loss_changes":[6.5807884E1,1.9623762E1,0E0,0E0,3.743599E0,1.4423294E0,0E0,0E0,0E0],"parents":[2147483647,0,0,1,1,4,4,5,5],"right_children":[2,4,-1,-1,6,8,-1,-1,-1],"split_conditions":[3.7588057E-1,5E-1,-7.577285E-1,-1.4463757E-1,1.210395E0,1.501395E0,4.839166E-1,1.2823804E-1,3.3307204E-1],"split_indices":[1160,355,0,0,24,536,0,0,0],"split_type":[0,0,0,0,0,0,0,0,0],"sum_hessian":[1.8E1,1.5E1,3E0,4E0,1.1E1,6E0,5E0,3E0,3E0],"tree_param":{"num_deleted":"0","num_feature":"1304","num_nodes":"9","size_leaf_vector":"1"}},{"base_weights":[-4.711218E-2,9.112917E-1,-6.677131E-1,-7.168737E-2,1.3871006E0,1.6964759E-1,3.2548052E-1],"categories":[],"categories_nodes":[],"categories_segments":[],"categories_sizes":[],"default_left":[0,0,0,0,0,0,0],"id":59,"left_children":[1,3,-1,-1,5,-1,-1],"loss_changes":[4.622157E1,6.9077215E0,0E0,0E0,8.551836E-1,0E0,0E0],"parents":[2147483647,0,0,1,1,4,4],"right_children":[2,4,-1,-1,6,-1,-1],"split_conditions":[3.5350785E-1,5E-1,-6.677131E-1,-7.168737E-2,1.1055416E0,1.6964759E-1,3.2548052E-1],"split_indices":[544,316,0,0,480,0,0],"split_type":[0,0,0,0,0,0,0],"sum_hessian":[1.4E1,1.1E1,3E0,3E0,8E0,3E0,5E0],"tree_param":{"num_deleted":"0","num_feature":"1304","num_nodes":"7","size_leaf_vector":"1"}},{"base_weights":[-6.376094E-2,1.5704061E0,-1.696563E0,3.5631895E-1,2.118519E-1,-5.940147E-1,1.1041635E-1],"categories":[],"categories_nodes":[],"categories_segments":[],"categories_sizes":[],"default_left":[0,0,0,0,0,0,0],"id":60,"left_children":[1,3,5,-1,-1,-1,-1],"loss_changes":[4.378694E1,5.709076E-1,2.4880955E1,0E0,0E0,0E0,0E0],"parents":[2147483647,0,0,1,1,2,2],"right_children":[2,4,6,-1,-1,-1,-1],"split_conditions":[2.8749263E-1,1.3259386E0,2E0,3.5631895E-1,2.118519E-1,-5.940147E-1,1.1041635E-1],"split_indices":[599,612,317,0,0,0,0],"split_type":[0,0,0,0,0,0,0],"sum_hessian":[1.6E1,8E0,8E0,5E0,3E0,5E0,3E0],"tree_param":{"num_deleted":"0","num_feature":"1304","num_nodes":"7","size_leaf_vector":"1"}},{"base_weights":[9.461623E-1,-1.7710607E-2,1.4103614E0,9.5733464E-1,4.8756966E-1,2.4329643E-1,8.67468E-2],"categories":[],"categories_nodes":[],"categories_segments":[],"categories_sizes":[],"default_left":[0,0,0,0,0,0,0],"id":61,"left_children":[1,-1,3,5,-1,-1,-1],"loss_changes":[7.823448E0,0E0,4.9321423E0,1.069974E0,0E0,0E0,0E0],"parents":[2147483647,0,0,2,2,3,3],"right_children":[2,-1,4,6,-1,-1,-1],"split_conditions":[5.7735026E-1,-1.7710607E-2,9.864134E-1,3.2732737E-1,4.8756966E-1,2.4329643E-1,8.67468E-2],"split_indices":[311,0,23,601,0,0,0],"split_type":[0,0,0,0,0,0,0],"sum_hessian":[1.6E1,5E0,1.1E1,8E0,3E0,5E0,3E0],"tree_param":{"num_deleted":"0","num_feature":"1304","num_nodes":"7","size_leaf_vector":"1"}},{"base_weights":[-8.0703187E-1,2.0590696E-1,-2.8956544E0,1.0656224E-2,-9.8394215E-1],"categories":[],"categories_nodes":[],"categories_segments":[],"categories_sizes":[],"default_left":[0,0,0,0,0],"id":62,"left_children":[1,-1,3,-1,-1],"loss_changes":[5.9505882E1,0E0,4.4858376E1,0E0,0E0],"parents":[2147483647,0,0,2,2],"right_children":[2,-1,4,-1,-1],"split_conditions":[1.715847E-2,2.0590696E-1,5.7735026E-1,1.0656224E-2,-9.8394215E-1],"split_indices":[628,0,311,0,0],"split_type":[0,0,0,0,0],"sum_hessian":[1.5E1,8E0,7E0,3E0,4E0],"tree_param":{"num_deleted":"0","num_feature":"1304","num_nodes":"5","size_leaf_vector":"1"}},{"base_weights":[-2.7522865E-1,-6.2920666E-1,4.9716234E-1,1.2514985E0,-2.7331236E-1,3.2063618E-1,1.5573926E-1,-4.3204784E-1,3.2787216E-1],"categories":[],"categories_nodes":[],"categories_segments":[],"categories_sizes":[],"default_left":[0,0,0,0,0,0,0,0,0],"id":63,"left_children":[1,-1,3,5,7,-1,-1,-1,-1],"loss_changes":[3.4674046E1,0E0,7.165678E0,8.109789E-1,2.391454E1,0E0,0E0,0E0,0E0],"parents":[2147483647,0,0,2,2,3,3,4,4],"right_children":[2,-1,4,6,8,-1,-1,-1,-1],"split_conditions":[-1.2852173E0,-6.2920666E-1,9.864134E-1,-2.4154538E-1,2E0,3.2063618E-1,1.5573926E-1,-4.3204784E-1,3.2787216E-1],"split_indices":[908,0,23,591,268,0,0,0,0],"split_type":[0,0,0,0,0,0,0,0,0],"sum_hessian":[1.5E1,3E0,1.2E1,6E0,6E0,3E0,3E0,3E0,3E0],"tree_param":{"num_deleted":"0","num_feature":"1304","num_nodes":"9","size_leaf_vector":"1"}},{"base_weights":[-1.4251089E-1,5.4281974E-1,-5.816293E-1,2.5277283E-2,4.2387E-1,1.0556331E0,-4.507455E-1,1.0589573E-1,3.2763904E-1],"categories":[],"categories_nodes":[],"categories_segments":[],"categories_sizes":[],"default_left":[0,0,0,0,0,0,0,0,0],"id":64,"left_children":[1,3,-1,5,-1,7,-1,-1,-1],"loss_changes":[3.1596811E1,1.100481E1,0E0,2.4859913E1,0E0,2.0861206E0,0E0,0E0,0E0],"parents":[2147483647,0,0,1,1,3,3,5,5],"right_children":[2,4,-1,6,-1,8,-1,-1,-1],"split_conditions":[7.9388106E-1,2E0,-5.816293E-1,1.5275252E0,4.2387E-1,-1.53405E-1,-4.507455E-1,1.0589573E-1,3.2763904E-1],"split_indices":[598,268,0,320,0,24,0,0,0],"split_type":[0,0,0,0,0,0,0,0,0],"sum_hessian":[1.6E1,1.3E1,3E0,1E1,3E0,7E0,3E0,4E0,3E0],"tree_param":{"num_deleted":"0","num_feature":"1304","num_nodes":"9","size_leaf_vector":"1"}},{"base_weights":[-1.7077291E-2,5.658184E-1,-5.470736E-1,8.674192E-1,-5.2114174E-2,2.1389885E-1,1.285595E-1],"categories":[],"categories_nodes":[],"categories_segments":[],"categories_sizes":[],"default_left":[0,0,0,0,0,0,0],"id":65,"left_children":[1,3,-1,5,-1,-1,-1],"loss_changes":[2.9665358E1,3.8583207E0,0E0,3.7817192E-1,0E0,0E0,0E0],"parents":[2147483647,0,0,1,1,3,3],"right_children":[2,4,-1,6,-1,-1,-1],"split_conditions":[3.2759356E-1,1.5275252E0,-5.470736E-1,5.0475657E-1,-5.2114174E-2,2.1389885E-1,1.285595E-1],"split_indices":[939,320,0,540,0,0,0],"split_type":[0,0,0,0,0,0,0],"sum_hessian":[1.8E1,1.5E1,3E0,1.1E1,4E0,5E0,6E0],"tree_param":{"num_deleted":"0","num_feature":"1304","num_nodes":"7","size_leaf_vector":"1"}},{"base_weights":[-5.2137446E-1,-1.9148183E0,1.7483619E-1,-1.0288249E0,2.9966792E-1],"categories":[],"categories_nodes":[],"categories_segments":[],"categories_sizes":[],"default_left":[0,0,0,0,0],"id":66,"left_children":[1,3,-1,-1,-1],"loss_changes":[2.433808E1,7.2408676E1,0E0,0E0,0E0],"parents":[2147483647,0,0,1,1],"right_children":[2,4,-1,-1,-1],"split_conditions":[9.4553165E-2,2.3804762E0,1.7483619E-1,-1.0288249E0,2.9966792E-1],"split_indices":[577,334,0,0,0],"split_type":[0,0,0,0,0],"sum_hessian":[1.2E1,6E0,6E0,3E0,3E0],"tree_param":{"num_deleted":"0","num_feature":"1304","num_nodes":"5","size_leaf_vector":"1"}},{"base_weights":[2.4592622E-1,-4.5889944E-1,7.864498E-1,4.386232E-1,3.2930222E-1,1.2583343E0,-3.318306E-1,1.6903219E-1,3.5888922E-1],"categories":[],"categories_nodes":[],"categories_segments":[],"categories_sizes":[],"default_left":[0,0,0,0,0,0,0,0,0],"id":67,"left_children":[1,-1,3,5,-1,7,-1,-1,-1],"loss_changes":[2.5755327E1,0E0,4.5416718E0,1.996157E1,0E0,1.5271139E0,0E0,0E0,0E0],"parents":[2147483647,0,0,2,2,3,3,5,5],"right_children":[2,-1,4,6,-1,8,-1,-1,-1],"split_conditions":[-6.2491167E-1,-4.5889944E-1,2E0,1.5275252E0,3.2930222E-1,-1.53405E-1,-3.318306E-1,1.6903219E-1,3.5888922E-1],"split_indices":[911,0,276,349,0,24,0,0,0],"split_type":[0,0,0,0,0,0,0,0,0],"sum_hessian":[1.8E1,3E0,1.5E1,1.1E1,4E0,8E0,3E0,5E0,3E0],"tree_param":{"num_deleted":"0","num_feature":"1304","num_nodes":"9","size_leaf_vector":"1"}},{"base_weights":[2.1040101E-1,-4.3701857E-1,6.88987E-1,-4.808428E-2,9.9918276E-1,1.3972826E0,-4.0812753E-2,1.4558128E-1,4.2123806E-1],"categories":[],"categories_nodes":[],"categories_segments":[],"categories_sizes":[],"default_left":[0,0,0,0,0,0,0,0,0],"id":68,"left_children":[1,-1,3,-1,5,7,-1,-1,-1],"loss_changes":[2.2669798E1,0E0,4.7439995E0,0E0,5.925023E0,4.1727867E0,0E0,0E0,0E0],"parents":[2147483647,0,0,2,2,4,4,5,5],"right_children":[2,-1,4,-1,6,8,-1,-1,-1],"split_conditions":[-1.4475427E0,-4.3701857E-1,5E-1,-4.808428E-2,1.7320508E0,4.3861532E-1,-4.0812753E-2,1.4558128E-1,4.2123806E-1],"split_indices":[1229,0,355,0,314,542,0,0,0],"split_type":[0,0,0,0,0,0,0,0,0],"sum_hessian":[1.9E1,3E0,1.6E1,4E0,1.2E1,9E0,3E0,5E0,4E0],"tree_param":{"num_deleted":"0","num_feature":"1304","num_nodes":"9","size_leaf_vector":"1"}},{"base_weights":[1.1191672E0,-3.9088607E-2,1.593444E0,5.2366936E-1,1.2654379E-1],"categories":[],"categories_nodes":[],"categories_segments":[],"categories_sizes":[],"default_left":[0,0,0,0,0],"id":69,"left_children":[1,-1,3,-1,-1],"loss_changes":[9.571823E0,0E0,1.1024878E1,0E0,0E0],"parents":[2147483647,0,0,2,2],"right_children":[2,-1,4,-1,-1],"split_conditions":[5E-1,-3.9088607E-2,1.1055416E0,5.2366936E-1,1.2654379E-1],"split_indices":[355,0,480,0,0],"split_type":[0,0,0,0,0],"sum_hessian":[1.5E1,4E0,1.1E1,5E0,6E0],"tree_param":{"num_deleted":"0","num_feature":"1304","num_nodes":"5","size_leaf_vector":"1"}},{"base_weights":[-2.5149116E-1,2.1068178E-1,-4.4923633E-1,-1.6300637E-1,5.043484E-1,1.5113035E-1,5.2593835E-3],"categories":[],"categories_nodes":[],"categories_segments":[],"categories_sizes":[],"default_left":[0,0,0,0,0,0,0],"id":70,"left_children":[1,3,-1,-1,5,-1,-1],"loss_changes":[1.6266989E1,4.421714E0,0E0,0E0,1.4077706E0,0E0,0E0],"parents":[2147483647,0,0,1,1,4,4],"right_children":[2,4,-1,-1,6,-1,-1],"split_conditions":[1.2017727E0,5E-1,-4.4923633E-1,-1.6300637E-1,1.5275252E0,1.5113035E-1,5.2593835E-3],"split_indices":[618,355,0,0,320,0,0],"split_type":[0,0,0,0,0,0,0],"sum_hessian":[1.7E1,1.4E1,3E0,3E0,1.1E1,7E0,4E0],"tree_param":{"num_deleted":"0","num_feature":"1304","num_nodes":"7","size_leaf_vector":"1"}},{"base_weights":[6.3525245E-2,-3.8966775E-1,4.6729907E-1,1.9028507E-1,2.454468E-1,8.609371E-1,-3.4364825E-1,7.2409384E-2,2.8091478E-1],"categories":[],"categories_nodes":[],"categories_segments":[],"categories_sizes":[],"default_left":[0,0,0,0,0,0,0,0,0],"id":71,"left_children":[1,-1,3,5,-1,7,-1,-1,-1],"loss_changes":[1.6044561E1,0E0,3.4533997E0,1.6167788E1,0E0,2.4626098E0,0E0,0E0,0E0],"parents":[2147483647,0,0,2,2,3,3,5,5],"right_children":[2,-1,4,6,-1,8,-1,-1,-1],"split_conditions":[-3.509522E-1,-3.8966775E-1,2E0,1.5275252E0,2.454468E-1,9.864134E-1,-3.4364825E-1,7.2409384E-2,2.8091478E-1],"split_indices":[1094,0,268,320,0,23,0,0,0],"split_type":[0,0,0,0,0,0,0,0,0],"sum_hessian":[1.9E1,3E0,1.6E1,1.2E1,4E0,9E0,3E0,5E0,4E0],"tree_param":{"num_deleted":"0","num_feature":"1304","num_nodes":"9","size_leaf_vector":"1"}},{"base_weights":[7.070391E-3,-3.7130737E-1,4.6708867E-1,1.7702913E-1,-4.59473E-2],"categories":[],"categories_nodes":[],"categories_segments":[],"categories_sizes":[],"default_left":[0,0,0,0,0],"id":72,"left_children":[1,-1,3,-1,-1],"loss_changes":[1.4305683E1,0E0,4.0517015E0,0E0,0E0],"parents":[2147483647,0,0,2,2],"right_children":[2,-1,4,-1,-1],"split_conditions":[-1.0218742E0,-3.7130737E-1,1.7320508E0,1.7702913E-1,-4.59473E-2],"split_indices":[984,0,314,0,0],"split_type":[0,0,0,0,0],"sum_hessian":[1.6E1,3E0,1.3E1,8E0,5E0],"tree_param":{"num_deleted":"0","num_feature":"1304","num_nodes":"5","size_leaf_vector":"1"}},{"base_weights":[1.4798544E-1,-3.5046303E-1,6.5249646E-1,-3.356782E-2,2.0812818E-1],"categories":[],"categories_nodes":[],"categories_segments":[],"categories_sizes":[],"default_left":[0,0,0,0,0],"id":73,"left_children":[1,-1,3,-1,-1],"loss_changes":[1.5042095E1,0E0,4.1158237E0,0E0,0E0],"parents":[2147483647,0,0,2,2],"right_children":[2,-1,4,-1,-1],"split_conditions":[-1.1360627E0,-3.5046303E-1,5E-1,-3.356782E-2,2.0812818E-1],"split_indices":[624,0,355,0,0],"split_type":[0,0,0,0,0],"sum_hessian":[1.5E1,3E0,1.2E1,4E0,8E0],"tree_param":{"num_deleted":"0","num_feature":"1304","num_nodes":"5","size_leaf_vector":"1"}},{"base_weights":[-2.1823883E-1,2.3093274E-1,-2.1327437E-1,1.01457655E-1,-1.275346E-2],"categories":[],"categories_nodes":[],"categories_segments":[],"categories_sizes":[],"default_left":[0,0,0,0,0],"id":74,"left_children":[1,3,-1,-1,-1],"loss_changes":[4.8018336E0,6.9930136E-1,0E0,0E0,0E0],"parents":[2147483647,0,0,1,1],"right_children":[2,4,-1,-1,-1],"split_conditions":[1.5275252E0,5.892869E-1,-2.1327437E-1,1.01457655E-1,-1.275346E-2],"split_indices":[320,560,0,0,0],"split_type":[0,0,0,0,0],"sum_hessian":[1.2E1,8E0,4E0,4E0,4E0],"tree_param":{"num_deleted":"0","num_feature":"1304","num_nodes":"5","size_leaf_vector":"1"}},{"base_weights":[3.407362E-1,1.1760787E-1,2.223182E-1,5.252619E-1,-2.8352037E-1,2.2930428E-1,1.797243E-1,1.2707786E-1,-6.523528E-2],"categories":[],"categories_nodes":[],"categories_segments":[],"categories_sizes":[],"default_left":[0,0,0,0,0,0,0,0,0],"id":75,"left_children":[1,3,-1,5,-1,7,-1,-1,-1],"loss_changes":[3.35445E0,9.81867E0,0E0,1.3585587E0,0E0,1.7296319E0,0E0,0E0,0E0],"parents":[2147483647,0,0,1,1,3,3,5,5],"right_children":[2,4,-1,6,-1,8,-1,-1,-1],"split_conditions":[2E0,1.5275252E0,2.223182E-1,-1.53405E-1,-2.8352037E-1,5.0475657E-1,1.797243E-1,1.2707786E-1,-6.523528E-2],"split_indices":[268,320,0,24,0,540,0,0,0],"split_type":[0,0,0,0,0,0,0,0,0],"sum_hessian":[1.9E1,1.5E1,4E0,1.2E1,3E0,7E0,5E0,4E0,3E0],"tree_param":{"num_deleted":"0","num_feature":"1304","num_nodes":"9","size_leaf_vector":"1"}},{"base_weights":[-2.034321E-1,-9.7543186E-1,9.183349E-2,1.3282152E-1,-5.043197E-1],"categories":[],"categories_nodes":[],"categories_segments":[],"categories_sizes":[],"default_left":[0,0,0,0,0],"id":76,"left_children":[1,3,-1,-1,-1],"loss_changes":[6.9286556E0,1.663544E1,0E0,0E0,0E0],"parents":[2147483647,0,0,1,1],"right_children":[2,4,-1,-1,-1],"split_conditions":[1.1055416E0,5E-1,9.183349E-2,1.3282152E-1,-5.043197E-1],"split_indices":[480,330,0,0,0],"split_type":[0,0,0,0,0],"sum_hessian":[1.3E1,6E0,7E0,3E0,3E0],"tree_param":{"num_deleted":"0","num_feature":"1304","num_nodes":"5","size_leaf_vector":"1"}},{"base_weights":[1.18553124E-1,6.05499E-1,-3.726043E-1,2.867677E-1,3.1091872E-1,2.0232487E-2,1.705039E-1,-1.03937574E-1,8.612706E-2],"categories":[],"categories_nodes":[],"categories_segments":[],"categories_sizes":[],"default_left":[0,0,0,0,0,0,0,0,0],"id":77,"left_children":[1,3,-1,5,-1,7,-1,-1,-1],"loss_changes":[1.6119099E1,4.0090833E0,0E0,1.5729339E0,0E0,1.6988423E0,0E0,0E0,0E0],"parents":[2147483647,0,0,1,1,3,3,5,5],"right_children":[2,4,-1,6,-1,8,-1,-1,-1],"split_conditions":[7.100913E-1,2E0,-3.726043E-1,-1.53405E-1,3.1091872E-1,-3.3896732E-1,1.705039E-1,-1.03937574E-1,8.612706E-2],"split_indices":[1247,268,0,24,0,537,0,0,0],"split_type":[0,0,0,0,0,0,0,0,0],"sum_hessian":[1.6E1,1.3E1,3E0,1E1,3E0,7E0,3E0,3E0,4E0],"tree_param":{"num_deleted":"0","num_feature":"1304","num_nodes":"9","size_leaf_vector":"1"}},{"base_weights":[-7.2724305E-2,-3.4263384E-1,2.8006035E-1,6.3922465E-1,-2.173043E-1,9.118792E-2,1.8685395E-1],"categories":[],"categories_nodes":[],"categories_segments":[],"categories_sizes":[],"default_left":[0,0,0,0,0,0,0],"id":78,"left_children":[1,-1,3,5,-1,-1,-1],"loss_changes":[1.0825316E1,0E0,7.70786E0,5.7305574E-1,0E0,0E0,0E0],"parents":[2147483647,0,0,2,2,3,3],"right_children":[2,-1,4,6,-1,-1,-1],"split_conditions":[-1.1584545E0,-3.4263384E-1,1.7320508E0,9.864134E-1,-2.173043E-1,9.118792E-2,1.8685395E-1],"split_indices":[566,0,314,23,0,0,0],"split_type":[0,0,0,0,0,0,0],"sum_hessian":[1.8E1,3E0,1.5E1,1.2E1,3E0,8E0,4E0],"tree_param":{"num_deleted":"0","num_feature":"1304","num_nodes":"7","size_leaf_vector":"1"}},{"base_weights":[4.298483E-1,1.6520189E-1,3.2591027E-1,5.724621E-1,-1.8242496E-1,5.9148993E-2,1.5362234E-1],"categories":[],"categories_nodes":[],"categories_segments":[],"categories_sizes":[],"default_left":[0,0,0,0,0,0,0],"id":79,"left_children":[1,3,-1,5,-1,-1,-1],"loss_changes":[5.853656E0,6.875439E0,0E0,5.850601E-1,0E0,0E0,0E0],"parents":[2147483647,0,0,1,1,3,3],"right_children":[2,4,-1,6,-1,-1,-1],"split_conditions":[2.3804762E0,1.7320508E0,3.2591027E-1,3.6337817E-1,-1.8242496E-1,5.9148993E-2,1.5362234E-1],"split_indices":[334,314,0,667,0,0,0],"split_type":[0,0,0,0,0,0,0],"sum_hessian":[1.8E1,1.5E1,3E0,1.1E1,4E0,5E0,6E0],"tree_param":{"num_deleted":"0","num_feature":"1304","num_nodes":"7","size_leaf_vector":"1"}},{"base_weights":[3.7787187E-1,-4.7371753E-2,5.691834E-1,1.2936331E-1,2.4380231E-1,-6.0965087E-2,7.7715725E-2],"categories":[],"categories_nodes":[],"categories_segments":[],"categories_sizes":[],"default_left":[0,0,0,0,0,0,0],"id":80,"left_children":[1,-1,3,5,-1,-1,-1],"loss_changes":[2.0654013E0,0E0,3.858747E0,9.8354274E-1,0E0,0E0,0E0],"parents":[2147483647,0,0,2,2,3,3],"right_children":[2,-1,4,6,-1,-1,-1],"split_conditions":[5E-1,-4.7371753E-2,9.864134E-1,-2.9631495E-1,2.4380231E-1,-6.0965087E-2,7.7715725E-2],"split_indices":[355,0,23,739,0,0,0],"split_type":[0,0,0,0,0,0,0],"sum_hessian":[1.7E1,4E0,1.3E1,8E0,5E0,3E0,5E0],"tree_param":{"num_deleted":"0","num_feature":"1304","num_nodes":"7","size_leaf_vector":"1"}},{"base_weights":[-1.7164057E-1,-3.5695422E-1,1.7697735E-1,-1.233568E-1,2.576069E-1,8.599191E-2,-3.394593E-1],"categories":[],"categories_nodes":[],"categories_segments":[],"categories_sizes":[],"default_left":[0,0,0,0,0,0,0],"id":81,"left_children":[1,-1,3,5,-1,-1,-1],"loss_changes":[1.04991455E1,0E0,5.208973E0,1.112377E1,0E0,0E0,0E0],"parents":[2147483647,0,0,2,2,3,3],"right_children":[2,-1,4,6,-1,-1,-1],"split_conditions":[4.2008403E-1,-3.5695422E-1,2.3804762E0,1.7320508E0,2.576069E-1,8.599191E-2,-3.394593E-1],"split_indices":[520,0,334,314,0,0,0],"split_type":[0,0,0,0,0,0,0],"sum_hessian":[1.8E1,3E0,1.5E1,1.2E1,3E0,9E0,3E0],"tree_param":{"num_deleted":"0","num_feature":"1304","num_nodes":"7","size_leaf_vector":"1"}},{"base_weights":[-3.1141827E-1,-7.5653416E-1,1.9572687E-1,6.074425E-2,-4.3302253E-1],"categories":[],"categories_nodes":[],"categories_segments":[],"categories_sizes":[],"default_left":[0,0,0,0,0],"id":82,"left_children":[1,3,-1,-1,-1],"loss_changes":[9.579214E0,1.8937178E1,0E0,0E0,0E0],"parents":[2147483647,0,0,1,1],"right_children":[2,4,-1,-1,-1],"split_conditions":[2E0,2.8749263E-1,1.9572687E-1,6.074425E-2,-4.3302253E-1],"split_indices":[268,599,0,0,0],"split_type":[0,0,0,0,0],"sum_hessian":[1.6E1,1.2E1,4E0,7E0,5E0],"tree_param":{"num_deleted":"0","num_feature":"1304","num_nodes":"5","size_leaf_vector":"1"}},{"base_weights":[1.4398203E-2,-3.0951577E-1,3.2846677E-1,9.2768595E-2,2.5131768E-1,3.8968408E-1,-1.10379286E-1,7.706375E-3,1.581309E-1],"categories":[],"categories_nodes":[],"categories_segments":[],"categories_sizes":[],"default_left":[0,0,0,0,0,0,0,0,0],"id":83,"left_children":[1,-1,3,5,-1,7,-1,-1,-1],"loss_changes":[9.683539E0,0E0,3.5994956E0,2.6088903E0,0E0,1.3289115E0,0E0,0E0,0E0],"parents":[2147483647,0,0,2,2,3,3,5,5],"right_children":[2,-1,4,6,-1,8,-1,-1,-1],"split_conditions":[-2.9726345E-2,-3.0951577E-1,2.3804762E0,1.7320508E0,2.5131768E-1,9.864134E-1,-1.10379286E-1,7.706375E-3,1.581309E-1],"split_indices":[769,0,334,314,0,23,0,0,0],"split_type":[0,0,0,0,0,0,0,0,0],"sum_hessian":[1.9E1,3E0,1.6E1,1.3E1,3E0,9E0,4E0,5E0,4E0],"tree_param":{"num_deleted":"0","num_feature":"1304","num_nodes":"9","size_leaf_vector":"1"}},{"base_weights":[2.7936918E-1,1.23730734E-1,1.6284657E-1,3.2297927E-1,-1.2632236E-1,1.452012E-1,1.285494E-1,7.080068E-2,-4.1761573E-2],"categories":[],"categories_nodes":[],"categories_segments":[],"categories_sizes":[],"default_left":[0,0,0,0,0,0,0,0,0],"id":84,"left_children":[1,3,-1,5,-1,7,-1,-1,-1],"loss_changes":[1.6172067E0,2.36283E0,0E0,6.965107E-1,0E0,6.4616376E-1,0E0,0E0,0E0],"parents":[2147483647,0,0,1,1,3,3,5,5],"right_children":[2,4,-1,6,-1,8,-1,-1,-1],"split_conditions":[2E0,1.5275252E0,1.6284657E-1,9.864134E-1,-1.2632236E-1,2.262424E-1,1.285494E-1,7.080068E-2,-4.1761573E-2],"split_indices":[268,320,0,23,0,681,0,0,0],"split_type":[0,0,0,0,0,0,0,0,0],"sum_hessian":[1.9E1,1.5E1,4E0,1.2E1,3E0,8E0,4E0,5E0,3E0],"tree_param":{"num_deleted":"0","num_feature":"1304","num_nodes":"9","size_leaf_vector":"1"}},{"base_weights":[-3.2885453E-1,-2.883652E-1,-4.7520272E-2,3.8313553E-2,-1.1330328E-1],"categories":[],"categories_nodes":[],"categories_segments":[],"categories_sizes":[],"default_left":[0,0,0,0,0],"id":85,"left_children":[1,-1,3,-1,-1],"loss_changes":[5.1684732E0,0E0,1.715353E0,0E0,0E0],"parents":[2147483647,0,0,2,2],"right_children":[2,-1,4,-1,-1],"split_conditions":[-6.0274756E-1,-2.883652E-1,1.5275252E0,3.8313553E-2,-1.1330328E-1],"split_indices":[743,0,320,0,0],"split_type":[0,0,0,0,0],"sum_hessian":[1.6E1,3E0,1.3E1,9E0,4E0],"tree_param":{"num_deleted":"0","num_feature":"1304","num_nodes":"5","size_leaf_vector":"1"}},{"base_weights":[1.8452558E-1,-2.6258367E-1,5.2489597E-1,-8.2980305E-2,7.862903E-1,2.473673E-1,7.167328E-2],"categories":[],"categories_nodes":[],"categories_segments":[],"categories_sizes":[],"default_left":[0,0,0,0,0,0,0],"id":86,"left_children":[1,-1,3,-1,5,-1,-1],"loss_changes":[9.041966E0,0E0,3.584527E0,0E0,2.1317058E0,0E0,0E0],"parents":[2147483647,0,0,2,2,4,4],"right_children":[2,-1,4,-1,6,-1,-1],"split_conditions":[-9.9562126E-1,-2.6258367E-1,5.7735026E-1,-8.2980305E-2,1.1055416E0,2.473673E-1,7.167328E-2],"split_indices":[634,0,311,0,480,0,0],"split_type":[0,0,0,0,0,0,0],"sum_hessian":[1.7E1,3E0,1.4E1,3E0,1.1E1,5E0,6E0],"tree_param":{"num_deleted":"0","num_feature":"1304","num_nodes":"7","size_leaf_vector":"1"}},{"base_weights":[-1.0093981E-2,-3.1959006E-1,2.1810547E-1,6.277357E-2,-8.727576E-1,-9.871655E-3,-2.644141E-1],"categories":[],"categories_nodes":[],"categories_segments":[],"categories_sizes":[],"default_left":[0,0,0,0,0,0,0],"id":87,"left_children":[1,3,-1,-1,5,-1,-1],"loss_changes":[6.7232246E0,5.4310293E0,0E0,0E0,3.1674223E0,0E0,0E0],"parents":[2147483647,0,0,1,1,4,4],"right_children":[2,4,-1,-1,6,-1,-1],"split_conditions":[2E0,2.8749263E-1,2.1810547E-1,6.277357E-2,5E-1,-9.871655E-3,-2.644141E-1],"split_indices":[317,599,0,0,316,0,0],"split_type":[0,0,0,0,0,0,0],"sum_hessian":[1.9E1,1.5E1,4E0,7E0,8E0,3E0,5E0],"tree_param":{"num_deleted":"0","num_feature":"1304","num_nodes":"7","size_leaf_vector":"1"}},{"base_weights":[1.0741326E-1,-1.9242196E-1,1.7730452E-1,1.02291435E-1,-1.8390909E-1,-4.1892003E-2,5.7578515E-2],"categories":[],"categories_nodes":[],"categories_segments":[],"categories_sizes":[],"default_left":[0,0,0,0,0,0,0],"id":88,"left_children":[1,3,-1,5,-1,-1,-1],"loss_changes":[3.657501E0,2.4739096E0,0E0,5.0575906E-1,0E0,0E0,0E0],"parents":[2147483647,0,0,1,1,3,3],"right_children":[2,4,-1,6,-1,-1,-1],"split_conditions":[2E0,1.7320508E0,1.7730452E-1,1.1055416E0,-1.8390909E-1,-4.1892003E-2,5.7578515E-2],"split_indices":[317,314,0,480,0,0,0],"split_type":[0,0,0,0,0,0,0],"sum_hessian":[1.5E1,1.1E1,4E0,8E0,3E0,3E0,5E0],"tree_param":{"num_deleted":"0","num_feature":"1304","num_nodes":"7","size_leaf_vector":"1"}},{"base_weights":[2.3184691E-1,6.112612E-1,-2.4134392E-1,6.764349E-2,2.6337785E-1],"categories":[],"categories_nodes":[],"categories_segments":[],"categories_sizes":[],"default_left":[0,0,0,0,0],"id":89,"left_children":[1,3,-1,-1,-1],"loss_changes":[8.570068E0,2.2773094E0,0E0,0E0,0E0],"parents":[2147483647,0,0,1,1],"right_children":[2,4,-1,-1,-1],"split_conditions":[4.1215026E-1,2E0,-2.4134392E-1,6.764349E-2,2.6337785E-1],"split_indices":[1025,317,0,0,0],"split_type":[0,0,0,0,0],"sum_hessian":[1.5E1,1.2E1,3E0,9E0,3E0],"tree_param":{"num_deleted":"0","num_feature":"1304","num_nodes":"5","size_leaf_vector":"1"}},{"base_weights":[-7.811642E-2,-3.8443032E-1,2.1489795E-1,-1.015316E0,5.0909594E-2,4.4016717E-3,-3.910852E-1],"categories":[],"categories_nodes":[],"categories_segments":[],"categories_sizes":[],"default_left":[0,0,0,0,0,0,0],"id":90,"left_children":[1,3,-1,5,-1,-1,-1],"loss_changes":[5.538104E0,5.008808E0,0E0,6.279918E0,0E0,0E0,0E0],"parents":[2147483647,0,0,1,1,3,3],"right_children":[2,4,-1,6,-1,-1,-1],"split_conditions":[2E0,9.4553165E-2,2.1489795E-1,5E-1,5.0909594E-2,4.4016717E-3,-3.910852E-1],"split_indices":[317,577,0,316,0,0,0],"split_type":[0,0,0,0,0,0,0],"sum_hessian":[1.5E1,1.2E1,3E0,6E0,6E0,3E0,3E0],"tree_param":{"num_deleted":"0","num_feature":"1304","num_nodes":"7","size_leaf_vector":"1"}},{"base_weights":[-2.8644237E-1,1.8972214E-2,-3.190399E-1,6.1033968E-2,-1.967185E-1],"categories":[],"categories_nodes":[],"categories_segments":[],"categories_sizes":[],"default_left":[0,0,0,0,0],"id":91,"left_children":[1,3,-1,-1,-1],"loss_changes":[7.028679E0,4.2811065E0,0E0,0E0,0E0],"parents":[2147483647,0,0,1,1],"right_children":[2,4,-1,-1,-1],"split_conditions":[1.5275252E0,1.0088477E0,-3.190399E-1,6.1033968E-2,-1.967185E-1],"split_indices":[320,596,0,0,0],"split_type":[0,0,0,0,0],"sum_hessian":[1.7E1,1.4E1,3E0,1.1E1,3E0],"tree_param":{"num_deleted":"0","num_feature":"1304","num_nodes":"5","size_leaf_vector":"1"}},{"base_weights":[-2.741522E-1,-5.879133E-1,1.6513866E-1,5.102106E-2,-3.0979127E-1],"categories":[],"categories_nodes":[],"categories_segments":[],"categories_sizes":[],"default_left":[0,0,0,0,0],"id":92,"left_children":[1,3,-1,-1,-1],"loss_changes":[5.0653214E0,9.460615E0,0E0,0E0,0E0],"parents":[2147483647,0,0,1,1],"right_children":[2,4,-1,-1,-1],"split_conditions":[2.3804762E0,2.8749263E-1,1.6513866E-1,5.102106E-2,-3.0979127E-1],"split_indices":[334,599,0,0,0],"split_type":[0,0,0,0,0],"sum_hessian":[1.4E1,1.1E1,3E0,6E0,5E0],"tree_param":{"num_deleted":"0","num_feature":"1304","num_nodes":"5","size_leaf_vector":"1"}},{"base_weights":[1.2732276E-1,-1.7260924E-1,2.2976263E-1,-1.686004E-1,9.894059E-2,-2.347079E-2,6.152552E-2],"categories":[],"categories_nodes":[],"categories_segments":[],"categories_sizes":[],"default_left":[0,0,0,0,0,0,0],"id":93,"left_children":[1,3,-1,-1,5,-1,-1],"loss_changes":[4.4784474E0,2.1022007E0,0E0,0E0,3.911475E-1,0E0,0E0],"parents":[2147483647,0,0,1,1,4,4],"right_children":[2,4,-1,-1,6,-1,-1],"split_conditions":[2E0,-4.0867308E-1,2.2976263E-1,-1.686004E-1,-1.53405E-1,-2.347079E-2,6.152552E-2],"split_indices":[268,642,0,0,24,0,0],"split_type":[0,0,0,0,0,0,0],"sum_hessian":[1.4E1,1.1E1,3E0,3E0,8E0,4E0,4E0],"tree_param":{"num_deleted":"0","num_feature":"1304","num_nodes":"7","size_leaf_vector":"1"}},{"base_weights":[7.873208E-2,-2.1582472E-1,2.351961E-1,5.2794915E-2,-1.363409E-1],"categories":[],"categories_nodes":[],"categories_segments":[],"categories_sizes":[],"default_left":[0,0,0,0,0],"id":94,"left_children":[1,3,-1,-1,-1],"loss_changes":[5.058514E0,2.861019E0,0E0,0E0,0E0],"parents":[2147483647,0,0,1,1],"right_children":[2,4,-1,-1,-1],"split_conditions":[2E0,2.8749263E-1,2.351961E-1,5.2794915E-2,-1.363409E-1],"split_indices":[317,599,0,0,0],"split_type":[0,0,0,0,0],"sum_hessian":[1.5E1,1.2E1,3E0,6E0,6E0],"tree_param":{"num_deleted":"0","num_feature":"1304","num_nodes":"5","size_leaf_vector":"1"}},{"base_weights":[3.0268312E-1,-1.5493234E-1,5.4449654E-1,7.1757686E-1,1.916393E-2,2.73273E-1,4.683694E-2],"categories":[],"categories_nodes":[],"categories_segments":[],"categories_sizes":[],"default_left":[0,0,0,0,0,0,0],"id":95,"left_children":[1,-1,3,5,-1,-1,-1],"loss_changes":[4.624483E0,0E0,1.0832543E0,3.2166615E0,0E0,0E0,0E0],"parents":[2147483647,0,0,2,2,3,3],"right_children":[2,-1,4,6,-1,-1,-1],"split_conditions":[-1.1360627E0,-1.5493234E-1,1.7320508E0,1.1055416E0,1.916393E-2,2.73273E-1,4.683694E-2],"split_indices":[624,0,314,480,0,0,0],"split_type":[0,0,0,0,0,0,0],"sum_hessian":[1.7E1,3E0,1.4E1,1E1,4E0,4E0,6E0],"tree_param":{"num_deleted":"0","num_feature":"1304","num_nodes":"7","size_leaf_vector":"1"}},{"base_weights":[3.4630813E-2,-1.4694586E-1,1.9909361E-1,-7.734124E-2,4.9741027E-1,4.7292538E-2,6.547795E-1,1.9993916E-1,4.924359E-2],"categories":[],"categories_nodes":[],"categories_segments":[],"categories_sizes":[],"default_left":[0,0,0,0,0,0,0,0,0],"id":96,"left_children":[1,-1,3,-1,5,-1,7,-1,-1],"loss_changes":[2.3703363E0,0E0,2.7272646E0,0E0,3.786354E-1,0E0,8.5341716E-1,0E0,0E0],"parents":[2147483647,0,0,2,2,4,4,6,6],"right_children":[2,-1,4,-1,6,-1,8,-1,-1],"split_conditions":[5.7735026E-1,-1.4694586E-1,5.7735026E-1,-7.734124E-2,5.892869E-1,4.7292538E-2,1.5275252E0,1.9993916E-1,4.924359E-2],"split_indices":[453,0,311,0,560,0,320,0,0],"split_type":[0,0,0,0,0,0,0,0,0],"sum_hessian":[1.8E1,3E0,1.5E1,5E0,1E1,4E0,6E0,3E0,3E0],"tree_param":{"num_deleted":"0","num_feature":"1304","num_nodes":"9","size_leaf_vector":"1"}},{"base_weights":[-2.8876366E-2,-1.2716007E-1,1.21362165E-1,-6.4760104E-2,6.386356E-2],"categories":[],"categories_nodes":[],"categories_segments":[],"categories_sizes":[],"default_left":[0,0,0,0,0],"id":97,"left_children":[1,-1,3,-1,-1],"loss_changes":[1.5209973E0,0E0,1.2322023E0,0E0,0E0],"parents":[2147483647,0,0,2,2],"right_children":[2,-1,4,-1,-1],"split_conditions":[-1.4475427E0,-1.2716007E-1,5.7735026E-1,-6.4760104E-2,6.386356E-2],"split_indices":[1229,0,311,0,0],"split_type":[0,0,0,0,0],"sum_hessian":[1.6E1,3E0,1.3E1,4E0,9E0],"tree_param":{"num_deleted":"0","num_feature":"1304","num_nodes":"5","size_leaf_vector":"1"}},{"base_weights":[3.184224E-1,5.380631E-1,-1.1923292E-1,2.9742596E-1,2.0415917E-1,7.5172223E-3,9.729826E-2],"categories":[],"categories_nodes":[],"categories_segments":[],"categories_sizes":[],"default_left":[0,0,0,0,0,0,0],"id":98,"left_children":[1,3,-1,5,-1,-1,-1],"loss_changes":[3.3581238E0,1.5231016E0,0E0,4.659158E-1,0E0,0E0,0E0],"parents":[2147483647,0,0,1,1,3,3],"right_children":[2,4,-1,6,-1,-1,-1],"split_conditions":[1.4763142E0,1.5275252E0,-1.1923292E-1,9.864134E-1,2.0415917E-1,7.5172223E-3,9.729826E-2],"split_indices":[541,320,0,23,0,0,0],"split_type":[0,0,0,0,0,0,0],"sum_hessian":[1.6E1,1.3E1,3E0,9E0,4E0,4E0,5E0],"tree_param":{"num_deleted":"0","num_feature":"1304","num_nodes":"7","size_leaf_vector":"1"}},{"base_weights":[1.6364808E-1,-1.10431805E-1,3.3726433E-1,-8.084257E-2,6.7181134E-1,6.298646E-2,2.573892E-1],"categories":[],"categories_nodes":[],"categories_segments":[],"categories_sizes":[],"default_left":[0,0,0,0,0,0,0],"id":99,"left_children":[1,-1,3,-1,5,-1,-1],"loss_changes":[2.078709E0,0E0,3.3631287E0,0E0,1.9721065E0,0E0,0E0],"parents":[2147483647,0,0,2,2,4,4],"right_children":[2,-1,4,-1,6,-1,-1],"split_conditions":[-4.0867308E-1,-1.10431805E-1,5.7735026E-1,-8.084257E-2,9.864134E-1,6.298646E-2,2.573892E-1],"split_indices":[642,0,311,0,23,0,0],"split_type":[0,0,0,0,0,0,0],"sum_hessian":[1.6E1,3E0,1.3E1,4E0,9E0,6E0,3E0],"tree_param":{"num_deleted":"0","num_feature":"1304","num_nodes":"7","size_leaf_vector":"1"}},{"base_weights":[-9.003255E-3,4.6127375E-2,-1.048815E-1],"categories":[],"categories_nodes":[],"categories_segments":[],"categories_sizes":[],"default_left":[0,0,0],"id":100,"left_children":[1,-1,-1],"loss_changes":[2.0955467E0,0E0,0E0],"parents":[2147483647,0,0],"right_children":[2,-1,-1],"split_conditions":[1.5275252E0,4.6127375E-2,-1.048815E-1],"split_indices":[320,0,0],"split_type":[0,0,0],"sum_hessian":[1.6E1,1.1E1,5E0],"tree_param":{"num_deleted":"0","num_feature":"1304","num_nodes":"3","size_leaf_vector":"1"}},{"base_weights":[7.563354E-2,-9.267502E-2,1.7106177E-1,-7.166623E-2,4.309906E-2],"categories":[],"categories_nodes":[],"categories_segments":[],"categories_sizes":[],"default_left":[0,0,0,0,0],"id":101,"left_children":[1,3,-1,-1,-1],"loss_changes":[2.4514606E0,1.3050567E0,0E0,0E0,0E0],"parents":[2147483647,0,0,1,1],"right_children":[2,4,-1,-1,-1],"split_conditions":[2E0,2.3948693E-1,1.7106177E-1,-7.166623E-2,4.309906E-2],"split_indices":[317,1011,0,0,0],"split_type":[0,0,0,0,0],"sum_hessian":[1.8E1,1.5E1,3E0,8E0,7E0],"tree_param":{"num_deleted":"0","num_feature":"1304","num_nodes":"5","size_leaf_vector":"1"}},{"base_weights":[-6.651282E-2,-1.9135252E-1,8.208103E-2,3.7420813E-2,-2.2069936E-1,-1.1716805E-1,2.3572578E-1,9.059404E-3,1.2712263E-1],"categories":[],"categories_nodes":[],"categories_segments":[],"categories_sizes":[],"default_left":[0,0,0,0,0,0,0,0,0],"id":102,"left_children":[1,3,-1,5,-1,-1,7,-1,-1],"loss_changes":[1.2365074E0,3.4616678E0,0E0,1.6862736E0,0E0,0E0,7.8744346E-1,0E0,0E0],"parents":[2147483647,0,0,1,1,3,3,6,6],"right_children":[2,4,-1,6,-1,-1,8,-1,-1],"split_conditions":[2E0,1.5275252E0,8.208103E-2,-6.044391E-1,-2.2069936E-1,-1.1716805E-1,1.210395E0,9.059404E-3,1.2712263E-1],"split_indices":[268,320,0,898,0,0,24,0,0],"split_type":[0,0,0,0,0,0,0,0,0],"sum_hessian":[2E1,1.6E1,4E0,1.3E1,3E0,3E0,1E1,7E0,3E0],"tree_param":{"num_deleted":"0","num_feature":"1304","num_nodes":"9","size_leaf_vector":"1"}},{"base_weights":[9.010174E-2,-7.209951E-2,2.6002058E-1,3.6470342E-1,-4.724441E-3,1.3476291E-1,3.0007618E-2],"categories":[],"categories_nodes":[],"categories_segments":[],"categories_sizes":[],"default_left":[0,0,0,0,0,0,0],"id":103,"left_children":[1,-1,3,5,-1,-1,-1],"loss_changes":[1.1993531E0,0E0,3.3562177E-1,5.348619E-1,0E0,0E0,0E0],"parents":[2147483647,0,0,2,2,3,3],"right_children":[2,-1,4,6,-1,-1,-1],"split_conditions":[5.7735026E-1,-7.209951E-2,1.5275252E0,9.0278333E-1,-4.724441E-3,1.3476291E-1,3.0007618E-2],"split_indices":[311,0,320,536,0,0,0],"split_type":[0,0,0,0,0,0,0],"sum_hessian":[1.5E1,4E0,1.1E1,8E0,3E0,3E0,5E0],"tree_param":{"num_deleted":"0","num_feature":"1304","num_nodes":"7","size_leaf_vector":"1"}},{"base_weights":[-1.3904065E-1,-3.0608392E-1,7.70619E-2,2.204584E-2,-1.2936012E-1],"categories":[],"categories_nodes":[],"categories_segments":[],"categories_sizes":[],"default_left":[0,0,0,0,0],"id":104,"left_children":[1,3,-1,-1,-1],"loss_changes":[1.5502267E0,1.9582493E0,0E0,0E0,0E0],"parents":[2147483647,0,0,1,1],"right_children":[2,4,-1,-1,-1],"split_conditions":[2E0,2.8749263E-1,7.70619E-2,2.204584E-2,-1.2936012E-1],"split_indices":[268,599,0,0,0],"split_type":[0,0,0,0,0],"sum_hessian":[1.7E1,1.3E1,4E0,6E0,7E0],"tree_param":{"num_deleted":"0","num_feature":"1304","num_nodes":"5","size_leaf_vector":"1"}},{"base_weights":[-5.7765216E-2,4.0567353E-2,-1.1455524E-1,-5.4444265E-2,2.7760746E-2],"categories":[],"categories_nodes":[],"categories_segments":[],"categories_sizes":[],"default_left":[0,0,0,0,0],"id":105,"left_children":[1,3,-1,-1,-1],"loss_changes":[1.048414E0,5.5709416E-1,0E0,0E0,0E0],"parents":[2147483647,0,0,1,1],"right_children":[2,4,-1,-1,-1],"split_conditions":[7.100913E-1,5E-1,-1.1455524E-1,-5.4444265E-2,2.7760746E-2],"split_indices":[1247,355,0,0,0],"split_type":[0,0,0,0,0],"sum_hessian":[2E1,1.7E1,3E0,4E0,1.3E1],"tree_param":{"num_deleted":"0","num_feature":"1304","num_nodes":"5","size_leaf_vector":"1"}},{"base_weights":[7.453103E-2,-9.807677E-2,1.8708292E-1,-5.5220015E-2,4.0116516E-1,1.4495249E-1,2.0813651E-2],"categories":[],"categories_nodes":[],"categories_segments":[],"categories_sizes":[],"default_left":[0,0,0,0,0,0,0],"id":106,"left_children":[1,-1,3,-1,5,-1,-1],"loss_changes":[1.25765E0,0E0,1.6464884E0,0E0,1.093951E0,0E0,0E0],"parents":[2147483647,0,0,2,2,4,4],"right_children":[2,-1,4,-1,6,-1,-1],"split_conditions":[-1.1360627E0,-9.807677E-2,5.7735026E-1,-5.5220015E-2,1.1055416E0,1.4495249E-1,2.0813651E-2],"split_indices":[624,0,311,0,480,0,0],"split_type":[0,0,0,0,0,0,0],"sum_hessian":[1.9E1,3E0,1.6E1,5E0,1.1E1,5E0,6E0],"tree_param":{"num_deleted":"0","num_feature":"1304","num_nodes":"7","size_leaf_vector":"1"}},{"base_weights":[-1.8076293E-1,-3.427101E-1,6.610988E-2,1.791736E-2,-1.3900588E-1],"categories":[],"categories_nodes":[],"categories_segments":[],"categories_sizes":[],"default_left":[0,0,0,0,0],"id":107,"left_children":[1,3,-1,-1,-1],"loss_changes":[1.4639658E0,2.1002228E0,0E0,0E0,0E0],"parents":[2147483647,0,0,1,1],"right_children":[2,4,-1,-1,-1],"split_conditions":[2E0,2.262424E-1,6.610988E-2,1.791736E-2,-1.3900588E-1],"split_indices":[268,681,0,0,0],"split_type":[0,0,0,0,0],"sum_hessian":[1.7E1,1.3E1,4E0,6E0,7E0],"tree_param":{"num_deleted":"0","num_feature":"1304","num_nodes":"5","size_leaf_vector":"1"}},{"base_weights":[-1.1626347E-1,-2.9182857E-1,5.374315E-2,-1.2204807E-1,2.53514E-2],"categories":[],"categories_nodes":[],"categories_segments":[],"categories_sizes":[],"default_left":[0,0,0,0,0],"id":108,"left_children":[1,3,-1,-1,-1],"loss_changes":[9.19495E-1,1.2906309E0,0E0,0E0,0E0],"parents":[2147483647,0,0,1,1],"right_children":[2,4,-1,-1,-1],"split_conditions":[2E0,9.4553165E-2,5.374315E-2,-1.2204807E-1,2.53514E-2],"split_indices":[268,577,0,0,0],"split_type":[0,0,0,0,0],"sum_hessian":[1.3E1,9E0,4E0,5E0,4E0],"tree_param":{"num_deleted":"0","num_feature":"1304","num_nodes":"5","size_leaf_vector":"1"}},{"base_weights":[1.9893567E-1,-3.8646244E-2,3.791584E-1,2.3388578E-2,1.5852857E-1],"categories":[],"categories_nodes":[],"categories_segments":[],"categories_sizes":[],"default_left":[0,0,0,0,0],"id":109,"left_children":[1,-1,3,-1,-1],"loss_changes":[1.1705501E0,0E0,1.2234892E0,0E0,0E0],"parents":[2147483647,0,0,2,2],"right_children":[2,-1,4,-1,-1],"split_conditions":[5.7735026E-1,-3.8646244E-2,5.892869E-1,2.3388578E-2,1.5852857E-1],"split_indices":[311,0,560,0,0],"split_type":[0,0,0,0,0],"sum_hessian":[1.6E1,5E0,1.1E1,7E0,4E0],"tree_param":{"num_deleted":"0","num_feature":"1304","num_nodes":"5","size_leaf_vector":"1"}},{"base_weights":[-6.555923E-2,-2.4567185E-1,1.4480211E-1,-5.660136E-1,1.6009554E-2,6.2160264E-4,-1.9128826E-1],"categories":[],"categories_nodes":[],"categories_segments":[],"categories_sizes":[],"default_left":[0,0,0,0,0,0,0],"id":110,"left_children":[1,3,-1,5,-1,-1,-1],"loss_changes":[2.521033E0,1.4987438E0,0E0,1.670145E0,0E0,0E0,0E0],"parents":[2147483647,0,0,1,1,3,3],"right_children":[2,4,-1,6,-1,-1,-1],"split_conditions":[2E0,9.4553165E-2,1.4480211E-1,5E-1,1.6009554E-2,6.2160264E-4,-1.9128826E-1],"split_indices":[317,577,0,316,0,0,0],"split_type":[0,0,0,0,0,0,0],"sum_hessian":[1.7E1,1.4E1,3E0,7E0,7E0,3E0,4E0],"tree_param":{"num_deleted":"0","num_feature":"1304","num_nodes":"7","size_leaf_vector":"1"}},{"base_weights":[-1.730024E-2,1.0083544E-1,-6.2279798E-2,-1.2166477E-1,1.1473691E-1,-8.809455E-2,2.878495E-2],"categories":[],"categories_nodes":[],"categories_segments":[],"categories_sizes":[],"default_left":[0,0,0,0,0,0,0],"id":111,"left_children":[1,3,-1,5,-1,-1,-1],"loss_changes":[6.5083414E-1,1.4333365E0,0E0,8.1904685E-1,0E0,0E0,0E0],"parents":[2147483647,0,0,1,1,3,3],"right_children":[2,4,-1,6,-1,-1,-1],"split_conditions":[1.7320508E0,9.864134E-1,-6.2279798E-2,2.4044213E-1,1.1473691E-1,-8.809455E-2,2.878495E-2],"split_indices":[314,23,0,550,0,0,0],"split_type":[0,0,0,0,0,0,0],"sum_hessian":[1.8E1,1.3E1,5E0,9E0,4E0,4E0,5E0],"tree_param":{"num_deleted":"0","num_feature":"1304","num_nodes":"7","size_leaf_vector":"1"}},{"base_weights":[2.1785101E-1,-3.23811E-2,3.4613106E-1,1.3907383E-1,1.4787591E-2],"categories":[],"categories_nodes":[],"categories_segments":[],"categories_sizes":[],"default_left":[0,0,0,0,0],"id":112,"left_children":[1,-1,3,-1,-1],"loss_changes":[8.071873E-1,0E0,1.1815013E0,0E0,0E0],"parents":[2147483647,0,0,2,2],"right_children":[2,-1,4,-1,-1],"split_conditions":[5.7735026E-1,-3.23811E-2,-3.3697358E-1,1.3907383E-1,1.4787591E-2],"split_indices":[311,0,577,0,0],"split_type":[0,0,0,0,0],"sum_hessian":[1.6E1,4E0,1.2E1,5E0,7E0],"tree_param":{"num_deleted":"0","num_feature":"1304","num_nodes":"5","size_leaf_vector":"1"}},{"base_weights":[-6.9742374E-2,5.5025537E-2,-9.0186834E-2,1.9744721E-1,-7.893528E-2,1.1916037E-1,1.9389648E-3],"categories":[],"categories_nodes":[],"categories_segments":[],"categories_sizes":[],"default_left":[0,0,0,0,0,0,0],"id":113,"left_children":[1,3,-1,5,-1,-1,-1],"loss_changes":[8.406477E-1,8.742285E-1,0E0,7.795603E-1,0E0,0E0,0E0],"parents":[2147483647,0,0,1,1,3,3],"right_children":[2,4,-1,6,-1,-1,-1],"split_conditions":[1.7320508E0,2E0,-9.0186834E-2,-5.8559996E-1,-7.893528E-2,1.1916037E-1,1.9389648E-3],"split_indices":[314,510,0,34,0,0,0],"split_type":[0,0,0,0,0,0,0],"sum_hessian":[1.7E1,1.3E1,4E0,1E1,3E0,3E0,7E0],"tree_param":{"num_deleted":"0","num_feature":"1304","num_nodes":"7","size_leaf_vector":"1"}},{"base_weights":[3.9888922E-2,-9.958811E-2,1.375837E-1,4.1870423E-2,-1.2438272E-1,-7.3310345E-2,1.8551765E-1,3.8433648E-3,9.7225666E-2],"categories":[],"categories_nodes":[],"categories_segments":[],"categories_sizes":[],"default_left":[0,0,0,0,0,0,0,0,0],"id":114,"left_children":[1,3,-1,5,-1,-1,7,-1,-1],"loss_changes":[1.6905413E0,1.1527119E0,0E0,7.4080443E-1,0E0,0E0,4.6893004E-1,0E0,0E0],"parents":[2147483647,0,0,1,1,3,3,6,6],"right_children":[2,4,-1,6,-1,-1,8,-1,-1],"split_conditions":[2E0,1.7320508E0,1.375837E-1,-6.044391E-1,-1.2438272E-1,-7.3310345E-2,9.864134E-1,3.8433648E-3,9.7225666E-2],"split_indices":[317,314,0,898,0,0,23,0,0],"split_type":[0,0,0,0,0,0,0,0,0],"sum_hessian":[1.8E1,1.5E1,3E0,1.2E1,3E0,3E0,9E0,6E0,3E0],"tree_param":{"num_deleted":"0","num_feature":"1304","num_nodes":"9","size_leaf_vector":"1"}},{"base_weights":[1.005455E-2,-4.4558346E-2,1.10954724E-1,4.753015E-2,-5.3296402E-2],"categories":[],"categories_nodes":[],"categories_segments":[],"categories_sizes":[],"default_left":[0,0,0,0,0],"id":115,"left_children":[1,-1,3,-1,-1],"loss_changes":[4.1572487E-1,0E0,6.2281805E-1,0E0,0E0],"parents":[2147483647,0,0,2,2],"right_children":[2,-1,4,-1,-1],"split_conditions":[5.7735026E-1,-4.4558346E-2,3.5350785E-1,4.753015E-2,-5.3296402E-2],"split_indices":[311,0,544,0,0],"split_type":[0,0,0,0,0],"sum_hessian":[1.7E1,5E0,1.2E1,9E0,3E0],"tree_param":{"num_deleted":"0","num_feature":"1304","num_nodes":"5","size_leaf_vector":"1"}},{"base_weights":[-1.36275E-1,-2.7072245E-1,5.7449244E-2,-1.1164447E-1,1.6274625E-2],"categories":[],"categories_nodes":[],"categories_segments":[],"categories_sizes":[],"default_left":[0,0,0,0,0],"id":116,"left_children":[1,3,-1,-1,-1],"loss_changes":[1.0071483E0,1.3967228E0,0E0,0E0,0E0],"parents":[2147483647,0,0,1,1],"right_children":[2,4,-1,-1,-1],"split_conditions":[2E0,9.4553165E-2,5.7449244E-2,-1.1164447E-1,1.6274625E-2],"split_indices":[268,577,0,0,0],"split_type":[0,0,0,0,0],"sum_hessian":[1.7E1,1.3E1,4E0,7E0,6E0],"tree_param":{"num_deleted":"0","num_feature":"1304","num_nodes":"5","size_leaf_vector":"1"}},{"base_weights":[3.051951E-2,-4.5779675E-2,7.223555E-2,1.2759304E-1,-1.2774031E-1,-3.4606662E-3,7.2880365E-2],"categories":[],"categories_nodes":[],"categories_segments":[],"categories_sizes":[],"default_left":[0,0,0,0,0,0,0],"id":117,"left_children":[1,3,-1,5,-1,-1,-1],"loss_changes":[4.4616902E-1,1.5049199E0,0E0,3.973201E-1,0E0,0E0,0E0],"parents":[2147483647,0,0,1,1,3,3],"right_children":[2,4,-1,6,-1,-1,-1],"split_conditions":[2E0,1.5275252E0,7.223555E-2,9.864134E-1,-1.2774031E-1,-3.4606662E-3,7.2880365E-2],"split_indices":[268,320,0,23,0,0,0],"split_type":[0,0,0,0,0,0,0],"sum_hessian":[1.7E1,1.4E1,3E0,1.1E1,3E0,7E0,4E0],"tree_param":{"num_deleted":"0","num_feature":"1304","num_nodes":"7","size_leaf_vector":"1"}},{"base_weights":[2.2837246E-2,2.423798E-2,-4.5710355E-2],"categories":[],"categories_nodes":[],"categories_segments":[],"categories_sizes":[],"default_left":[0,0,0],"id":118,"left_children":[1,-1,-1],"loss_changes":[4.7228697E-1,0E0,0E0],"parents":[2147483647,0,0],"right_children":[2,-1,-1],"split_conditions":[1.7320508E0,2.423798E-2,-4.5710355E-2],"split_indices":[314,0,0],"split_type":[0,0,0],"sum_hessian":[1.8E1,1.3E1,5E0],"tree_param":{"num_deleted":"0","num_feature":"1304","num_nodes":"3","size_leaf_vector":"1"}},{"base_weights":[5.2346263E-2,-1.061428E-2,8.9370616E-2],"categories":[],"categories_nodes":[],"categories_segments":[],"categories_sizes":[],"default_left":[0,0,0],"id":119,"left_children":[1,-1,-1],"loss_changes":[6.5579563E-1,0E0,0E0],"parents":[2147483647,0,0],"right_children":[2,-1,-1],"split_conditions":[2E0,-1.061428E-2,8.9370616E-2],"split_indices":[317,0,0],"split_type":[0,0,0],"sum_hessian":[1.5E1,1.2E1,3E0],"tree_param":{"num_deleted":"0","num_feature":"1304","num_nodes":"3","size_leaf_vector":"1"}},{"base_weights":[9.541309E-2,3.4875233E-2,-5.372327E-2],"categories":[],"categories_nodes":[],"categories_segments":[],"categories_sizes":[],"default_left":[0,0,0],"id":120,"left_children":[1,-1,-1],"loss_changes":[5.292699E-1,0E0,0E0],"parents":[2147483647,0,0],"right_children":[2,-1,-1],"split_conditions":[1.1459622E0,3.4875233E-2,-5.372327E-2],"split_indices":[1150,0,0],"split_type":[0,0,0],"sum_hessian":[1.7E1,1.4E1,3E0],"tree_param":{"num_deleted":"0","num_feature":"1304","num_nodes":"3","size_leaf_vector":"1"}},{"base_weights":[-1.459622E-1,-2.4173717E-1,5.0617293E-2,7.964832E-3,-9.404074E-2],"categories":[],"categories_nodes":[],"categories_segments":[],"categories_sizes":[],"default_left":[0,0,0,0,0],"id":121,"left_children":[1,3,-1,-1,-1],"loss_changes":[6.387471E-1,8.8601935E-1,0E0,0E0,0E0],"parents":[2147483647,0,0,1,1],"right_children":[2,4,-1,-1,-1],"split_conditions":[2E0,2.3741764E-1,5.0617293E-2,7.964832E-3,-9.404074E-2],"split_indices":[268,599,0,0,0],"split_type":[0,0,0,0,0],"sum_hessian":[1.6E1,1.3E1,3E0,6E0,7E0],"tree_param":{"num_deleted":"0","num_feature":"1304","num_nodes":"5","size_leaf_vector":"1"}},{"base_weights":[-4.146327E-2,4.3140516E-2,-5.3311195E-2,-1.5819456E-2,6.713836E-2],"categories":[],"categories_nodes":[],"categories_segments":[],"categories_sizes":[],"default_left":[0,0,0,0,0],"id":122,"left_children":[1,3,-1,-1,-1],"loss_changes":[3.7591445E-1,5.296892E-1,0E0,0E0,0E0],"parents":[2147483647,0,0,1,1],"right_children":[2,4,-1,-1,-1],"split_conditions":[1.7320508E0,9.864134E-1,-5.3311195E-2,-1.5819456E-2,6.713836E-2],"split_indices":[314,23,0,0,0],"split_type":[0,0,0,0,0],"sum_hessian":[1.9E1,1.4E1,5E0,1E1,4E0],"tree_param":{"num_deleted":"0","num_feature":"1304","num_nodes":"5","size_leaf_vector":"1"}},{"base_weights":[8.322523E-2,2.794016E-1,-1.3871163E-1,-9.802822E-3,1.7690216E-1,5.4578956E-2,-1.0789506E-1],"categories":[],"categories_nodes":[],"categories_segments":[],"categories_sizes":[],"default_left":[0,0,0,0,0,0,0],"id":123,"left_children":[1,3,5,-1,-1,-1,-1],"loss_changes":[7.57313E-1,1.890235E0,1.4317387E0,0E0,0E0,0E0,0E0],"parents":[2147483647,0,0,1,1,2,2],"right_children":[2,4,6,-1,-1,-1,-1],"split_conditions":[9.864134E-1,4.3861532E-1,1.7320508E0,-9.802822E-3,1.7690216E-1,5.4578956E-2,-1.0789506E-1],"split_indices":[23,542,314,0,0,0,0],"split_type":[0,0,0,0,0,0,0],"sum_hessian":[1.7E1,9E0,8E0,6E0,3E0,4E0,4E0],"tree_param":{"num_deleted":"0","num_feature":"1304","num_nodes":"7","size_leaf_vector":"1"}},{"base_weights":[-8.184173E-2,6.906984E-2,-7.942143E-2,-4.678596E-2,3.6871284E-2],"categories":[],"categories_nodes":[],"categories_segments":[],"categories_sizes":[],"default_left":[0,0,0,0,0],"id":124,"left_children":[1,3,-1,-1,-1],"loss_changes":[7.938272E-1,4.163584E-1,0E0,0E0,0E0],"parents":[2147483647,0,0,1,1],"right_children":[2,4,-1,-1,-1],"split_conditions":[1.5275252E0,-6.044391E-1,-7.942143E-2,-4.678596E-2,3.6871284E-2],"split_indices":[320,898,0,0,0],"split_type":[0,0,0,0,0],"sum_hessian":[1.6E1,1.1E1,5E0,3E0,8E0],"tree_param":{"num_deleted":"0","num_feature":"1304","num_nodes":"5","size_leaf_vector":"1"}},{"base_weights":[-1.9344343E-2,-2.9317962E-2,1.01437345E-1],"categories":[],"categories_nodes":[],"categories_segments":[],"categories_sizes":[],"default_left":[0,0,0],"id":125,"left_children":[1,-1,-1],"loss_changes":[1.140119E0,0E0,0E0],"parents":[2147483647,0,0],"right_children":[2,-1,-1],"split_conditions":[2E0,-2.9317962E-2,1.01437345E-1],"split_indices":[317,0,0],"split_type":[0,0,0],"sum_hessian":[1.6E1,1.3E1,3E0],"tree_param":{"num_deleted":"0","num_feature":"1304","num_nodes":"3","size_leaf_vector":"1"}},{"base_weights":[-6.246578E-2,-1.9220695E-1,9.350739E-2,2.1196937E-2,-8.75841E-2],"categories":[],"categories_nodes":[],"categories_segments":[],"categories_sizes":[],"default_left":[0,0,0,0,0],"id":126,"left_children":[1,3,-1,-1,-1],"loss_changes":[1.1492168E0,1.0132885E0,0E0,0E0,0E0],"parents":[2147483647,0,0,1,1],"right_children":[2,4,-1,-1,-1],"split_conditions":[2E0,2.8749263E-1,9.350739E-2,2.1196937E-2,-8.75841E-2],"split_indices":[268,599,0,0,0],"split_type":[0,0,0,0,0],"sum_hessian":[1.6E1,1.3E1,3E0,6E0,7E0],"tree_param":{"num_deleted":"0","num_feature":"1304","num_nodes":"5","size_leaf_vector":"1"}},{"base_weights":[5.4925364E-2,1.5237394E-1,-3.817192E-2,-1.3772324E-3,6.5430105E-2],"categories":[],"categories_nodes":[],"categories_segments":[],"categories_sizes":[],"default_left":[0,0,0,0,0],"id":127,"left_children":[1,3,-1,-1,-1],"loss_changes":[4.4777456E-1,3.80607E-1,0E0,0E0,0E0],"parents":[2147483647,0,0,1,1],"right_children":[2,4,-1,-1,-1],"split_conditions":[1.7320508E0,4.3861532E-1,-3.817192E-2,-1.3772324E-3,6.5430105E-2],"split_indices":[314,542,0,0,0],"split_type":[0,0,0,0,0],"sum_hessian":[1.8E1,1.3E1,5E0,7E0,6E0],"tree_param":{"num_deleted":"0","num_feature":"1304","num_nodes":"5","size_leaf_vector":"1"}},{"base_weights":[1.6371694E-1,-5.577607E-3,3.5193E-1,-1.4949928E-2,1.500845E-1],"categories":[],"categories_nodes":[],"categories_segments":[],"categories_sizes":[],"default_left":[0,0,0,0,0],"id":128,"left_children":[1,-1,3,-1,-1],"loss_changes":[5.88503E-1,0E0,1.4571646E0,0E0,0E0],"parents":[2147483647,0,0,2,2],"right_children":[2,-1,4,-1,-1],"split_conditions":[5.892869E-1,-5.577607E-3,5.7735026E-1,-1.4949928E-2,1.500845E-1],"split_indices":[560,0,311,0,0],"split_type":[0,0,0,0,0],"sum_hessian":[1.6E1,8E0,8E0,4E0,4E0],"tree_param":{"num_deleted":"0","num_feature":"1304","num_nodes":"5","size_leaf_vector":"1"}},{"base_weights":[-9.450259E-3,-5.9542682E-2,1.1564479E-1,6.3558064E-2,-7.338754E-3],"categories":[],"categories_nodes":[],"categories_segments":[],"categories_sizes":[],"default_left":[0,0,0,0,0],"id":129,"left_children":[1,-1,3,-1,-1],"loss_changes":[6.3883215E-1,0E0,3.9046732E-1,0E0,0E0],"parents":[2147483647,0,0,2,2],"right_children":[2,-1,4,-1,-1],"split_conditions":[5.7735026E-1,-5.9542682E-2,1.1055416E0,6.3558064E-2,-7.338754E-3],"split_indices":[311,0,480,0,0],"split_type":[0,0,0,0,0],"sum_hessian":[1.7E1,5E0,1.2E1,5E0,7E0],"tree_param":{"num_deleted":"0","num_feature":"1304","num_nodes":"5","size_leaf_vector":"1"}},{"base_weights":[-7.4459925E-2],"categories":[],"categories_nodes":[],"categories_segments":[],"categories_sizes":[],"default_left":[0],"id":130,"left_children":[-1],"loss_changes":[0E0],"parents":[2147483647],"right_children":[-1],"split_conditions":[-1.4643601E-2],"split_indices":[0],"split_type":[0],"sum_hessian":[2E1],"tree_param":{"num_deleted":"0","num_feature":"1304","num_nodes":"1","size_leaf_vector":"1"}},{"base_weights":[-5.9967212E-2],"categories":[],"categories_nodes":[],"categories_segments":[],"categories_sizes":[],"default_left":[0],"id":131,"left_children":[-1],"loss_changes":[0E0],"parents":[2147483647],"right_children":[-1],"split_conditions":[-1.1793404E-2],"split_indices":[0],"split_type":[0],"sum_hessian":[2E1],"tree_param":{"num_deleted":"0","num_feature":"1304","num_nodes":"1","size_leaf_vector":"1"}},{"base_weights":[1.6356604E-1,-1.6586993E-2,3.003072E-1,1.9916117E-2,1.3094342E-1],"categories":[],"categories_nodes":[],"categories_segments":[],"categories_sizes":[],"default_left":[0,0,0,0,0],"id":132,"left_children":[1,-1,3,-1,-1],"loss_changes":[4.8715076E-1,0E0,6.544073E-1,0E0,0E0],"parents":[2147483647,0,0,2,2],"right_children":[2,-1,4,-1,-1],"split_conditions":[-5.8559996E-1,-1.6586993E-2,4.3861532E-1,1.9916117E-2,1.3094342E-1],"split_indices":[34,0,542,0,0],"split_type":[0,0,0,0,0],"sum_hessian":[1.4E1,5E0,9E0,6E0,3E0],"tree_param":{"num_deleted":"0","num_feature":"1304","num_nodes":"5","size_leaf_vector":"1"}},{"base_weights":[-1.5765391E-2,-5.1315606E-2,1.9320834E-2],"categories":[],"categories_nodes":[],"categories_segments":[],"categories_sizes":[],"default_left":[0,0,0],"id":133,"left_children":[1,-1,-1],"loss_changes":[4.58516E-1,0E0,0E0],"parents":[2147483647,0,0],"right_children":[2,-1,-1],"split_conditions":[5.7735026E-1,-5.1315606E-2,1.9320834E-2],"split_indices":[311,0,0],"split_type":[0,0,0],"sum_hessian":[1.6E1,5E0,1.1E1],"tree_param":{"num_deleted":"0","num_feature":"1304","num_nodes":"3","size_leaf_vector":"1"}},{"base_weights":[-8.561944E-2,1.2993424E-2,-8.6195126E-2],"categories":[],"categories_nodes":[],"categories_segments":[],"categories_sizes":[],"default_left":[0,0,0],"id":134,"left_children":[1,-1,-1],"loss_changes":[9.270454E-1,0E0,0E0],"parents":[2147483647,0,0],"right_children":[2,-1,-1],"split_conditions":[1.5275252E0,1.2993424E-2,-8.6195126E-2],